
\data\
ngram 1=9137
ngram 2=48446
ngram 3=6621

\1-grams:
-3.182494	'	-0.1670001
-2.169332	''	-0.4976951
-4.518298	'S	-0.1249387
-4.995443	'd	-0.1249387
-4.694395	'm	-0.1249387
-3.995411	're	-0.1249387
-1.963999	's	-0.4191546
-4.296444	've	-0.1249387
-4.995443	1,400-mile-range	-0.1249387
-4.995443	1.2-pound	-0.1249387
-4.995443	1.3-megapixel	-0.1249387
-4.995443	10-K	-0.1249387
-4.995443	10-car	-0.1249387
-4.995443	10-page	-0.1249387
-4.995443	10.6-inch	-0.1249387
-4.995443	114,254-square-foot	-0.1249387
-4.995443	12-part	-0.1249387
-4.995443	12.1-inch	-0.1249387
-4.995443	125-channel	-0.1249387
-4.995443	14-passenger	-0.1249387
-4.995443	15.4-inch	-0.1249387
-4.995443	1\/8-inch	-0.1249387
-4.995443	2,000-mile-range	-0.1249387
-4.995443	2,100-mile-range	-0.1249387
-4.995443	20th-century	-0.1249387
-4.995443	224-page	-0.1249387
-4.995443	23-acre	-0.1249387
-4.995443	24-foot-high	-0.1249387
-4.995443	24-karat	-0.1249387
-4.995443	250-gigabyte	-0.1249387
-4.995443	280-member	-0.1249387
-4.995443	30,000-square-foot	-0.1249387
-4.995443	300-inch	-0.1249387
-4.995443	300-millimeter	-0.1249387
-4.995443	35-millimeter	-0.1249387
-4.995443	3M	-0.1249387
-4.995443	40-something	-0.1249387
-4.995443	46-inch	-0.1249387
-4.995443	500,000-barrel-a-day	-0.1249387
-4.393356	500-stock	-0.7269987
-4.995443	512-megabit	-0.1249387
-4.995443	517,000-square-foot	-0.1249387
-4.995443	7-to-2	-0.1249387
-4.995443	777-300ER	-0.1249387
-4.518298	7E7	-0.1249387
-4.995443	80-degree	-0.1249387
-4.995443	80-gigabyte	-0.1249387
-4.995443	800-pound	-0.1249387
-4.995443	900-store	-0.1249387
-1.436939	</s>
-99	<s>	-0.9958784
-5.11826	<unk>
-2.957981	A	-0.4064904
-4.995443	A.F.L.-C.I.O.	-0.1249387
-3.819318	A.I.G.	-0.154902
-4.995443	A.M.D.	-0.1249387
-4.995443	A.P.J.	-0.1249387
-4.694395	A.P.S.-size	-0.1249387
-4.995443	A320	-0.1249387
-4.041169	A380	-0.1760913
-4.995443	A9	-0.1249387
-4.995443	ADD	-0.1249387
-4.995443	AFTER	-0.1249387
-4.995443	AGAIN	-0.1249387
-4.995443	AIR	-0.1249387
-4.995443	AIRLINES	-0.1249387
-4.995443	AIRPLANE	-0.1249387
-4.995443	AIRPORTS	-0.1249387
-4.694395	AN	-0.1249387
-4.694395	AS	-0.1249387
-4.995443	AVENUE	-0.1249387
-4.995443	Absent	-0.1249387
-4.995443	Abuse	-0.1249387
-4.995443	Accompanying	-0.1249387
-4.092321	According	-1.028029
-4.995443	Accounting	-0.1249387
-4.995443	Acknowledging	-0.1249387
-4.995443	Act	-0.1249387
-4.995443	Acting	-0.1249387
-4.995443	Active	-0.1249387
-4.995443	Ad	-0.1249387
-4.995443	AdWords	-0.1249387
-4.995443	Adapters	-0.1249387
-4.694395	Adding	-0.4259687
-4.995443	Adept	-0.1249387
-4.995443	Administration	-0.1249387
-4.995443	Adults	-0.1249387
-4.995443	Advertisers	-0.1249387
-4.694395	Advertising	-0.1249387
-4.694395	Adweek.com	-0.1249387
-3.54825	After	-0.2933432
-4.995443	Aimed	-0.1249387
-4.995443	Air	-0.1249387
-4.995443	Airways	-0.1249387
-4.995443	Alarmed	-0.1249387
-4.296444	All	-0.2218487
-4.995443	All-Pros	-0.1249387
-4.995443	Allied	-0.1249387
-4.518298	Almost	-0.1249387
-4.995443	Along	-0.1249387
-4.518298	Also	-0.60206
-4.694395	Although	-0.1249387
-4.995443	Altogether	-0.1249387
-4.995443	Alzheimer	-0.1249387
-4.995443	Am	-0.1249387
-4.995443	Amana	-0.1249387
-4.694395	America	-0.4259688
-4.995443	AmericanConnection	-0.1249387
-4.296444	Among	-0.3467875
-4.995443	Amos	-0.1249387
-3.716655	An	-0.1484198
-4.393356	Analysts	-0.4259687
-3.597468	And	-0.2006595
-4.694395	Angeles	-0.4259687
-4.995443	Angels	-0.1249387
-4.296444	Another	-0.1249387
-4.694395	Antitrust	-0.1249387
-4.694395	Any	-0.1249387
-4.694395	Anyone	-0.1249387
-4.694395	Apex	-0.1249387
-4.518298	Apollo	-0.1249387
-4.995443	Appearing	-0.1249387
-4.393356	Apprentice	-0.7269987
-4.995443	ArcaEx	-0.1249387
-4.995443	Art	-0.1249388
-3.361939	As	-0.4159845
-4.995443	Asked	-0.1249387
-3.673189	At	-0.6690068
-4.995443	Audits	-0.1249387
-4.995443	AutoMark	-0.1249387
-4.694395	Available	-0.1249387
-4.995443	Avante	-0.1249387
-4.150314	Avenue	-0.2710668
-4.694395	Aviation	-0.1249387
-4.995443	Ay	-0.1249387
-4.296444	B	-0.1249387
-4.995443	BAGS	-0.1249387
-4.995443	BEAT	-0.1249387
-4.995443	BMW	-0.1249387
-4.995443	BOOM	-0.1249387
-4.995443	BREAD	-0.1249387
-4.995443	BROUGHT	-0.1249387
-4.694395	BY	-0.1249387
-4.995443	Babies	-0.1249387
-4.995443	Ballad	-0.1249388
-4.995443	Banana	-0.1249387
-4.995443	Bankruptcy	-0.1249387
-4.694395	Banks	-0.1249387
-4.995443	Barolo	-0.1249387
-4.393356	Barron	-0.7269987
-4.995443	Based	-0.1249387
-4.995443	Batphone	-0.1249387
-4.995443	Battered	-0.1249387
-4.995443	Beatles	-0.1249387
-4.995443	Because	-0.1249387
-4.694395	Beginning	-0.4259687
-4.995443	Being	-0.1249387
-4.995443	Believe	-0.1249387
-4.995443	Benchmark	-0.1249387
-4.995443	Benefits	-0.1249387
-4.995443	Besides	-0.1249387
-4.995443	Better	-0.1249387
-4.518298	Bextra	-0.1249387
-4.995443	Beyond	-0.1249387
-4.518298	Big	-0.1249387
-4.995443	Billings	-0.1249387
-4.995443	Biomedical	-0.1249387
-4.694395	Black	-0.1249387
-4.995443	BlackBerries	-0.1249387
-3.916229	BlackBerry	-0.20412
-4.995443	BlackBerry-related	-0.1249387
-4.995443	Blanc	-0.1249387
-4.995443	Blockbuster	-0.1249387
-4.995443	Blood	-0.1249387
-4.995443	Blu-ray	-0.1249387
-4.995443	Blue	-0.1249387
-4.995443	Body	-0.1249387
-4.995443	Book	-0.1249387
-4.694395	Books	-0.4259687
-4.041169	Both	-0.1249387
-4.995443	Bowing	-0.1249387
-4.217262	Bowl	-0.1249387
-4.995443	Brand-extension	-0.1249387
-4.995443	Breeze	-0.1249387
-4.995443	Brian	-0.1249387
-4.995443	Bride	-0.1249387
-4.995443	Brig.	-0.1249387
-4.150314	Bristol-Myers	-0.3679768
-4.296444	Broadway	-0.2218488
-4.995443	Buddy	-0.1249387
-4.995443	Bufferin	-0.1249387
-4.694395	Buffy	-0.1249387
-4.518298	Bug	-0.1249387
-4.995443	Builders	-0.1249387
-4.995443	Building	-0.1249387
-4.995443	Built-in	-0.1249387
-4.518298	Burger	-0.60206
-4.518298	Business	-0.1249387
-4.995443	Business-class	-0.1249387
-4.995443	Businesses	-0.1249387
-2.898497	But	-0.5406075
-4.995443	Butter	-0.1249387
-4.694395	Buy	-0.1249387
-4.296444	By	-0.1249387
-4.995443	Byline	-0.1249387
-4.995443	C	-0.1249387
-4.995443	C.E.O.	-0.1249388
-4.995443	C1	-0.1249387
-4.694395	C100	-0.1249387
-4.995443	CAN	-0.1249387
-4.694395	CBS	-0.1249387
-4.995443	CBS-owned	-0.1249387
-4.518298	CD	-0.30103
-4.694395	CD-R	-0.1249387
-4.995443	CDs	-0.1249387
-4.995443	CHECKED	-0.1249387
-4.995443	CORPORATE	-0.1249387
-4.995443	CROWDED	-0.1249387
-4.995443	Ca	-0.1249387
-4.995443	Calandra	-0.1249387
-4.694395	Call	-0.4259687
-4.995443	Called	-0.1249387
-4.518298	Camelback	-0.30103
-4.995443	Camry	-0.1249387
-4.995443	CanadianPharmacy	-0.1249387
-4.995443	Cancer	-0.1249387
-4.995443	Canyon	-0.1249387
-4.296444	Capital	-0.1249387
-4.995443	Car	-0.1249387
-4.995443	Cardinal	-0.1249387
-4.995443	Cargo	-0.1249387
-4.995443	Casting	-0.1249387
-4.995443	Catalog	-0.1249387
-4.995443	Celeron	-0.1249387
-4.296444	Center	-0.2218488
-4.995443	Central	-0.1249387
-4.995443	Champagne	-0.1249387
-4.995443	Chancellor	-0.1249387
-4.995443	Channel	-0.1249387
-4.995443	Charit	-0.1249387
-4.694395	Chart	-0.1249387
-4.518298	Chatter	-0.60206
-4.995443	Chautauqua	-0.1249387
-4.995443	Cheaptickets	-0.1249387
-4.995443	Chevrolet	-0.1249387
-4.995443	Chief	-0.1249387
-4.995443	Children	-0.1249387
-4.995443	Chine	-0.1249387
-4.995443	Chock	-0.1249387
-4.694395	Christ	-0.4259688
-4.995443	Circle	-0.1249387
-4.995443	Citation	-0.1249387
-4.694395	CitationShares	-0.1249387
-4.694395	Citing	-0.1249387
-4.995443	Claiming	-0.1249387
-4.296444	Class	-0.5228788
-4.995443	Clear	-0.1249387
-4.995443	Clearly	-0.1249387
-4.995443	Clients	-0.1249388
-4.995443	Closer	-0.1249387
-4.694395	Club	-0.1249387
-4.995443	ClubWorld	-0.1249387
-4.393356	Coach	-0.1249387
-4.995443	Code	-0.1249387
-4.694395	Col.	-0.4259687
-4.694395	Combined	-0.1249387
-4.995443	Come	-0.1249387
-4.694395	Comedy	-0.1249387
-4.995443	Commanche	-0.1249387
-4.995443	Commander	-0.1249387
-4.995443	Commercial	-0.1249387
-4.995443	Commissioned	-0.1249387
-4.393356	Common	-0.7269987
-4.296444	Company	-0.1249387
-4.694395	Competitors	-0.1249387
-4.995443	Concerned	-0.1249387
-4.995443	Concerns	-0.1249387
-4.995443	Consequences	-0.1249387
-4.995443	Consider	-0.1249387
-4.694395	Conspiracy	-0.4259687
-4.995443	Constellation	-0.1249387
-4.995443	Constitution	-0.1249387
-4.995443	Consumer	-0.1249387
-4.393356	Consumers	-0.1249387
-4.995443	Consumption	-0.1249387
-4.995443	Cool	-0.1249387
-4.995443	Corleone	-0.1249387
-4.995443	Corporate	-0.1249387
-4.995443	Corporation	-0.1249387
-4.995443	Corrupt	-0.1249387
-4.995443	Corruption	-0.1249387
-4.995443	Countries	-0.1249387
-4.995443	Country	-0.1249387
-4.995443	Courtside	-0.1249387
-4.995443	Cracked	-0.1249387
-4.995443	Cracking	-0.1249387
-4.995443	Cradle	-0.1249388
-4.995443	Creative	-0.1249387
-4.995443	CreditWatch	-0.1249387
-4.518298	Crest	-0.1249387
-4.694395	Criminal	-0.1249387
-4.995443	Critics	-0.1249388
-4.995443	Crossfire	-0.1249387
-4.995443	Crowne	-0.1249387
-4.694395	Customers	-0.4259687
-4.995443	D.S.L.	-0.1249387
-1.669071	DATE	-0.8624429
-4.995443	DEBUT	-0.1249387
-4.995443	DISABILITY	-0.1249387
-4.995443	DIVERGING	-0.1249387
-4.995443	DNA	-0.1249387
-4.694395	DS	-0.1249387
-2.269495	DURATION	-0.6549507
-3.954018	DVD	-0.2632414
-4.995443	DVD-R	-0.1249387
-4.518298	DVDs	-0.30103
-4.995443	Dasani	-0.1249387
-4.995443	Deep	-0.1249387
-4.995443	Defense	-0.1249387
-4.995443	Delays	-0.1249387
-4.995443	Demand	-0.1249387
-4.995443	Depot	-0.1249387
-4.995443	Depression	-0.1249387
-4.995443	Deregulation	-0.1249387
-4.995443	Designed	-0.1249387
-4.995443	Desperate	-0.1249387
-4.217262	Despite	-0.20412
-4.995443	Destroyed	-0.1249387
-4.995443	Diamond	-0.1249387
-4.995443	Diaries	-0.1249387
-4.995443	Digital	-0.1249387
-4.995443	Dimension	-0.1249387
-4.995443	Dips	-0.1249387
-4.995443	Direct	-0.1249387
-4.694395	Directors	-0.1249387
-4.518298	Dirty	-0.30103
-4.995443	Disability	-0.1249387
-4.518298	Discover	-0.1249387
-4.995443	Do	-0.1249387
-4.995443	Domecq	-0.1249387
-4.995443	Dozens	-0.1249388
-4.995443	Driven	-0.1249387
-4.694395	Dukes	-0.4259687
-4.995443	Dump	-0.1249387
-4.217262	During	-0.20412
-4.694395	E.	-0.4259687
-4.995443	E.Q.	-0.1249387
-4.393356	EBay	-0.1249387
-4.995443	ELABORATE	-0.1249387
-4.995443	ER	-0.1249387
-4.995443	EVEN	-0.1249387
-4.995443	EVOLVING	-0.1249387
-4.995443	EXPEDITING	-0.1249387
-4.995443	EXPERIENCE	-0.1249387
-4.694395	Each	-0.1249387
-4.995443	Earlier	-0.1249387
-4.995443	Earnings	-0.1249387
-4.694395	East	-0.1249387
-4.995443	Ebbers	-0.1249387
-4.694395	Economic	-0.1249387
-4.995443	Economists	-0.1249387
-4.995443	Edge	-0.1249387
-4.694395	Elements	-0.4259687
-4.995443	Elvis	-0.1249387
-4.694395	Embraer	-0.4259687
-4.995443	Emmy	-0.1249387
-4.995443	Employee	-0.1249387
-4.995443	Employing	-0.1249387
-4.694395	End	-0.1249387
-4.995443	Endeavor	-0.1249387
-4.995443	Ending	-0.1249387
-4.518298	Energy	-0.30103
-4.995443	England	-0.1249387
-4.995443	Enough	-0.1249387
-4.995443	Enter	-0.1249387
-4.995443	Entertainment	-0.1249387
-4.995443	Entourage	-0.1249387
-4.694395	Essence	-0.1249387
-4.217262	Even	-0.30103
-4.995443	Ever	-0.1249387
-4.995443	Everything	-0.1249387
-4.694395	Evil	-0.1249387
-4.694395	Evolution	-0.1249387
-4.995443	Exact	-0.1249387
-4.694395	Excedrin	-0.1249387
-4.995443	Excedrin-branded	-0.1249387
-4.995443	Excel	-0.1249387
-4.995443	Excluding	-0.1249387
-4.694395	Exclusive	-0.1249387
-4.995443	Executive	-0.1249387
-4.518298	Executives	-0.30103
-4.995443	Exorcism	-0.1249388
-4.995443	Experts	-0.1249387
-4.995443	Exploited	-0.1249387
-4.694395	Explorer	-0.1249387
-4.694395	Exporting	-0.1249387
-4.518298	F.C.C.	-0.1249387
-4.296444	F.D.A.	-0.1249387
-4.995443	FARES	-0.1249387
-4.995443	FAST-GROWTH	-0.1249387
-4.995443	FAVORITES	-0.1249387
-4.995443	FEARS	-0.1249387
-4.995443	FG-400	-0.1249387
-4.995443	FLIERS	-0.1249387
-4.995443	FLIGHTS	-0.1249387
-4.995443	FM	-0.1249387
-4.694395	FOR	-0.1249387
-4.995443	FORTUNES	-0.1249387
-4.995443	FREQUENT	-0.1249387
-4.995443	FULL	-0.1249387
-4.995443	FX	-0.1249387
-4.995443	Face	-0.1249387
-4.694395	Facing	-0.1249387
-4.995443	Fahrenheit	-0.1249387
-4.694395	Fair	-0.1249387
-4.694395	Fairmont	-0.1249387
-4.995443	FamilyFun	-0.1249387
-4.694395	Famous	-0.1249387
-4.995443	Fan	-0.1249387
-4.995443	Far	-0.1249387
-4.995443	Fare	-0.1249387
-4.995443	Farelogix	-0.1249387
-4.995443	Fat	-0.1249387
-4.995443	Featuring	-0.1249387
-4.995443	FedEx	-0.1249387
-4.041169	Federal	-0.3802112
-4.995443	Feh	-0.1249387
-4.995443	Ferret	-0.1249387
-4.995443	Few	-0.1249387
-4.694395	Films	-0.1249387
-4.694395	Final	-0.1249387
-4.995443	Financial	-0.1249387
-4.995443	Finite	-0.1249387
-4.694395	Firefly	-0.1249387
-4.995443	Fledgling	-0.1249387
-4.995443	Fluxys	-0.1249388
-4.995443	Folgers	-0.1249387
-4.092321	Following	-0.7269987
-4.995443	Food	-0.1249387
-4.694395	Fools	-0.4259687
-3.490258	For	-0.4839607
-4.995443	Foreign	-0.1249387
-4.995443	Forget	-0.1249387
-4.393356	Fortune	-0.1249387
-4.995443	France-KLM	-0.1249387
-4.995443	Freakonomics	-0.1249387
-4.995443	Fresh	-0.1249387
-4.995443	Fretlight	-0.1249387
-4.518298	From	-0.1249387
-4.995443	Full-stop	-0.1249387
-4.217262	Fund	-0.1249387
-4.995443	Fungicide	-0.1249387
-4.995443	G	-0.1249387
-4.296444	G.M.	-0.2218487
-4.995443	G.M.A.C.	-0.1249387
-4.995443	G2	-0.1249387
-4.995443	GAS	-0.1249387
-4.995443	GIVEN	-0.1249387
-4.995443	GM-branded	-0.1249387
-4.995443	Game	-0.1249387
-4.995443	Games	-0.1249387
-4.518298	Gap	-0.1249387
-4.995443	Garden	-0.1249387
-4.995443	Gas	-0.1249387
-4.995443	Gator	-0.1249387
-4.518298	Gen.	-0.60206
-4.995443	Generics	-0.1249387
-4.995443	Genetically	-0.1249387
-4.995443	Gerber	-0.1249387
-4.694395	Get	-0.1249387
-4.995443	Giant	-0.1249387
-4.995443	Girls	-0.1249387
-4.995443	Given	-0.1249387
-4.694395	Glamour	-0.1249387
-4.995443	Global	-0.1249387
-4.995443	Go	-0.1249387
-4.694395	Godfather	-0.1249387
-4.995443	Golden	-0.1249387
-4.694395	Good	-0.4259687
-4.995443	Google	-0.1249387
-4.995443	Goose	-0.1249387
-4.995443	Got	-0.1249387
-4.995443	Gov.	-0.1249387
-4.995443	Grey	-0.1249387
-4.694395	Group	-0.1249387
-4.995443	Guard	-0.1249387
-4.995443	Guide	-0.1249387
-4.995443	Guinness	-0.1249387
-4.995443	H-1B	-0.1249387
-4.995443	HEDGE	-0.1249387
-4.995443	HERE	-0.1249387
-4.995443	HIRING	-0.1249387
-4.995443	HOTEL	-0.1249387
-4.995443	HOW	-0.1249387
-4.995443	Hamptons	-0.1249387
-4.518298	Hard	-0.60206
-4.995443	Harpo	-0.1249387
-4.995443	Harry	-0.1249387
-4.995443	Having	-0.1249387
-4.694395	Hazzard	-0.1249387
-3.217256	He	-0.50515
-4.995443	Health	-0.1249387
-4.694395	Heart	-0.1249387
-4.995443	Heartclog	-0.1249387
-4.995443	Heated	-0.1249387
-4.995443	Hedge	-0.1249387
-4.296444	Her	-0.1249387
-4.217262	Here	-0.60206
-4.995443	Hexal	-0.1249388
-4.995443	Hilton	-0.1249387
-3.881466	His	-0.1249387
-4.995443	Hispanic	-0.1249387
-4.995443	Holiday	-0.1249387
-4.393356	Home	-0.1249387
-4.995443	Hoping	-0.1249387
-4.995443	Hotel	-0.1249387
-4.995443	Hotels	-0.1249387
-4.995443	House	-0.1249387
-4.995443	Housewives	-0.1249387
-4.150314	How	-0.1918855
-4.995443	However	-0.1249387
-4.995443	Hulk	-0.1249387
-4.995443	Hummers	-0.1249387
-4.995443	Humor	-0.1249387
-4.995443	Hundreds	-0.1249388
-3.995411	Hurricane	-0.5228788
-3.597468	I	-0.1804561
-4.995443	I.Q.	-0.1249387
-4.995443	IAC\/InteractiveCorp	-0.1249387
-4.995443	ID	-0.1249387
-4.995443	IF	-0.1249387
-4.995443	IMAGINE	-0.1249387
-4.995443	IMPROVEMENTS	-0.1249387
-4.694395	IN	-0.1249387
-4.995443	INNOVATION	-0.1249387
-4.995443	INVESTORS	-0.1249387
-4.694395	IT	-0.1249387
-4.995443	Ice	-0.1249387
-4.694395	Identity	-0.1249387
-4.694395	Idol	-0.4259688
-3.881466	If	-0.2846396
-4.995443	Illustrated	-0.1249387
-4.995443	Image	-0.1249387
-4.995443	Imports	-0.1249387
-2.840071	In	-0.8178768
-4.995443	Incentives	-0.1249387
-4.995443	Including	-0.1249387
-4.995443	Indeed	-0.1249387
-4.995443	Independence	-0.1249387
-4.995443	Individual	-0.1249387
-4.995443	Industrial	-0.1249387
-4.995443	Industry	-0.1249387
-4.995443	Inflation	-0.1249387
-4.995443	Inflight	-0.1249387
-4.995443	Inn	-0.1249387
-4.694395	Inquirer	-0.1249387
-4.694395	Insider	-0.4259688
-4.995443	Insiders	-0.1249387
-4.296444	Instead	-0.2218488
-4.518298	Insurance	-0.1249387
-4.995443	Intensifying	-0.1249387
-4.995443	InterContinental	-0.1249387
-4.995443	Interactive	-0.1249387
-4.995443	Interest	-0.1249387
-4.995443	Internal	-0.1249387
-4.518298	International	-0.1249387
-4.518298	Internet	-0.30103
-4.995443	Interviewed	-0.1249387
-4.995443	Intimate	-0.1249387
-4.995443	Investigations	-0.1249387
-4.995443	Investigators	-0.1249387
-4.518298	Investors	-0.1249387
-4.694395	Is	-0.1249387
-4.995443	Island	-0.1249387
-3.132085	It	-0.6080504
-4.092321	Its	-0.1249387
-4.995443	J	-0.1249387
-4.694395	JET	-0.1249387
-4.995443	JUST	-0.1249387
-4.518298	Jeep	-0.1249387
-4.995443	Jenn-Air	-0.1249387
-4.995443	Jet	-0.1249387
-4.995443	JetCard	-0.1249387
-4.041169	Journal	-0.30103
-4.995443	Journalists	-0.1249387
-4.995443	June\/July	-0.1249387
-4.995443	Jurors	-0.1249387
-4.995443	Jury	-0.1249387
-4.296444	Just	-0.5228787
-4.518298	Justice	-0.60206
-4.995443	KPRC-AM	-0.1249387
-4.694395	Kaletra	-0.1249387
-4.694395	Katrina	-0.1249387
-4.518298	King	-0.1249387
-4.995443	Kit	-0.1249387
-4.694395	Knight	-0.4259687
-4.995443	Knopf	-0.1249387
-4.995443	Kreme	-0.1249387
-4.995443	Krispy	-0.1249387
-4.995443	Kryvorizhstal	-0.1249387
-4.995443	Kugelberg-Welander	-0.1249387
-4.393356	L	-0.2498775
-4.995443	L.E.D.	-0.1249387
-4.995443	LAVISH	-0.1249387
-4.995443	LL	-0.1249387
-1.874504	LOCATION	-0.6883343
-4.995443	LOCKING	-0.1249387
-4.995443	Land	-0.1249387
-4.694395	Landmark	-0.1249387
-4.995443	Lands	-0.1249387
-4.995443	Language	-0.1249387
-4.995443	Late	-0.1249387
-4.995443	Lately	-0.1249387
-4.995443	Later	-0.1249387
-4.995443	Latin	-0.1249387
-4.694395	Latitude	-0.1249387
-4.694395	Law	-0.1249387
-4.694395	Lawmakers	-0.1249387
-4.995443	Laws	-0.1249387
-4.217262	Lawyers	-0.9030899
-4.694395	Layoffs	-0.1249387
-4.995443	Leaders	-0.1249388
-4.995443	Leading	-0.1249387
-4.995443	Leakers	-0.1249387
-4.995443	Learjet	-0.1249387
-4.995443	Lee	-0.1249387
-4.518298	Legendary	-0.1249387
-4.518298	Lexus	-0.1249387
-4.995443	Life	-0.1249387
-4.995443	Lifetime	-0.1249387
-4.995443	Lifting	-0.1249387
-4.694395	Lipitor	-0.1249387
-4.694395	List	-0.1249387
-4.995443	Listeners	-0.1249387
-4.995443	Listerine	-0.1249387
-4.694395	Live	-0.1249387
-4.393356	Living	-0.2498775
-4.518298	London-based	-0.30103
-4.995443	Long-delayed	-0.1249387
-4.995443	Looking	-0.1249387
-4.995443	Loopholes	-0.1249387
-4.296444	Lord	-0.3467875
-4.694395	Los	-0.4259687
-4.995443	Losses	-0.1249387
-4.694395	Loverboy	-0.1249387
-4.694395	Low	-0.1249387
-4.694395	Lt.	-0.4259687
-4.995443	Lucrative	-0.1249387
-4.995443	Ludacris	-0.1249387
-4.995443	Luna	-0.1249387
-4.995443	Luxtera	-0.1249387
-4.995443	Luxury	-0.1249387
-4.694395	M	-0.1249387
-4.995443	M.B.A.	-0.1249387
-4.995443	MADISON	-0.1249387
-4.995443	MARKETING	-0.1249387
-4.995443	MBIA	-0.1249387
-2.276905	MISC	-0.370684
-4.995443	MMMBop	-0.1249387
-2.145988	MONEY	-0.7812335
-4.995443	MOUSE	-0.1249387
-4.995443	MPEG-4	-0.1249387
-4.995443	MPG	-0.1249387
-4.995443	MTBE	-0.1249387
-4.150314	Madison	-0.6690068
-4.995443	Maid	-0.1249387
-4.995443	Maintaining	-0.1249387
-4.995443	Major	-0.1249387
-4.995443	Makers	-0.1249388
-4.995443	Making	-0.1249387
-4.995443	Management	-0.1249387
-3.849282	Many	-0.2296741
-4.995443	Marketing	-0.1249387
-4.995443	Marvel	-0.1249387
-4.995443	MasterCards	-0.1249387
-4.995443	Masterpiece	-0.1249387
-4.995443	Matrix	-0.1249387
-4.995443	Maxim	-0.1249387
-4.995443	Mayor	-0.1249387
-4.995443	McDonald	-0.1249387
-4.995443	McLibel	-0.1249387
-4.995443	Measure	-0.1249388
-4.995443	Mechanics	-0.1249387
-4.518298	Media	-0.1249387
-4.995443	Medicine	-0.1249387
-4.995443	Meeting	-0.1249387
-4.694395	Members	-0.4259687
-4.694395	Memorial	-0.4259687
-4.995443	Mentoring	-0.1249387
-4.995443	Merck	-0.1249387
-4.995443	MicroPhage	-0.1249387
-4.995443	Migraine	-0.1249387
-4.518298	Millennium	-0.1249387
-4.995443	Millstone	-0.1249387
-4.995443	Mini	-0.1249387
-4.694395	Minister	-0.4259687
-4.995443	Miramax	-0.1249387
-4.518298	Mobile	-0.1249387
-4.995443	Model	-0.1249387
-4.694395	Modern	-0.1249387
-4.995443	MoistureLoc	-0.1249387
-4.995443	Money	-0.1249387
-4.995443	Monitor	-0.1249387
-4.217262	More	-0.60206
-4.694395	Morning	-0.4259687
-4.393356	Most	-0.1249387
-4.995443	Mot	-0.1249387
-4.995443	Mother	-0.1249387
-3.995411	Motion	-0.2218488
-4.995443	Motor	-0.1249387
-4.995443	Movie	-0.1249387
-4.694395	MovieLabs	-0.1249387
-4.995443	Moving	-0.1249387
-4.694395	Mr.	-0.1249387
-4.694395	Much	-0.1249387
-4.995443	Murder	-0.1249387
-4.995443	Music	-0.1249387
-4.296444	My	-0.1249387
-4.995443	Myths	-0.1249388
-4.995443	NBC	-0.1249387
-4.995443	NC-17	-0.1249387
-4.995443	NEITHER	-0.1249387
-4.995443	NEVER	-0.1249387
-4.995443	NEW	-0.1249387
-4.995443	NICHE	-0.1249387
-4.995443	NO	-0.1249387
-4.995443	NORTHWEST	-0.1249387
-1.943869	NUMBER	-0.5460493
-4.694395	NYTimes.com	-0.1249387
-4.995443	Nation	-0.1249387
-4.518298	National	-0.1249387
-4.995443	Nationals	-0.1249387
-4.694395	Nearly	-0.1249387
-4.995443	Negotiations	-0.1249387
-4.995443	Neighborhood	-0.1249387
-4.995443	Neopets	-0.1249387
-4.995443	Net	-0.1249387
-4.995443	Net-net	-0.1249387
-4.296444	New	-0.1249387
-4.393356	News	-0.2498775
-4.694395	No	-0.1249387
-4.092321	No.	-1.028029
-4.995443	Noche	-0.1249387
-4.995443	Noise-killing	-0.1249387
-4.694395	Northeast	-0.1249387
-4.296444	Not	-0.1249387
-4.995443	Nothing	-0.1249387
-4.995443	Nuts	-0.1249387
-4.995443	O	-0.1249387
-4.694395	O.K.	-0.1249387
-2.764958	ORDINAL	-0.3731164
-1.479401	ORGANIZATION	-0.8627937
-4.995443	Objectors	-0.1249387
-4.995443	Oddly	-0.1249387
-4.694395	Of	-0.1249387
-4.694395	Office	-0.1249387
-4.393356	Officials	-0.1249387
-4.995443	Oh	-0.1249387
-4.694395	Oil	-0.1249387
-4.694395	Omnimedia	-0.1249387
-3.615197	On	-0.60206
-4.995443	Onion	-0.1249387
-4.296444	Online	-0.1249387
-4.694395	Only	-0.1249387
-4.995443	Op-Ed	-0.1249387
-4.995443	Open-source	-0.1249387
-4.995443	Opera	-0.1249387
-4.995443	Opie	-0.1249387
-4.694395	Or	-0.1249387
-4.995443	Oracle-PeopleSoft	-0.1249387
-4.995443	Order	-0.1249387
-4.995443	Orders	-0.1249387
-4.995443	Organization	-0.1249388
-4.995443	Originally	-0.1249387
-4.518298	Other	-0.1249387
-4.995443	Others	-0.1249387
-4.995443	Our	-0.1249387
-4.694395	Out	-0.4259687
-4.995443	OutQ	-0.1249387
-4.296444	Over	-0.2218488
-4.995443	Overture	-0.1249387
-4.995443	P.	-0.1249387
-3.995411	PC	-0.2798407
-2.534509	PERCENT	-0.7166048
-1.819605	PERSON	-0.8726054
-4.995443	PG-13	-0.1249387
-4.995443	PREMIUM-CABIN	-0.1249387
-4.995443	PRESIDENT	-0.1249387
-4.995443	PRESSED	-0.1249387
-4.995443	PRIVATE	-0.1249387
-4.995443	PROGRAM	-0.1249387
-4.694395	PTK\/ZK	-0.1249387
-4.995443	Pac-Man	-0.1249387
-4.995443	Page	-0.1249387
-4.995443	Panel	-0.1249387
-4.995443	Papers	-0.1249387
-4.995443	Parade	-0.1249387
-4.995443	Paramount	-0.1249387
-4.995443	Pargluva	-0.1249387
-4.995443	Parkinson	-0.1249387
-4.995443	Part	-0.1249387
-4.995443	Partners	-0.1249387
-4.995443	Pass	-0.1249387
-4.995443	Passengers	-0.1249387
-4.518298	Passion	-0.30103
-4.995443	Patients	-0.1249387
-4.995443	Paxville	-0.1249387
-4.995443	Pentagon	-0.1249387
-4.694395	People	-0.1249387
-4.995443	Perhaps	-0.1249387
-4.995443	Period	-0.1249387
-4.694395	Petrleos	-0.4259687
-4.995443	Petroleum	-0.1249387
-4.995443	Phantom	-0.1249388
-4.995443	Pharmacy	-0.1249387
-4.694395	Photo	-0.1249387
-4.995443	Photoshop	-0.1249387
-4.995443	Pictures	-0.1249387
-4.995443	Pillar	-0.1249387
-4.995443	Pilots	-0.1249387
-4.995443	Pinochet	-0.1249387
-4.694395	Plan	-0.4259687
-4.995443	Planes	-0.1249387
-4.518298	PlayStation	-0.30103
-4.995443	Plaza	-0.1249387
-4.995443	Plenty	-0.1249388
-4.694395	Point	-0.1249387
-4.995443	Polo	-0.1249387
-4.995443	Porsches	-0.1249387
-4.995443	Portrait	-0.1249387
-4.995443	Positioning	-0.1249387
-4.995443	Post-Star	-0.1249387
-4.995443	Power	-0.1249387
-4.995443	Practices	-0.1249387
-4.995443	Premiere	-0.1249387
-3.597468	President	-1.045758
-4.995443	Previous	-0.1249387
-4.995443	Priced	-0.1249387
-4.694395	Prices	-0.1249387
-4.995443	Prima	-0.1249387
-4.694395	Prime	-0.4259687
-4.995443	Princess	-0.1249387
-4.694395	Print	-0.1249387
-4.995443	Probably	-0.1249387
-4.995443	Problems	-0.1249387
-4.694395	Procrit	-0.1249387
-4.995443	Production	-0.1249387
-4.694395	Products	-0.1249387
-4.995443	Professor	-0.1249387
-4.518298	Profit	-0.30103
-4.995443	Promise	-0.1249387
-4.995443	Properties	-0.1249388
-4.995443	Propose	-0.1249387
-4.518298	Prosecutors	-0.1249388
-4.694395	Prospects	-0.1249387
-4.694395	Prozac	-0.1249387
-4.995443	Public	-0.1249387
-4.296444	Q.	-0.2218488
-4.995443	Q30	-0.1249387
-4.995443	Qu	-0.1249387
-4.995443	Quantum	-0.1249387
-4.995443	Quiamare-La	-0.1249387
-4.393356	R	-0.4259687
-4.995443	RACE	-0.1249387
-4.995443	RE4	-0.1249387
-4.995443	REIT	-0.1249387
-4.995443	RX330	-0.1249387
-4.694395	Radar	-0.1249387
-4.995443	Radio	-0.1249387
-4.995443	Ragtime	-0.1249387
-4.995443	Raider	-0.1249387
-4.995443	Ranked	-0.1249387
-4.393356	Rather	-0.1249387
-4.995443	ReNu	-0.1249387
-4.995443	Real	-0.1249387
-4.995443	Receiving	-0.1249387
-4.995443	Record	-0.1249387
-4.995443	Recut	-0.1249387
-4.995443	Referring	-0.1249387
-4.995443	Reflecting	-0.1249387
-4.995443	Reform	-0.1249387
-4.995443	ReganBooks	-0.1249387
-4.296444	Regulators	-0.2218487
-4.995443	Reinventing	-0.1249387
-4.995443	Relenting	-0.1249387
-4.694395	Report	-0.1249387
-4.393356	Representative	-0.7269987
-4.995443	Representatives	-0.1249387
-4.092321	Research	-0.7269987
-4.694395	Resident	-0.4259687
-4.393356	Resorts	-0.1249387
-4.995443	Resources	-0.1249387
-4.995443	Responding	-0.1249387
-4.995443	Rest	-0.1249387
-4.393356	Retirement	-0.7269987
-4.995443	Retreating	-0.1249387
-4.995443	Reuse	-0.1249387
-4.518298	Revenue	-0.1249387
-4.995443	Revolution	-0.1249387
-4.995443	Rhino	-0.1249387
-4.694395	Ridder	-0.1249387
-4.995443	Ridgeline	-0.1249387
-4.995443	Ring	-0.1249387
-4.694395	Rings	-0.4259688
-4.694395	Rita	-0.1249387
-4.995443	Rockefeller	-0.1249387
-4.694395	Rolling	-0.4259687
-4.995443	Rose	-0.1249387
-4.995443	Rover	-0.1249387
-4.995443	Russophobia	-0.1249387
-4.995443	S.	-0.1249387
-4.694395	S.U.V.	-0.1249387
-4.995443	SCi	-0.1249387
-4.694395	SD	-0.1249387
-4.694395	SECURITY	-0.1249387
-3.071128	SET	-0.278366
-4.995443	SPACE	-0.1249387
-4.995443	SPORT	-0.1249387
-4.995443	SPORTS	-0.1249387
-4.995443	SR20	-0.1249387
-4.995443	STREET	-0.1249387
-4.995443	SY-fon	-0.1249387
-4.995443	Saabs	-0.1249387
-4.995443	Safety	-0.1249387
-4.995443	Sale	-0.1249387
-4.150314	Sales	-0.1918855
-4.995443	Samples	-0.1249388
-4.995443	Saying	-0.1249387
-4.995443	Scheduled	-0.1249387
-4.995443	Scholar	-0.1249387
-4.694395	Science	-0.4259687
-4.694395	Scientists	-0.4259687
-4.995443	Scorchio	-0.1249387
-4.995443	Scores	-0.1249388
-4.694395	Search	-0.1249387
-4.393356	Secretary	-0.4259687
-4.092321	Security	-0.1829307
-4.694395	Select	-0.1249387
-4.995443	Self	-0.1249387
-4.518298	Sell	-0.30103
-4.995443	Semiconductor	-0.1249388
-4.694395	Senator	-0.4259687
-4.995443	Senior	-0.1249387
-4.694395	Sentry	-0.1249387
-4.694395	Separately	-0.4259687
-4.694395	Series	-0.1249387
-4.995443	Serious	-0.1249387
-4.995443	Sesame	-0.1249387
-4.995443	Setting	-0.1249387
-4.217262	Several	-0.1249387
-4.995443	Shareholders	-0.1249387
-4.296444	Shares	-0.5228788
-3.791289	She	-0.4839607
-4.995443	Shop	-0.1249387
-4.995443	Shopping	-0.1249387
-4.694395	Shortly	-0.4259687
-4.995443	Showing	-0.1249387
-4.995443	Showtime	-0.1249387
-4.995443	Signaling	-0.1249387
-4.995443	Silicon	-0.1249387
-4.995443	Silver	-0.1249387
-4.296444	Since	-0.3467875
-4.150314	Sir	-0.9700367
-4.995443	SkypeOut	-0.1249387
-4.995443	Slayer	-0.1249387
-4.694395	Sloan-Kettering	-0.1249387
-4.995443	Slurper	-0.1249387
-4.995443	Slurping	-0.1249387
-4.995443	SmartWi	-0.1249387
-3.995411	So	-0.2218487
-4.092321	Social	-1.028029
-4.995443	Solaris	-0.1249387
-4.995443	Soldiers	-0.1249387
-4.995443	Solidarity	-0.1249387
-3.954018	Some	-0.1663314
-4.995443	Soon	-0.1249387
-4.995443	SoundShield	-0.1249387
-4.393356	Space	-0.4259687
-4.995443	Speaking	-0.1249387
-4.694395	Specialists	-0.1249387
-4.995443	Spending	-0.1249387
-4.995443	Spider-Man	-0.1249387
-4.296444	Sports	-0.1249387
-4.995443	Spyder	-0.1249387
-4.694395	Square	-0.1249387
-4.393356	Squibb	-0.1249387
-4.995443	Staggered	-0.1249387
-4.995443	Star	-0.1249387
-4.995443	Stars	-0.1249388
-4.393356	Starting	-0.4259687
-4.694395	State	-0.1249387
-4.995443	States	-0.1249387
-4.995443	Station	-0.1249387
-4.995443	Station-34th	-0.1249387
-4.995443	Staubach	-0.1249387
-4.995443	Steep	-0.1249387
-4.694395	Stents	-0.4259687
-4.995443	Stepford	-0.1249387
-4.995443	Stepping	-0.1249387
-4.995443	Sticklers	-0.1249387
-4.296444	Still	-0.2218488
-4.995443	Stockholders	-0.1249387
-4.694395	Stone	-0.1249387
-4.995443	Stop	-0.1249387
-4.694395	Store	-0.1249387
-4.694395	Story	-0.4259688
-4.995443	Strategy	-0.1249387
-3.518287	Street	-0.2403322
-4.995443	Street-Times	-0.1249387
-4.995443	Strike	-0.1249387
-4.296444	Such	-0.2218488
-4.995443	Suede	-0.1249388
-4.995443	Summary	-0.1249387
-4.995443	Summit	-0.1249387
-4.694395	Sun	-0.1249387
-4.217262	Super	-0.90309
-4.995443	Superman	-0.1249387
-4.995443	Survivors	-0.1249387
-4.995443	Swirl	-0.1249387
-4.995443	SwitchWorks	-0.1249387
-4.995443	System	-0.1249387
-4.995443	T1	-0.1249387
-4.694395	T2	-0.1249387
-4.995443	TAG	-0.1249387
-4.518298	TALK	-0.60206
-4.995443	TECHNOLOGY	-0.1249387
-4.995443	TEST	-0.1249387
-3.954018	THE	-0.1663314
-4.995443	THEIR	-0.1249387
-4.995443	THERE	-0.1249387
-3.162899	TIME	-0.5102896
-4.694395	TO	-0.1249387
-4.995443	TOP	-0.1249387
-4.518298	TRAVEL	-0.1249387
-4.995443	TRAVELERS	-0.1249387
-3.791289	TV	-0.1249387
-4.694395	Take	-0.4259687
-4.995443	Taking	-0.1249387
-4.995443	Talk	-0.1249387
-4.694395	Talks	-0.1249387
-4.995443	Talon	-0.1249387
-4.995443	Tamiflu	-0.1249387
-4.694395	Tanqueray	-0.1249387
-4.995443	Target	-0.1249387
-4.995443	Tarty	-0.1249387
-4.995443	Tax	-0.1249387
-4.995443	Technology	-0.1249387
-4.995443	Tek	-0.1249387
-4.694395	Television	-0.1249387
-4.995443	Texans	-0.1249388
-3.463929	That	-0.2414443
-1.955596	The	-0.5272595
-4.995443	Theater	-0.1249387
-4.995443	Theaters	-0.1249387
-4.518298	Their	-0.1249387
-4.518298	Then	-0.1249387
-3.954018	There	-0.3881802
-4.694395	These	-0.1249387
-3.597468	They	-0.3467875
-4.995443	Think	-0.1249387
-4.694395	ThinkPad	-0.1249387
-3.916229	This	-0.2498775
-4.150314	Those	-0.1249387
-4.041169	Though	-0.3802112
-4.694395	Through	-0.1249387
-4.995443	Throughout	-0.1249387
-4.150314	Time	-0.1918855
-4.296444	Times	-0.3467875
-4.694395	Titan	-0.1249387
-4.092321	To	-0.1249387
-4.393356	Together	-0.2498775
-4.995443	Tomb	-0.1249387
-4.995443	Too	-0.1249387
-4.518298	Top	-0.1249387
-4.995443	Total	-0.1249388
-4.995443	Toyota	-0.1249387
-4.694395	Toys	-0.4259688
-4.995443	Trace	-0.1249387
-4.694395	Tracks	-0.1249387
-4.995443	Trade	-0.1249387
-4.995443	Trader	-0.1249387
-4.518298	Travel	-0.30103
-4.995443	Treasuries	-0.1249387
-4.995443	Treasury	-0.1249387
-4.995443	Trek	-0.1249387
-4.995443	Trends	-0.1249387
-4.995443	Trial	-0.1249387
-4.518298	True	-0.30103
-4.995443	TrumpNation	-0.1249387
-4.694395	Turning	-0.1249387
-4.694395	Type	-0.4259687
-4.995443	Typhoon	-0.1249387
-4.995443	U.S.	-0.1249387
-4.995443	U.S.B	-0.1249387
-4.694395	U.S.B.	-0.1249387
-4.995443	UltraSparc	-0.1249387
-3.849282	Under	-0.5720968
-4.995443	Underscoring	-0.1249387
-4.995443	Underworld	-0.1249387
-4.995443	Unix	-0.1249387
-4.296444	Unlike	-0.2218487
-4.995443	Until	-0.1249387
-4.694395	Up	-0.1249387
-4.995443	Upping	-0.1249387
-4.518298	Us	-0.1249387
-4.995443	VCR	-0.1249387
-4.995443	VGN-T350	-0.1249387
-4.995443	VGN-T350P	-0.1249387
-4.995443	VOUCHER	-0.1249387
-4.995443	Valley	-0.1249387
-4.995443	Vampire	-0.1249387
-4.694395	Vanity	-0.4259687
-4.694395	Variety	-0.1249387
-4.995443	VerdictSearch	-0.1249387
-4.694395	Verified	-0.4259687
-4.995443	Viagra	-0.1249387
-4.995443	Viewpoint	-0.1249387
-4.393356	Vioxx	-0.2498775
-4.518298	VoIP	-0.1249387
-4.694395	VoSKY	-0.1249387
-4.995443	Volume	-0.1249387
-4.995443	Volvos	-0.1249387
-4.393356	Voom	-0.1249387
-4.995443	W.	-0.1249387
-4.995443	W.T.O.	-0.1249387
-4.995443	WALL	-0.1249387
-4.995443	WARNING	-0.1249387
-4.995443	WFNY	-0.1249387
-4.995443	WHEN	-0.1249387
-4.995443	Wages	-0.1249388
-3.597468	Wall	-1.522879
-3.819318	We	-0.2596373
-4.995443	Weary	-0.1249388
-3.279404	Web	-0.6648508
-4.995443	Webb	-0.1249387
-4.995443	Webcam	-0.1249387
-4.995443	Wedding	-0.1249387
-4.995443	Welcome	-0.1249387
-4.995443	Well	-0.1249387
-4.995443	Wendy	-0.1249387
-4.995443	Were	-0.1249387
-4.995443	Western	-0.1249387
-4.217262	What	-0.20412
-4.995443	Whatever	-0.1249387
-3.791289	When	-0.2876661
-4.995443	Where	-0.1249387
-4.995443	Whether	-0.1249387
-3.740136	While	-0.2662679
-4.995443	Wholesale	-0.1249387
-4.393356	Why	-0.2498775
-4.393356	Will	-0.2498775
-4.995443	Willamette	-0.1249387
-4.995443	Williams	-0.1249387
-4.393356	Windows	-0.1249387
-4.694395	Wing	-0.1249387
-4.995443	Wins	-0.1249387
-4.995443	Wireless	-0.1249387
-3.504046	With	-0.2940811
-4.995443	Within	-0.1249387
-4.694395	Without	-0.1249387
-4.995443	Wives	-0.1249387
-4.694395	Word	-0.4259688
-4.995443	Workers	-0.1249387
-4.995443	Working	-0.1249387
-4.995443	Works	-0.1249387
-4.694395	World	-0.1249387
-4.393356	Worldwide	-0.4259687
-4.995443	Would	-0.1249387
-4.995443	Written	-0.1249387
-4.995443	Wrong	-0.1249387
-4.995443	X-Factor	-0.1249387
-4.694395	X-Men	-0.1249387
-4.995443	X1	-0.1249387
-4.995443	X26	-0.1249387
-4.995443	XL	-0.1249387
-4.995443	XP	-0.1249387
-4.995443	XPS	-0.1249387
-4.995443	XXXIX	-0.1249387
-4.518298	YOU	-0.1249387
-4.995443	YPB&R	-0.1249387
-4.518298	Yet	-0.1249387
-4.995443	Yielding	-0.1249387
-4.995443	Yogurt	-0.1249387
-4.995443	Yorker	-0.1249387
-4.393356	You	-0.1249387
-4.995443	Youngsters	-0.1249387
-4.694395	Your	-0.1249387
-4.393356	Zyprexa	-0.2498775
-1.602534	a	-0.5096374
-4.150314	abandon	-0.4929155
-4.518298	abandoned	-0.1249387
-4.995443	abandoning	-0.1249387
-4.995443	abating	-0.1249387
-4.092321	ability	-1.028029
-3.819318	able	-1.30103
-4.694395	abolished	-0.1249387
-2.61883	about	-0.6819718
-4.995443	about-face	-0.1249387
-4.393356	above	-0.1249387
-4.995443	above-market	-0.1249387
-4.518298	abroad	-0.1249387
-4.296444	abrupt	-0.1249387
-4.296444	abruptly	-0.2218488
-4.393356	absence	-0.4259687
-4.995443	absentee	-0.1249387
-4.995443	absolutely	-0.1249387
-4.995443	absorb	-0.1249387
-4.995443	absorbing	-0.1249387
-4.995443	abstract	-0.1249387
-4.995443	abundantly	-0.1249387
-4.694395	abuse	-0.1249387
-4.694395	abuses	-0.1249387
-4.995443	abusive	-0.1249387
-4.995443	academic	-0.1249387
-4.995443	academics	-0.1249387
-4.518298	accelerated	-0.1249387
-4.041169	accept	-0.1760913
-4.995443	acceptable	-0.1249387
-4.995443	acceptance	-0.1249388
-4.041169	accepted	-0.1760913
-4.393356	accepting	-0.1249387
-3.740136	access	-0.4259687
-4.995443	accessible	-0.1249387
-4.518298	accessories	-0.1249387
-4.995443	accessory	-0.1249387
-4.995443	accident	-0.1249387
-4.995443	accidentally	-0.1249387
-4.995443	accidents	-0.1249387
-4.995443	accommodate	-0.1249387
-4.995443	accommodates	-0.1249387
-4.995443	accomplishing	-0.1249387
-4.995443	accord	-0.1249387
-2.999772	according	-2.120574
-3.652986	account	-0.3534181
-4.694395	accountable	-0.4259687
-4.995443	accountant	-0.1249387
-4.694395	accountants	-0.1249387
-4.296444	accounted	-0.8239087
-3.24722	accounting	-0.5720968
-3.694379	accounts	-0.2218488
-4.995443	accreditation	-0.1249387
-4.995443	accumulate	-0.1249387
-4.694395	accuracy	-0.1249387
-3.819318	accusations	-0.39794
-4.995443	accuse	-0.1249387
-3.504046	accused	-0.7712024
-4.995443	accuser	-0.1249387
-4.518298	accuses	-0.1249387
-4.041169	accusing	-0.30103
-4.995443	accustomed	-0.1249387
-4.694395	achieve	-0.1249387
-4.518298	achieved	-0.1249387
-4.995443	achievements	-0.1249387
-4.995443	achieving	-0.1249387
-4.694395	acknowledge	-0.4259687
-4.296444	acknowledged	-0.3467875
-4.694395	acknowledging	-0.1249387
-4.694395	acknowledgment	-0.1249387
-3.415624	acquire	-0.590779
-3.633681	acquired	-0.4866666
-4.995443	acquiring	-0.1249387
-3.740136	acquisition	-0.3802113
-4.150314	acquisitions	-0.2710668
-4.995443	acquittal	-0.1249387
-4.393356	acquitted	-0.2498775
-4.995443	acrimonious	-0.1249387
-4.995443	acronym	-0.1249387
-3.694379	across	-0.4717262
-4.995443	acrylic	-0.1249387
-4.092321	act	-0.1249387
-4.518298	acting	-0.1249387
-3.597468	action	-0.2924298
-4.995443	action-adventure	-0.1249387
-4.393356	actions	-0.2498775
-4.041169	active	-0.1249387
-4.995443	actively	-0.1249387
-4.995443	activism	-0.1249387
-4.694395	activist	-0.1249387
-4.694395	activists	-0.1249387
-4.393356	activities	-0.2498775
-4.694395	activity	-0.1249387
-4.518298	actor	-0.1249387
-4.694395	acts	-0.1249387
-4.995443	actual	-0.1249387
-4.092321	actually	-0.1249387
-4.995443	acute	-0.1249387
-3.995411	ad	-0.1249387
-4.995443	adapt	-0.1249387
-4.995443	adaptation	-0.1249388
-4.995443	adapted	-0.1249387
-4.092321	add	-0.1249387
-3.819318	added	-0.2596373
-3.995411	adding	-0.2798407
-3.954018	addition	-0.2632414
-3.954018	additional	-0.2120889
-4.995443	additionally	-0.1249387
-4.995443	additions	-0.1249387
-4.694395	additive	-0.1249387
-4.041169	address	-0.2340832
-4.518298	addresses	-0.1249387
-4.518298	addressing	-0.1249387
-4.518298	adds	-0.1249387
-4.995443	adept	-0.1249387
-4.694395	adequate	-0.1249387
-4.995443	adequately	-0.1249387
-4.995443	adherence	-0.1249387
-4.995443	adjust	-0.1249387
-4.995443	adjustable	-0.1249387
-4.995443	adjusting	-0.1249387
-4.995443	adjustments	-0.1249388
-4.995443	administer	-0.1249387
-4.995443	administered	-0.1249387
-4.995443	administering	-0.1249387
-3.652986	administration	-0.2632414
-4.393356	administrative	-0.1249387
-4.995443	admirers	-0.1249387
-4.995443	admission	-0.1249387
-4.995443	admit	-0.1249387
-4.995443	admitted	-0.1249387
-4.995443	admitting	-0.1249387
-4.393356	adopt	-0.1249387
-4.518298	adopted	-0.1249387
-4.995443	adopting	-0.1249387
-3.740136	ads	-0.2340832
-4.393356	adult	-0.1249387
-4.296444	adults	-0.1249387
-4.518298	advance	-0.1249387
-3.954018	advanced	-0.1663314
-4.995443	advanced-imaging	-0.1249387
-4.995443	advances	-0.1249387
-4.694395	advancing	-0.1249387
-4.296444	advantage	-0.3467875
-4.694395	advantages	-0.1249387
-4.995443	adverse	-0.1249387
-4.995443	advertisement	-0.1249387
-4.296444	advertisements	-0.1249387
-4.694395	advertiser	-0.1249387
-4.995443	advertiser-supported	-0.1249387
-4.150314	advertisers	-0.1918855
-3.239533	advertising	-0.3245111
-4.995443	advertising-supported	-0.1249387
-4.995443	advertorial	-0.1249387
-4.217262	advice	-0.4259687
-4.694395	advise	-0.1249387
-4.995443	advised	-0.1249387
-4.150314	adviser	-0.2710668
-4.518298	advisers	-0.30103
-4.995443	advises	-0.1249387
-4.296444	advising	-0.2218488
-4.296444	advisory	-0.2218488
-4.393356	advocacy	-0.4259687
-4.518298	advocate	-0.1249387
-4.995443	advocated	-0.1249387
-4.296444	advocates	-0.2218487
-4.694395	adware	-0.1249387
-4.694395	aerial	-0.1249387
-4.995443	aerodynamic	-0.1249387
-4.995443	aesthetics	-0.1249387
-4.995443	affair	-0.1249387
-4.518298	affairs	-0.1249387
-4.150314	affect	-0.1918855
-4.995443	affected	-0.1249387
-4.296444	affiliate	-0.2218487
-4.694395	affiliates	-0.1249387
-4.995443	affiliating	-0.1249387
-4.995443	affiliation	-0.1249387
-4.694395	affordable	-0.1249387
-4.995443	aficionados	-0.1249387
-4.995443	afoul	-0.1249388
-2.622495	after	-0.6590017
-4.518298	after-hours	-0.60206
-4.995443	aftermath	-0.1249387
-3.673189	again	-0.1918855
-3.046017	against	-0.5428498
-4.150314	age	-0.1918855
-3.652986	agencies	-0.2120889
-3.182494	agency	-0.3815496
-4.995443	agenda	-0.1249387
-3.954018	agent	-0.2120889
-4.393356	agents	-0.2498775
-4.694395	ages	-0.1249387
-4.041169	aggressive	-0.1249387
-4.518298	aggressively	-0.1249387
-4.995443	ago	-0.1249387
-4.150314	agree	-0.4929155
-3.138075	agreed	-1.380211
-4.518298	agreeing	-0.60206
-3.203016	agreement	-0.5193904
-3.995411	agreements	-0.1249387
-4.995443	agrees	-0.1249387
-4.518298	agricultural	-0.1249387
-4.995443	agrochemicals	-0.1249387
-4.041169	ahead	-0.3802112
-4.518298	aid	-0.1249387
-4.995443	ailing	-0.1249387
-4.694395	aim	-0.1249387
-3.694379	aimed	-1.124939
-4.217262	aims	-0.90309
-3.954018	air	-0.2120889
-4.995443	air-fare	-0.1249387
-3.76496	aircraft	-0.1249387
-4.995443	aircrafts	-0.1249387
-3.415624	airline	-0.2133606
-4.995443	airliner	-0.1249388
-4.694395	airliners	-0.1249387
-3.740136	airlines	-0.30103
-4.995443	airplane	-0.1249387
-4.995443	airplay	-0.1249388
-4.041169	airport	-0.1249387
-4.092321	airports	-0.1829307
-4.995443	airwaves	-0.1249387
-4.995443	akin	-0.1249387
-4.995443	alarm	-0.1249387
-4.694395	albeit	-0.4259687
-4.995443	album	-0.1249388
-4.518298	albums	-0.1249387
-4.995443	alcoholic	-0.1249387
-4.995443	alert	-0.1249387
-4.995443	alerted	-0.1249387
-4.995443	align	-0.1249387
-4.995443	aligned	-0.1249387
-4.995443	alike	-0.1249387
-3.02228	all	-0.4078705
-4.518298	all-cash	-0.1249387
-4.995443	all-coach	-0.1249387
-4.995443	all-electronic	-0.1249387
-4.995443	all-female	-0.1249387
-4.995443	all-in-one	-0.1249387
-4.995443	all-stock	-0.1249387
-4.518298	allegations	-0.1249387
-4.393356	alliance	-0.2498775
-4.995443	allocated	-0.1249387
-4.995443	allocation	-0.1249387
-3.791289	allow	-0.1829307
-3.881466	allowed	-0.4607309
-3.916229	allowing	-0.1627273
-4.393356	allows	-0.1249387
-4.995443	alloy	-0.1249387
-4.694395	ally	-0.1249387
-3.849282	almost	-0.1918855
-4.518298	alone	-0.1249387
-3.716655	along	-0.7047223
-4.995443	alpine	-0.1249387
-3.404343	already	-0.2388821
-2.837045	also	-0.2662679
-4.995443	also-ran	-0.1249387
-4.995443	alter	-0.1249387
-4.694395	altered	-0.1249387
-4.995443	altering	-0.1249387
-4.393356	alternative	-0.1249387
-4.393356	alternatives	-0.1249387
-4.694395	although	-0.1249387
-4.995443	altruistic	-0.1249387
-4.694395	alumni	-0.1249387
-4.150314	always	-0.1249387
-4.995443	amazing	-0.1249387
-4.995443	ambitions	-0.1249387
-4.092321	ambitious	-0.1249387
-4.995443	ambivalence	-0.1249387
-4.995443	amended	-0.1249387
-4.995443	amenity	-0.1249387
-4.995443	amicably	-0.1249387
-3.954018	amid	-0.2632414
-3.32331	among	-0.3656728
-4.995443	amorphous	-0.1249387
-4.041169	amount	-0.4771213
-4.694395	amounted	-0.4259687
-4.518298	amounts	-0.30103
-4.995443	ample	-0.1249387
-4.995443	amused	-0.1249387
-2.331706	an	-0.4012498
-4.518298	analysis	-0.1249387
-4.217262	analyst	-0.20412
-3.305212	analysts	-0.4929155
-4.995443	analytic	-0.1249387
-4.995443	analytical	-0.1249387
-4.995443	analyzed	-0.1249387
-4.393356	anchor	-0.2498775
-4.995443	anchored	-0.1249387
-1.678808	and	-0.49953
-4.995443	anecdotal	-0.1249387
-4.995443	anew	-0.1249387
-4.995443	angels	-0.1249387
-4.995443	anger	-0.1249387
-4.518298	angry	-0.30103
-4.995443	angst	-0.1249387
-4.694395	animal	-0.1249387
-4.694395	animals	-0.1249387
-4.995443	ankle	-0.1249387
-4.217262	anniversary	-0.30103
-3.372159	announce	-0.6690068
-2.927222	announced	-0.7459666
-3.597468	announcement	-0.2924299
-4.995443	announcements	-0.1249387
-4.995443	announcer	-0.1249387
-4.995443	announces	-0.1249387
-4.694395	announcing	-0.1249387
-4.995443	annoying	-0.1249387
-4.694395	annualized	-0.1249387
-4.995443	annuity	-0.1249387
-4.393356	anonymity	-0.4259687
-4.995443	anonymous	-0.1249387
-3.287838	another	-0.2092596
-4.694395	answer	-0.1249387
-4.995443	answered	-0.1249387
-4.995443	answers	-0.1249387
-4.995443	ante	-0.1249387
-4.995443	anthropologist	-0.1249387
-4.694395	anti-McDonald	-0.4259687
-4.995443	antibiotics	-0.1249387
-4.393356	anticipated	-0.1249387
-4.694395	anticipating	-0.4259687
-4.694395	antidepressant	-0.1249387
-4.995443	antidote	-0.1249387
-4.694395	antidrug	-0.1249387
-4.995443	antiseptic	-0.1249387
-4.995443	antismoking	-0.1249387
-4.995443	antispill	-0.1249387
-4.995443	antistroke	-0.1249387
-3.694379	antitrust	-0.3120254
-4.995443	antivirus	-0.1249387
-4.518298	anxiety	-0.1249388
-4.694395	anxious	-0.1249387
-4.995443	anxiously	-0.1249387
-3.439106	any	-0.2340832
-4.995443	anybody	-0.1249387
-4.694395	anyone	-0.1249387
-4.518298	anything	-0.1249387
-4.694395	anytime	-0.4259687
-4.694395	apart	-0.4259687
-4.393356	apartment	-0.2498775
-4.995443	apartments	-0.1249387
-4.995443	apiece	-0.1249387
-4.995443	apologizing	-0.1249387
-4.995443	apology	-0.1249387
-4.296444	apparel	-0.1249387
-4.296444	apparent	-0.1249387
-3.995411	apparently	-0.1249387
-4.041169	appeal	-0.2340832
-4.995443	appealed	-0.1249387
-4.995443	appealing	-0.1249387
-4.041169	appeals	-0.60206
-3.819318	appear	-0.3467875
-4.518298	appearance	-0.1249387
-4.995443	appearances	-0.1249387
-3.740136	appeared	-0.4771213
-3.819318	appears	-0.69897
-4.995443	appease	-0.1249387
-4.518298	appetite	-0.30103
-4.296444	appliance	-0.1249387
-4.518298	appliances	-0.1249388
-4.393356	application	-0.1249387
-4.694395	applications	-0.1249387
-4.995443	applied	-0.1249387
-4.995443	applies	-0.1249387
-4.694395	apply	-0.1249387
-4.995443	applying	-0.1249387
-4.995443	appoint	-0.1249388
-4.393356	appointed	-0.2498775
-4.995443	appointing	-0.1249387
-4.150314	appointment	-0.1249387
-4.995443	appreciation	-0.1249387
-4.694395	apprised	-0.4259687
-4.092321	approach	-0.1829307
-4.393356	approached	-0.2498775
-4.995443	approaches	-0.1249387
-3.597468	approval	-0.4089354
-4.518298	approvals	-0.1249387
-4.092321	approve	-0.5509075
-3.597468	approved	-0.4089354
-4.995443	approving	-0.1249387
-4.694395	approximately	-0.1249387
-4.995443	arbitration	-0.1249387
-4.995443	archaeological	-0.1249387
-4.995443	architect	-0.1249387
-4.995443	architecture	-0.1249387
-4.995443	archives	-0.1249387
-4.995443	archrival	-0.1249387
-4.995443	ardor	-0.1249387
-2.448864	are	-0.3192989
-3.995411	area	-0.1706962
-3.995411	areas	-0.4259687
-4.995443	arguably	-0.1249387
-4.694395	argue	-0.4259687
-3.954018	argued	-0.5642715
-4.694395	argues	-0.1249387
-4.995443	arguing	-0.1249387
-4.393356	argument	-0.2498775
-4.393356	arguments	-0.2498775
-4.995443	arisen	-0.1249387
-4.393356	arm	-0.4259687
-4.995443	arms	-0.1249387
-4.995443	army	-0.1249388
-4.995443	arose	-0.1249387
-3.54825	around	-0.5307041
-4.995443	around-the-clock	-0.1249387
-4.995443	arpeggios	-0.1249387
-4.995443	arraignment	-0.1249387
-4.393356	arranged	-0.2498775
-4.217262	arrangement	-0.1249387
-4.694395	arrangements	-0.1249387
-4.518298	array	-0.60206
-4.393356	arrest	-0.1249387
-4.217262	arrested	-0.60206
-4.995443	arrive	-0.1249387
-4.296444	art	-0.1249387
-4.995443	art-house	-0.1249387
-4.995443	arterial	-0.1249387
-4.694395	arteries	-0.1249387
-4.995443	arthritis	-0.1249387
-3.995411	article	-0.1706962
-4.041169	articles	-0.1760913
-4.995443	articulate	-0.1249387
-4.694395	artificial	-0.1249387
-4.995443	artificially	-0.1249387
-4.694395	artist	-0.4259687
-4.694395	artists	-0.1249387
-4.694395	arts	-0.4259687
-2.193318	as	-0.7095441
-4.995443	asbestos	-0.1249387
-4.995443	ascent	-0.1249388
-4.092321	aside	-0.1829307
-4.518298	ask	-0.30103
-3.740136	asked	-0.2662679
-4.041169	asking	-0.1249387
-4.995443	asks	-0.1249387
-4.518298	aspects	-0.30103
-4.995443	aspire	-0.1249387
-4.518298	aspirin	-0.1249387
-4.694395	aspiring	-0.1249387
-4.995443	assault	-0.1249387
-4.995443	assemble	-0.1249387
-4.995443	assembled	-0.1249387
-4.393356	assembly	-0.2498775
-4.995443	asserted	-0.1249387
-4.694395	asserting	-0.1249387
-4.995443	assertion	-0.1249387
-4.694395	asserts	-0.4259687
-4.518298	assessed	-0.1249387
-4.694395	assessing	-0.1249387
-4.995443	assessment	-0.1249388
-4.995443	assessments	-0.1249387
-3.954018	asset	-0.4673615
-3.53301	assets	-0.3832168
-4.393356	assignment	-0.1249387
-4.296444	assignments	-0.1249387
-4.694395	assist	-0.1249387
-4.694395	assistance	-0.1249387
-4.296444	assistant	-0.5228788
-4.995443	assistants	-0.1249387
-4.995443	assisted-living	-0.1249387
-4.518298	associate	-0.30103
-4.694395	associated	-0.4259687
-4.995443	associates	-0.1249387
-4.296444	association	-0.1249387
-4.995443	associations	-0.1249387
-4.995443	assuage	-0.1249387
-4.150314	assume	-0.1918855
-4.995443	assuming	-0.1249387
-4.694395	assumption	-0.4259687
-4.995443	assumptions	-0.1249387
-4.694395	assure	-0.1249387
-4.393356	assured	-0.1249387
-4.995443	astonishingly	-0.1249387
-2.296437	at	-0.7825161
-4.995443	athlete	-0.1249387
-4.995443	athletes	-0.1249387
-4.995443	atmosphere	-0.1249387
-4.995443	attach	-0.1249388
-4.694395	attached	-0.1249387
-3.954018	attack	-0.2120889
-4.041169	attacks	-0.2340832
-4.041169	attempt	-0.7781512
-4.995443	attempting	-0.1249387
-4.694395	attempts	-0.4259687
-4.995443	attended	-0.1249387
-4.995443	attendees	-0.1249387
-4.217262	attention	-0.4259688
-3.53301	attorney	-0.6842467
-4.694395	attorneys	-0.4259687
-3.995411	attract	-0.1249387
-4.995443	attracted	-0.1249387
-4.995443	attracting	-0.1249387
-4.995443	attractiveness	-0.1249388
-4.995443	attributed	-0.1249387
-4.041169	auction	-0.1249387
-4.995443	auctioneering	-0.1249387
-4.995443	auctions	-0.1249387
-4.041169	audience	-0.1760913
-4.694395	audiences	-0.1249387
-4.518298	audio	-0.1249387
-4.393356	audit	-0.2498775
-4.995443	audited	-0.1249387
-4.296444	auditing	-0.2218487
-4.518298	auditors	-0.30103
-4.393356	audits	-0.2498775
-4.995443	augmenting	-0.1249387
-4.995443	authenticity	-0.1249388
-4.393356	author	-0.2498775
-4.393356	authorities	-0.1249387
-4.217262	authority	-0.4259687
-4.393356	authorized	-0.2498775
-4.995443	authors	-0.1249387
-4.995443	authorship	-0.1249387
-3.995411	auto	-0.3467875
-4.995443	auto-repair	-0.1249387
-4.995443	autocratic	-0.1249387
-3.995411	automaker	-0.2218488
-4.150314	automakers	-0.1249387
-4.995443	automate	-0.1249387
-4.694395	automatic	-0.1249387
-4.217262	automatically	-0.1249387
-4.995443	automation	-0.1249387
-4.995443	automobiles	-0.1249387
-4.296444	automotive	-0.2218487
-4.694395	autopsy	-0.1249387
-4.518298	availability	-0.1249387
-3.53301	available	-0.3832168
-4.041169	average	-0.1249387
-4.518298	avert	-0.1249387
-4.995443	averting	-0.1249387
-4.518298	aviation	-0.1249388
-4.995443	avid	-0.1249387
-3.995411	avoid	-0.1706962
-4.995443	avoided	-0.1249387
-4.995443	avoids	-0.1249387
-4.694395	awaiting	-0.1249387
-4.995443	awaits	-0.1249387
-4.092321	award	-0.2498775
-4.393356	awarded	-0.4259687
-4.995443	awarding	-0.1249387
-4.393356	awards	-0.2498775
-4.518298	aware	-0.30103
-4.694395	awareness	-0.1249387
-3.76496	away	-0.5102896
-4.995443	babies	-0.1249387
-4.150314	baby	-0.2710668
-3.382624	back	-0.3397826
-4.995443	back-office	-0.1249387
-4.296444	backed	-0.2218487
-4.995443	backers	-0.1249388
-4.995443	backfire	-0.1249387
-4.393356	background	-0.1249387
-4.995443	backlog	-0.1249388
-4.995443	backs	-0.1249388
-4.995443	backside	-0.1249388
-4.995443	backstop	-0.1249387
-4.518298	backup	-0.1249387
-4.995443	bacteria	-0.1249387
-4.393356	bad	-0.1249387
-4.393356	bag	-0.1249387
-4.694395	baggage	-0.1249387
-4.995443	baggy	-0.1249387
-4.393356	bags	-0.1249387
-4.518298	bail	-0.1249387
-4.694395	bailout	-0.1249387
-4.995443	bailouts	-0.1249387
-4.995443	baking	-0.1249387
-4.518298	balance	-0.1249387
-4.995443	balancing	-0.1249387
-4.995443	ballots	-0.1249387
-4.694395	ballpark	-0.1249387
-4.150314	ban	-0.1249387
-4.393356	band	-0.1249387
-4.995443	banded	-0.1249387
-4.694395	bands	-0.1249387
-3.263014	bank	-0.3132644
-4.393356	banker	-0.1249387
-4.296444	bankers	-0.1249387
-3.694379	banking	-0.2498775
-4.995443	bankrupt	-0.1249387
-4.694395	bankruptcies	-0.1249387
-3.305212	bankruptcy	-0.5141048
-3.54825	banks	-0.2710668
-4.694395	banning	-0.4259687
-4.995443	bantam	-0.1249387
-4.995443	bar	-0.1249387
-4.995443	barbs	-0.1249387
-4.694395	bare	-0.1249387
-4.518298	barely	-0.1249387
-4.995443	bargains	-0.1249387
-4.995443	barge	-0.1249387
-4.694395	barges	-0.1249387
-4.995443	baron	-0.1249387
-4.995443	barrage	-0.1249388
-4.995443	barrel	-0.1249387
-4.518298	barrels	-0.1249387
-4.694395	barriers	-0.4259687
-4.518298	barring	-0.1249387
-4.694395	bars	-0.1249387
-4.092321	base	-0.1249387
-4.995443	base.google.com	-0.1249387
-4.393356	baseball	-0.1249387
-3.132085	based	-1.085172
-4.995443	baseman	-0.1249387
-4.995443	basement	-0.1249387
-4.995443	bases	-0.1249387
-4.393356	basic	-0.2498775
-4.995443	basing	-0.1249387
-4.518298	basis	-0.30103
-4.518298	basketball	-0.1249387
-4.694395	batch	-0.4259687
-4.995443	bathing	-0.1249387
-4.995443	bathrooms	-0.1249387
-4.995443	battered	-0.1249387
-4.995443	batteries	-0.1249387
-4.995443	battery	-0.1249387
-3.694379	battle	-0.5228788
-4.393356	battles	-0.1249387
-4.694395	bay	-0.1249387
-4.995443	bazaar	-0.1249387
-2.359923	be	-0.357302
-4.995443	beach	-0.1249387
-4.995443	beachfront	-0.1249387
-4.995443	beaming	-0.1249387
-4.995443	beams	-0.1249387
-4.694395	bear	-0.1249387
-4.995443	beard	-0.1249387
-4.995443	beastlike	-0.1249387
-4.995443	beastly	-0.1249387
-4.393356	beat	-0.1249387
-4.694395	beaten	-0.1249387
-4.995443	beating	-0.1249387
-4.995443	beautiful	-0.1249387
-4.995443	beauty	-0.1249387
-3.76496	became	-0.313995
-3.076329	because	-0.682289
-3.182494	become	-0.4607308
-4.217262	becoming	-0.1249387
-4.694395	bed	-0.1249387
-4.995443	bedding	-0.1249387
-4.995443	bedrooms	-0.1249387
-4.995443	beds	-0.1249387
-4.995443	beef	-0.1249387
-4.995443	beefing	-0.1249387
-2.716654	been	-0.2638133
-4.518298	beer	-0.1249387
-3.255045	before	-0.4029034
-4.995443	beg	-0.1249387
-3.633681	began	-0.2562177
-3.54825	begin	-0.2103689
-4.995443	beginners	-0.1249387
-4.217262	beginning	-0.30103
-4.995443	beginnings	-0.1249387
-4.041169	begins	-0.1760913
-3.76496	begun	-0.2762064
-4.296444	behalf	-0.8239087
-4.393356	behavior	-0.1249387
-4.995443	behemoth	-0.1249387
-3.819318	behind	-0.5228788
-4.518298	behind-the-scenes	-0.1249387
-3.132085	being	-0.2101104
-4.995443	beleaguered	-0.1249387
-4.995443	belief	-0.1249387
-4.518298	believe	-0.1249387
-4.296444	believed	-0.3467875
-4.518298	believes	-0.1249387
-4.995443	bellwether	-0.1249387
-4.694395	belong	-0.1249387
-4.995443	belonged	-0.1249387
-4.150314	below	-0.1249387
-4.518298	belts	-0.1249387
-4.393356	benchmark	-0.2498775
-4.995443	benchmarks	-0.1249387
-4.995443	beneficiaries	-0.1249387
-3.995411	benefit	-0.2798407
-4.995443	benefiting	-0.1249387
-3.716655	benefits	-0.3622997
-4.995443	benign	-0.1249387
-4.995443	berry	-0.1249387
-4.995443	beset	-0.1249387
-4.995443	besides	-0.1249387
-3.615197	best	-0.2747011
-4.694395	best-known	-0.1249387
-4.995443	best-liked	-0.1249387
-4.995443	best-seller	-0.1249387
-4.217262	best-selling	-0.20412
-4.995443	bests	-0.1249387
-4.296444	bet	-0.1249387
-3.76496	better	-0.1792964
-4.995443	better-known	-0.1249387
-4.995443	better-paying	-0.1249387
-4.995443	better-performing	-0.1249387
-4.694395	better-than-expected	-0.1249387
-4.518298	betting	-0.1249387
-3.351955	between	-0.3881802
-4.995443	beverage	-0.1249387
-4.694395	beverages	-0.1249387
-4.995443	beware	-0.1249387
-3.995411	beyond	-0.2218488
-4.694395	bias	-0.1249387
-4.995443	biases	-0.1249387
-3.210078	bid	-0.5880492
-4.518298	bidder	-0.1249387
-4.518298	bidders	-0.1249387
-4.150314	bidding	-0.2710668
-4.041169	bids	-0.1760913
-3.351955	big	-0.1773268
-4.393356	bigger	-0.1249387
-3.351955	biggest	-0.2001897
-4.694395	biggest-selling	-0.1249387
-4.995443	bigness	-0.1249387
-4.995443	bikini-wax	-0.1249387
-3.849282	bill	-0.1918855
-4.995443	billed	-0.1249387
-4.995443	billion-dollar	-0.1249387
-4.995443	billion-euro	-0.1249387
-4.150314	billionaire	-0.2710668
-4.995443	billions	-0.1249387
-4.217262	bills	-0.1249387
-4.995443	biofuels	-0.1249387
-4.995443	biographies	-0.1249387
-4.995443	biography	-0.1249387
-4.995443	biology	-0.1249387
-4.995443	biometric	-0.1249387
-4.150314	biotechnology	-0.2710668
-4.694395	bipartisan	-0.4259687
-4.995443	bipolar	-0.1249387
-4.518298	bird	-0.60206
-4.995443	birth	-0.1249387
-4.995443	birthday	-0.1249387
-4.694395	bit	-0.1249387
-4.995443	biting	-0.1249387
-4.296444	bitter	-0.1249387
-4.995443	bitumen	-0.1249387
-4.694395	black	-0.1249387
-4.995443	black-owned	-0.1249387
-4.995443	blackballing	-0.1249387
-4.995443	blame	-0.1249387
-4.694395	blamed	-0.1249387
-4.995443	blaming	-0.1249387
-4.995443	blanket	-0.1249387
-4.995443	bleached	-0.1249387
-4.694395	bleak	-0.1249387
-4.694395	blend	-0.1249387
-4.995443	blends	-0.1249387
-4.995443	blessed	-0.1249387
-4.995443	blew	-0.1249387
-4.694395	blistering	-0.1249387
-4.995443	blitz	-0.1249387
-4.995443	blitzes	-0.1249387
-4.995443	blizzard	-0.1249388
-4.150314	block	-0.2710668
-4.518298	blockages	-0.1249387
-4.694395	blocked	-0.1249387
-4.694395	blocks	-0.4259687
-4.694395	blog	-0.1249387
-4.995443	bloggers	-0.1249387
-4.995443	blogging	-0.1249387
-4.393356	blogs	-0.1249387
-4.393356	blood	-0.2498775
-4.995443	blood-clotting	-0.1249387
-4.995443	blood-sugar	-0.1249387
-4.995443	bloody	-0.1249387
-4.995443	blossoming	-0.1249387
-4.217262	blow	-0.30103
-4.995443	blue-chip	-0.1249387
-4.995443	blunt-spoken	-0.1249387
-4.995443	bluntly	-0.1249387
-4.995443	blur	-0.1249387
-4.995443	blurry	-0.1249387
-3.15031	board	-0.4385579
-4.995443	boarding	-0.1249387
-4.518298	boardroom	-0.1249387
-4.995443	boardrooms	-0.1249387
-4.041169	boards	-0.1760913
-4.694395	boats	-0.1249387
-4.518298	bodies	-0.60206
-4.393356	body	-0.1249387
-4.995443	bog	-0.1249387
-4.694395	bogus	-0.4259687
-4.995443	bold	-0.1249387
-4.995443	boldly	-0.1249387
-4.393356	bolster	-0.1249387
-4.995443	bolstered	-0.1249387
-4.995443	bolstering	-0.1249387
-4.995443	bolts	-0.1249388
-4.995443	bomb	-0.1249387
-4.995443	bombing	-0.1249387
-4.995443	bombings	-0.1249387
-3.954018	bond	-0.2120889
-4.694395	bondholders	-0.1249387
-3.881466	bonds	-0.1597008
-4.995443	bone	-0.1249387
-4.041169	bonus	-0.2340832
-4.296444	bonuses	-0.2218488
-3.54825	book	-0.2710668
-4.995443	book-sized	-0.1249387
-4.694395	booked	-0.1249387
-4.217262	booking	-0.1249387
-4.995443	bookmakers	-0.1249387
-3.791289	books	-0.1829307
-4.694395	bookstore	-0.1249387
-4.995443	bookstores	-0.1249387
-4.150314	boom	-0.2710668
-4.995443	boomer	-0.1249387
-4.518298	boomers	-0.1249387
-4.518298	booming	-0.1249387
-4.995443	boon	-0.1249387
-4.995443	boost	-0.1249387
-4.995443	boot	-0.1249387
-4.694395	border	-0.1249387
-4.995443	born	-0.1249387
-4.995443	borrow	-0.1249387
-4.518298	borrowers	-0.1249388
-4.694395	borrowing	-0.1249387
-4.995443	bosses	-0.1249387
-3.305212	both	-0.2240702
-4.995443	bottlers	-0.1249387
-4.995443	bottom	-0.1249388
-3.694379	bought	-0.2218488
-4.995443	bounce	-0.1249387
-4.995443	bounced	-0.1249387
-4.995443	bounded	-0.1249387
-4.995443	bout	-0.1249388
-4.694395	boutique	-0.1249387
-4.995443	bow	-0.1249387
-4.694395	box	-0.1249387
-4.518298	boxes	-0.1249387
-4.995443	boxing	-0.1249387
-4.995443	bracelet	-0.1249387
-4.694395	bracing	-0.1249387
-4.995443	brain	-0.1249387
-4.995443	brake	-0.1249387
-4.518298	brakes	-0.30103
-4.995443	branch	-0.1249388
-4.393356	branches	-0.2498775
-3.694379	brand	-0.2798407
-4.518298	branded	-0.30103
-4.995443	branded-entertainment	-0.1249387
-3.954018	brands	-0.1663314
-4.041169	breach	-0.30103
-4.995443	bread	-0.1249387
-4.041169	break	-0.2340832
-4.995443	breakdown	-0.1249387
-4.995443	breaking	-0.1249387
-4.393356	breaks	-0.1249387
-4.393356	breakup	-0.4259687
-4.518298	breast	-0.30103
-4.995443	breathe	-0.1249387
-4.694395	brewery	-0.1249387
-4.995443	brews	-0.1249387
-4.995443	bribe	-0.1249387
-4.995443	bribed	-0.1249387
-4.518298	bribery	-0.1249388
-4.518298	bribes	-0.1249387
-4.995443	bribing	-0.1249387
-4.995443	bridge	-0.1249387
-4.995443	brief	-0.1249387
-3.564044	briefed	-1.556303
-4.995443	briefing	-0.1249387
-4.694395	briefings	-0.1249387
-4.694395	briefly	-0.1249387
-4.995443	bright	-0.1249387
-4.995443	brilliant	-0.1249387
-3.740136	bring	-0.2340832
-4.296444	bringing	-0.1249387
-4.518298	brings	-0.30103
-4.694395	brisk	-0.4259687
-3.881466	broad	-0.1597008
-4.995443	broad-based	-0.1249387
-4.518298	broadband	-0.1249387
-3.740136	broadcast	-0.2662679
-4.393356	broadcaster	-0.1249387
-4.518298	broadcasters	-0.1249388
-4.694395	broadcasting	-0.1249387
-4.995443	broadcasts	-0.1249387
-4.995443	broaden	-0.1249387
-4.995443	broadened	-0.1249387
-4.995443	broadening	-0.1249387
-4.150314	broader	-0.1249387
-4.694395	broadly	-0.1249387
-4.995443	brochure	-0.1249387
-4.694395	broke	-0.1249387
-4.694395	broken	-0.1249387
-3.819318	broker	-0.30103
-4.041169	brokerage	-0.3802113
-4.694395	brokered	-0.1249387
-4.217262	brokers	-0.1249387
-4.694395	brother	-0.1249387
-4.296444	brothers	-0.2218487
-3.916229	brought	-0.4259687
-4.995443	brown	-0.1249387
-4.694395	browser	-0.1249387
-4.995443	bruising	-0.1249387
-4.995443	brunt	-0.1249388
-4.694395	brutal	-0.1249387
-4.694395	bubble	-0.1249387
-4.995443	bubbled	-0.1249387
-4.995443	bubbles	-0.1249388
-4.995443	buckets	-0.1249388
-3.954018	budget	-0.1249387
-4.995443	budgeted	-0.1249387
-4.995443	budgets	-0.1249387
-4.995443	bug	-0.1249387
-3.716655	build	-0.2575643
-4.518298	builders	-0.1249387
-3.791289	building	-0.2151154
-4.995443	building-materials	-0.1249387
-4.217262	buildings	-0.1249387
-4.694395	builds	-0.1249387
-3.881466	built	-0.2388821
-4.518298	built-in	-0.1249387
-4.995443	bulk	-0.1249388
-4.995443	bullet	-0.1249387
-4.393356	bulletin	-0.2498775
-4.694395	bullish	-0.4259687
-4.995443	bully	-0.1249387
-4.995443	bump	-0.1249387
-4.995443	bumped	-0.1249387
-4.995443	bumping	-0.1249387
-4.995443	bundle	-0.1249387
-4.995443	bundling	-0.1249387
-4.995443	bunking	-0.1249387
-4.995443	buoyant	-0.1249387
-4.995443	buoyed	-0.1249387
-4.694395	burden	-0.1249387
-4.518298	bureau	-0.30103
-4.694395	burlap	-0.1249387
-4.995443	burn	-0.1249387
-4.995443	burner	-0.1249387
-4.995443	burning	-0.1249387
-4.995443	burnish	-0.1249387
-4.995443	burnished	-0.1249387
-4.995443	burns	-0.1249387
-4.995443	busiest	-0.1249387
-2.881464	business	-0.393784
-4.995443	business-class	-0.1249387
-3.490258	businesses	-0.3513351
-4.694395	businessman	-0.4259687
-4.694395	businessmen	-0.4259687
-4.694395	businesspeople	-0.1249387
-4.995443	businesswomen	-0.1249387
-4.694395	busy	-0.1249387
-2.861868	but	-0.3776641
-4.995443	butter	-0.1249387
-3.108917	buy	-0.5800657
-4.694395	buyback	-0.1249387
-4.393356	buyer	-0.2498775
-4.296444	buyers	-0.2218487
-3.76496	buying	-0.1792964
-4.518298	buyout	-0.1249387
-4.995443	buyouts	-0.1249387
-4.694395	buys	-0.1249387
-4.995443	buzz	-0.1249387
-4.995443	buzzing	-0.1249387
-2.181826	by	-0.6737019
-4.518298	bylines	-0.1249387
-4.995443	bypassing	-0.1249387
-4.393356	ca	-0.7269987
-4.393356	cabin	-0.2498775
-4.995443	cabinet	-0.1249388
-4.518298	cabins	-0.1249387
-3.504046	cable	-0.4121805
-4.995443	cachet	-0.1249387
-4.995443	calculate	-0.1249387
-4.995443	calculating	-0.1249387
-3.995411	call	-0.1706962
-4.995443	call-in	-0.1249387
-3.33265	called	-0.3897565
-4.995443	caller	-0.1249387
-3.849282	calling	-0.2710668
-3.615197	calls	-0.3590219
-4.995443	calmed	-0.1249387
-4.995443	calories	-0.1249388
-3.439106	came	-0.6398485
-4.217262	camera	-0.20412
-3.995411	cameras	-0.1706962
-4.694395	camp	-0.1249387
-3.504046	campaign	-0.3375468
-4.995443	campaigning	-0.1249387
-3.995411	campaigns	-0.2218487
-4.995443	campus	-0.1249387
-4.995443	campuses	-0.1249387
-4.995443	campy	-0.1249387
-3.132085	can	-0.3350491
-4.518298	cancel	-0.30103
-4.518298	canceled	-0.1249387
-4.995443	cancellation	-0.1249387
-3.716655	cancer	-0.289749
-4.995443	cancer-fighting	-0.1249387
-4.694395	candidate	-0.1249387
-4.995443	candidates	-0.1249387
-4.995443	candlelight	-0.1249387
-4.995443	candor	-0.1249388
-4.694395	candy	-0.1249387
-4.995443	cannily	-0.1249387
-4.995443	cannon	-0.1249387
-4.995443	cantankerous	-0.1249387
-4.995443	canvassing	-0.1249387
-4.995443	cap	-0.1249387
-4.995443	capability	-0.1249387
-4.995443	capable	-0.1249388
-4.995443	capacities	-0.1249387
-3.954018	capacity	-0.1249387
-3.916229	capital	-0.1627273
-4.518298	capitalization	-0.30103
-4.995443	capitalizations	-0.1249388
-4.995443	capitalize	-0.1249387
-4.995443	capitalizing	-0.1249387
-4.995443	caps	-0.1249387
-4.995443	capsized	-0.1249387
-4.995443	captioning	-0.1249387
-4.995443	capture	-0.1249387
-3.995411	car	-0.2218488
-4.995443	carbohydrates	-0.1249387
-3.652986	card	-0.2912702
-4.995443	cardholder	-0.1249387
-4.518298	cardholders	-0.1249387
-4.296444	cardiac	-0.2218487
-4.995443	cardiologists	-0.1249387
-4.694395	cardiovascular	-0.1249387
-4.092321	cards	-0.1249387
-3.633681	care	-0.2313941
-4.217262	career	-0.1249387
-4.995443	careers	-0.1249387
-4.995443	careful	-0.1249387
-4.995443	carefully	-0.1249387
-4.995443	caregivers	-0.1249387
-4.217262	carmaker	-0.20412
-4.995443	carmakers	-0.1249387
-4.995443	carnivore	-0.1249387
-4.694395	carotid	-0.1249387
-4.995443	carotid-clearing	-0.1249387
-4.995443	carriage	-0.1249387
-4.518298	carried	-0.30103
-3.791289	carrier	-0.3290587
-3.791289	carriers	-0.2151154
-4.694395	carries	-0.1249387
-4.041169	carry	-0.2340832
-4.217262	carrying	-0.20412
-3.673189	cars	-0.60206
-4.518298	cartel	-0.1249387
-4.995443	cartoon	-0.1249388
-4.995443	cartoonish	-0.1249387
-4.995443	carts	-0.1249387
-4.694395	carve	-0.1249387
-4.995443	carving	-0.1249387
-3.361939	case	-0.4361879
-4.995443	case-by-case	-0.1249387
-3.673189	cases	-0.30103
-3.404343	cash	-0.3735807
-4.995443	cashed	-0.1249387
-4.995443	cashiers	-0.1249387
-4.995443	cashing	-0.1249387
-4.694395	casino	-0.1249387
-4.694395	casinos	-0.1249387
-4.694395	cast	-0.1249387
-4.694395	casting	-0.1249387
-4.995443	casts	-0.1249387
-4.694395	casual	-0.1249387
-4.995443	casualty	-0.1249387
-4.393356	catalog	-0.1249387
-4.995443	catalogs	-0.1249388
-4.393356	catch	-0.2498775
-4.995443	catch-all	-0.1249387
-4.694395	catching	-0.1249387
-4.150314	categories	-0.1918855
-4.217262	category	-0.1249388
-4.995443	catering	-0.1249387
-4.995443	catlike	-0.1249387
-4.393356	caught	-0.1249387
-3.673189	cause	-0.6690068
-4.995443	cause-related	-0.1249387
-3.954018	caused	-0.2632414
-4.518298	causes	-0.1249387
-4.092321	causing	-0.3290587
-4.995443	caustic	-0.1249387
-4.393356	cautioned	-0.2498775
-4.995443	cautious	-0.1249387
-4.995443	cease	-0.1249387
-4.694395	ceased	-0.1249387
-4.995443	ceasing	-0.1249387
-4.694395	cede	-0.1249387
-4.518298	ceiling	-0.1249387
-4.694395	celebrated	-0.1249387
-4.995443	celebrates	-0.1249387
-4.995443	celebrating	-0.1249387
-4.995443	celebration	-0.1249387
-4.694395	celebrities	-0.1249387
-4.694395	celebrity	-0.1249387
-4.995443	cell	-0.1249387
-4.995443	cellar	-0.1249387
-4.092321	cellphone	-0.1829307
-4.995443	cellphone-based	-0.1249387
-4.296444	cellphones	-0.2218487
-4.518298	cells	-0.1249387
-4.995443	cellular	-0.1249387
-4.518298	cement	-0.1249387
-4.694395	cemented	-0.1249387
-4.995443	censored	-0.1249387
-4.518298	censorship	-0.1249387
-4.995443	censured	-0.1249387
-4.041169	center	-0.1760913
-4.393356	centered	-0.7269987
-4.694395	centerpiece	-0.4259687
-4.296444	centers	-0.1249387
-3.881466	central	-0.3357921
-4.995443	cerebral	-0.1249387
-3.819318	certain	-0.154902
-4.393356	certainly	-0.1249387
-4.995443	certification	-0.1249388
-4.694395	certify	-0.1249387
-3.740136	chain	-0.30103
-4.217262	chains	-0.30103
-4.995443	chainsaw-shaped	-0.1249387
-4.995443	chainsaw-wielding	-0.1249387
-2.93471	chairman	-0.8054254
-4.694395	chairmen	-0.4259687
-4.217262	chairwoman	-0.30103
-3.995411	challenge	-0.2218487
-4.995443	challenged	-0.1249387
-4.296444	challenges	-0.2218488
-4.150314	challenging	-0.1918855
-4.995443	champion	-0.1249387
-4.995443	championed	-0.1249387
-4.518298	championship	-0.1249387
-4.092321	chance	-0.3290587
-4.694395	chances	-0.4259687
-3.597468	change	-0.2218487
-4.092321	changed	-0.2498775
-3.819318	changes	-0.1870866
-4.217262	changing	-0.1249387
-3.916229	channel	-0.30103
-4.150314	channels	-0.1918855
-4.296444	character	-0.2218487
-4.393356	characterized	-0.4259687
-4.150314	characters	-0.2710668
-3.995411	charge	-0.4259687
-3.819318	charged	-0.3467875
-3.342195	charges	-0.4771213
-4.217262	charging	-0.1249387
-4.995443	charismatic	-0.1249387
-4.518298	charities	-0.1249387
-4.995443	charity	-0.1249387
-4.694395	chart	-0.1249387
-4.995443	chasing	-0.1249387
-4.995443	chastise	-0.1249387
-4.694395	chat	-0.1249387
-4.995443	chatting	-0.1249387
-4.694395	cheap	-0.1249387
-4.995443	cheapest	-0.1249387
-4.694395	cheating	-0.1249387
-4.393356	check	-0.1249387
-4.694395	checked	-0.4259687
-4.995443	checkpoint	-0.1249387
-4.694395	checks	-0.1249387
-4.995443	cheer	-0.1249387
-4.995443	cheerful	-0.1249387
-4.995443	cheerfully	-0.1249387
-4.995443	cheese	-0.1249387
-4.995443	chef	-0.1249387
-4.150314	chemical	-0.1249387
-4.995443	chemists	-0.1249387
-4.518298	chemotherapy	-0.1249387
-4.995443	chest	-0.1249387
-4.995443	chic	-0.1249387
-4.995443	chicken	-0.1249387
-2.629919	chief	-1.110216
-4.694395	chiefs	-0.1249387
-4.092321	child	-0.3290587
-4.995443	child-care	-0.1249387
-4.995443	childbearers	-0.1249387
-4.995443	childhood	-0.1249387
-3.881466	children	-0.2846396
-4.995443	chili	-0.1249387
-3.652986	chip	-0.3212334
-4.092321	chips	-0.2498775
-4.694395	chocolate	-0.1249387
-4.393356	choice	-0.2498775
-4.518298	choices	-0.1249387
-4.694395	cholesterol	-0.1249387
-4.694395	cholesterol-lowering	-0.1249387
-4.694395	choose	-0.1249388
-4.518298	choosing	-0.1249387
-4.995443	chops	-0.1249387
-4.694395	chord	-0.1249387
-4.995443	chords	-0.1249387
-4.518298	chose	-0.1249387
-4.296444	chosen	-0.2218488
-4.694395	chronic	-0.1249387
-4.995443	chronicled	-0.1249387
-4.995443	chucking	-0.1249387
-4.995443	chuckle	-0.1249387
-4.995443	cigarettes	-0.1249387
-4.995443	cinnamon	-0.1249387
-4.694395	circle	-0.1249387
-4.694395	circuits	-0.1249387
-4.995443	circulate	-0.1249387
-4.694395	circulated	-0.1249387
-4.217262	circulation	-0.1249387
-4.995443	circumference	-0.1249388
-4.995443	circumstances	-0.1249388
-4.694395	circumvent	-0.1249387
-4.694395	cite	-0.1249387
-4.217262	cited	-0.20412
-3.995411	cities	-0.2798407
-3.849282	citing	-0.2296741
-4.995443	citizen	-0.1249387
-4.694395	citizens	-0.1249387
-4.995443	citrus	-0.1249387
-4.092321	city	-0.1249387
-3.791289	civil	-0.2876661
-4.995443	civil-fraud-claims	-0.1249387
-4.995443	civilian	-0.1249387
-4.995443	civilizations	-0.1249387
-4.092321	claim	-0.1829307
-4.518298	claimed	-0.1249387
-4.393356	claiming	-0.1249387
-3.849282	claims	-0.2710668
-4.995443	clamoring	-0.1249387
-4.995443	clapping	-0.1249387
-4.995443	clarification	-0.1249387
-4.995443	clash	-0.1249388
-4.995443	clashes	-0.1249387
-4.041169	class	-0.2340832
-4.041169	class-action	-0.4771213
-4.995443	classes	-0.1249388
-4.995443	classics	-0.1249387
-4.694395	classified	-0.1249387
-4.995443	classroom	-0.1249387
-4.518298	clean	-0.60206
-4.995443	cleaner	-0.1249387
-4.995443	cleaning	-0.1249387
-4.995443	cleanups	-0.1249387
-3.819318	clear	-0.30103
-4.995443	clearance	-0.1249387
-4.296444	cleared	-0.3467875
-4.995443	clearer	-0.1249387
-4.393356	clearing	-0.2498775
-4.694395	clearly	-0.1249387
-4.393356	clears	-0.7269987
-4.694395	clerk	-0.1249387
-4.694395	clerks	-0.1249387
-4.518298	click	-0.30103
-4.995443	clickbots	-0.1249387
-4.694395	clicked	-0.4259687
-4.694395	clicking	-0.1249387
-4.092321	client	-0.3290587
-3.615197	clients	-0.2747011
-4.995443	cliff	-0.1249387
-4.995443	climate	-0.1249387
-4.518298	climbed	-0.30103
-4.694395	climbing	-0.1249387
-4.217262	clinic	-0.20412
-4.041169	clinical	-0.60206
-4.995443	clinics	-0.1249387
-4.995443	clip	-0.1249387
-4.995443	clips	-0.1249387
-4.694395	clock	-0.1249387
-3.32331	close	-0.6209453
-4.150314	closed	-0.1918855
-4.150314	closely	-0.1918855
-4.217262	closer	-0.4259687
-4.995443	closes	-0.1249387
-4.995443	closet	-0.1249387
-3.819318	closing	-0.3467875
-4.694395	clothes	-0.1249387
-3.916229	clothing	-0.1249387
-4.995443	cloud	-0.1249387
-4.694395	clouded	-0.1249387
-3.995411	club	-0.2218488
-4.995443	club-and-bar	-0.1249387
-4.393356	clubs	-0.2498775
-4.995443	clustered	-0.1249387
-4.995443	co-author	-0.1249387
-4.995443	co-branded	-0.1249387
-4.694395	co-chairman	-0.1249387
-4.995443	co-chairmen	-0.1249387
-4.995443	co-chief	-0.1249387
-4.995443	co-conspirator	-0.1249387
-4.694395	co-creator	-0.4259687
-4.995443	co-deputy	-0.1249387
-4.995443	co-founder	-0.1249387
-4.995443	co-host	-0.1249388
-4.694395	co-owned	-0.1249387
-4.694395	co-president	-0.1249387
-4.995443	co-presidents	-0.1249387
-4.995443	co-produce	-0.1249387
-4.995443	co-sponsorship	-0.1249387
-4.995443	co-venture	-0.1249388
-4.995443	coach	-0.1249387
-4.995443	coaching	-0.1249387
-4.995443	coal	-0.1249387
-4.694395	coal-fired	-0.4259687
-4.393356	coalition	-0.2498775
-4.694395	coast	-0.1249387
-4.995443	coastal	-0.1249387
-4.995443	coated	-0.1249387
-4.995443	coaxed	-0.1249387
-4.995443	cocaine	-0.1249387
-4.995443	cocoa	-0.1249387
-4.393356	code	-0.2498775
-4.995443	code-division	-0.1249387
-4.995443	code-name	-0.1249387
-4.041169	coffee	-0.1760913
-4.995443	coincide	-0.1249387
-4.995443	coincidence	-0.1249387
-4.995443	coincides	-0.1249387
-4.694395	cold	-0.1249387
-4.995443	collaborating	-0.1249387
-4.694395	collaboration	-0.1249387
-4.995443	collaborators	-0.1249387
-4.217262	collapse	-0.60206
-4.393356	collapsed	-0.1249387
-4.995443	collapsing	-0.1249387
-4.995443	colleagues	-0.1249387
-4.217262	collect	-0.1249387
-4.694395	collected	-0.1249387
-4.694395	collecting	-0.1249387
-4.150314	collection	-0.1918855
-4.393356	collections	-0.2498775
-4.518298	collective	-0.1249387
-4.995443	collectively	-0.1249387
-4.092321	college	-0.1249387
-4.995443	collision	-0.1249387
-4.995443	collisions	-0.1249387
-4.995443	colluded	-0.1249387
-4.518298	colluding	-0.30103
-4.995443	colon-cancer	-0.1249387
-4.694395	color	-0.1249387
-4.694395	colorful	-0.1249387
-4.150314	column	-0.1918855
-4.694395	columnist	-0.1249387
-4.694395	columnists	-0.1249387
-4.518298	combat	-0.1249387
-4.041169	combination	-0.2340832
-4.995443	combinations	-0.1249388
-4.694395	combine	-0.1249387
-4.041169	combined	-0.2340832
-4.518298	combining	-0.1249387
-3.673189	come	-0.3332147
-4.995443	comeback	-0.1249387
-4.694395	comedians	-0.1249387
-4.995443	comedies	-0.1249387
-4.995443	comedown	-0.1249387
-4.694395	comedy	-0.1249387
-3.463929	comes	-0.5424743
-4.694395	comfort	-0.1249387
-4.694395	comfortable	-0.1249387
-4.995443	comfortably	-0.1249387
-4.694395	comic	-0.1249387
-4.995443	comics	-0.1249387
-3.881466	coming	-0.2846396
-4.995443	commandant	-0.1249388
-4.694395	commander	-0.1249387
-4.995443	commemorate	-0.1249387
-4.092321	comment	-0.3290588
-4.995443	commentary	-0.1249387
-4.694395	commentator	-0.1249387
-4.518298	comments	-0.1249387
-4.694395	commerce	-0.1249387
-3.652986	commercial	-0.1249387
-4.995443	commercialism	-0.1249387
-4.995443	commercially	-0.1249387
-3.849282	commercials	-0.2710668
-4.995443	commiserate	-0.1249387
-3.615197	commission	-0.2263964
-4.518298	commissioned	-0.60206
-4.217262	commissioner	-0.30103
-4.995443	commissioners	-0.1249387
-4.694395	commissions	-0.1249387
-4.393356	commit	-0.1249387
-4.694395	commitment	-0.1249387
-4.995443	commitments	-0.1249387
-4.694395	committed	-0.1249387
-3.995411	committee	-0.1706962
-4.694395	committees	-0.1249387
-4.518298	commodities	-0.1249387
-4.995443	commoditization	-0.1249387
-4.296444	commodity	-0.1249387
-4.995443	common	-0.1249387
-4.518298	commonly	-0.1249387
-4.296444	communications	-0.1249387
-4.694395	communities	-0.1249387
-4.296444	community	-0.2218488
-4.995443	commuter	-0.1249387
-4.995443	commuters	-0.1249387
-4.995443	commutes	-0.1249387
-4.694395	compact	-0.1249387
-2.667027	companies	-0.494277
-4.995443	companion	-0.1249387
-2.222353	company	-0.7396311
-4.995443	company-run	-0.1249387
-4.995443	companywide	-0.1249387
-3.716655	compared	-1.102662
-4.995443	comparing	-0.1249387
-4.995443	comparison	-0.1249387
-4.393356	compatible	-0.4259687
-4.995443	compel	-0.1249387
-4.995443	compelling	-0.1249387
-4.995443	compensate	-0.1249387
-4.995443	compensated	-0.1249387
-4.995443	compensates	-0.1249387
-3.819318	compensation	-0.2596373
-4.995443	compensatory	-0.1249387
-3.916229	compete	-0.359022
-4.995443	competes	-0.1249387
-4.150314	competing	-0.2710668
-3.580435	competition	-0.3357921
-4.041169	competitive	-0.1249387
-4.995443	competitiveness	-0.1249387
-4.092321	competitor	-0.2498775
-3.76496	competitors	-0.2092596
-4.995443	compile	-0.1249387
-4.995443	compiled	-0.1249387
-4.694395	complain	-0.1249387
-4.518298	complained	-0.1249387
-4.393356	complaining	-0.1249387
-3.916229	complaint	-0.2498775
-4.217262	complaints	-0.20412
-4.995443	complement	-0.1249387
-4.995443	complementary	-0.1249387
-4.150314	complete	-0.1918855
-3.995411	completed	-0.1706962
-4.995443	completes	-0.1249387
-4.393356	completing	-0.2498775
-4.092321	complex	-0.2498775
-4.995443	complicate	-0.1249387
-4.518298	complicated	-0.1249387
-4.694395	complicating	-0.1249387
-4.995443	complication	-0.1249387
-4.092321	complications	-0.5509075
-4.995443	complied	-0.1249387
-4.995443	comply	-0.1249387
-4.995443	complying	-0.1249387
-4.694395	component	-0.1249387
-4.995443	components	-0.1249387
-4.694395	composed	-0.4259687
-4.995443	composite	-0.1249387
-4.694395	compounds	-0.1249387
-4.393356	comprehensive	-0.1249387
-4.995443	comprises	-0.1249387
-4.995443	compromise	-0.1249387
-4.518298	compromised	-0.1249387
-4.995443	compromising	-0.1249387
-4.296444	comptroller	-0.2218487
-4.694395	computed	-0.1249387
-3.342195	computer	-0.2596373
-4.995443	computer-controlled	-0.1249387
-4.995443	computer-hacking	-0.1249387
-4.995443	computer-storage	-0.1249387
-3.76496	computers	-0.2414443
-4.518298	computing	-0.1249387
-4.995443	concealed	-0.1249387
-4.995443	conceals	-0.1249387
-4.694395	conceived	-0.1249387
-4.995443	concentrate	-0.1249387
-4.694395	concentration	-0.4259687
-4.518298	concept	-0.30103
-4.995443	concepts	-0.1249387
-3.881466	concern	-0.2846396
-4.296444	concerned	-0.5228788
-3.849282	concerns	-0.3679768
-4.995443	concession	-0.1249387
-4.296444	concessions	-0.2218487
-4.995443	concise	-0.1249387
-4.694395	conclude	-0.1249387
-4.150314	concluded	-0.4929155
-4.995443	concludes	-0.1249387
-4.694395	conclusions	-0.1249387
-4.694395	concourse	-0.1249387
-4.995443	concrete	-0.1249387
-4.995443	condensing	-0.1249387
-4.694395	condiment	-0.1249387
-4.217262	condition	-0.30103
-4.518298	conditions	-0.1249387
-4.217262	conduct	-0.20412
-3.916229	conducted	-0.30103
-4.393356	conducting	-0.1249387
-4.995443	conducts	-0.1249387
-4.995443	conduits	-0.1249387
-4.995443	confederation	-0.1249388
-3.849282	conference	-0.1918855
-4.694395	confidence	-0.1249387
-4.694395	confident	-0.1249387
-4.217262	confidential	-0.4259687
-4.694395	configuration	-0.1249387
-4.995443	configure	-0.1249387
-4.694395	configured	-0.1249387
-4.995443	confirm	-0.1249387
-4.995443	confirmation	-0.1249387
-3.995411	confirmed	-0.2798407
-4.393356	conflict	-0.1249387
-4.694395	conflict-of-interest	-0.1249387
-4.995443	conflicted	-0.1249387
-4.393356	conflicts	-0.4259687
-4.995443	confound	-0.1249387
-4.995443	confrontation	-0.1249387
-4.995443	confrontational	-0.1249387
-4.694395	confronting	-0.1249387
-4.995443	confronts	-0.1249387
-4.995443	confusing	-0.1249387
-4.092321	conglomerate	-0.1829307
-4.694395	conglomerates	-0.1249387
-4.995443	conjunction	-0.1249387
-4.694395	connected	-0.4259687
-4.092321	connection	-0.3290587
-4.694395	connections	-0.1249387
-4.995443	connector	-0.1249387
-4.995443	conscious	-0.1249387
-4.296444	consecutive	-0.3467875
-4.518298	consensus	-0.1249387
-4.694395	consequences	-0.1249387
-4.995443	conservatism	-0.1249387
-4.518298	conservative	-0.30103
-3.881466	consider	-0.2388821
-4.995443	considerable	-0.1249387
-4.518298	considerably	-0.1249387
-4.995443	consideration	-0.1249387
-4.217262	considered	-0.1249388
-3.76496	considering	-0.2092596
-4.694395	considers	-0.1249387
-4.995443	consist	-0.1249388
-4.518298	consistent	-0.1249387
-4.995443	consistently	-0.1249387
-4.518298	consists	-0.30103
-4.694395	console	-0.1249387
-4.694395	consoles	-0.1249387
-4.694395	consolidate	-0.1249387
-4.518298	consolidated	-0.1249387
-4.518298	consolidates	-0.1249387
-4.150314	consolidation	-0.2710668
-4.092321	consortium	-0.4259687
-4.995443	consortiums	-0.1249388
-3.954018	conspiracy	-0.3881802
-4.296444	conspiring	-0.8239087
-4.995443	constant	-0.1249387
-4.995443	constantly	-0.1249387
-4.995443	constitutionality	-0.1249387
-4.995443	constructed	-0.1249387
-4.995443	constructing	-0.1249387
-4.296444	construction	-0.2218487
-4.518298	consultant	-0.30103
-4.217262	consultants	-0.20412
-4.217262	consulting	-0.20412
-4.995443	consume	-0.1249387
-3.490258	consumer	-0.2498775
-4.995443	consumer-friendly	-0.1249387
-4.995443	consumer-research	-0.1249387
-3.518287	consumers	-0.2403322
-4.995443	consuming	-0.1249387
-4.518298	contact	-0.30103
-4.518298	contacted	-0.1249387
-4.995443	contacts	-0.1249387
-4.995443	contagious	-0.1249387
-4.393356	contain	-0.1249387
-4.995443	contained	-0.1249387
-4.995443	container	-0.1249387
-4.694395	containing	-0.1249387
-4.995443	contamination	-0.1249387
-4.995443	contemplate	-0.1249387
-4.995443	contemplated	-0.1249387
-4.393356	contend	-0.2498775
-4.694395	contended	-0.1249387
-4.694395	contender	-0.4259687
-4.694395	contenders	-0.1249387
-4.217262	contending	-0.90309
-4.518298	contends	-0.30103
-3.881466	content	-0.2388821
-4.995443	contention	-0.1249387
-4.694395	contentious	-0.1249387
-4.393356	contents	-0.4259687
-4.518298	contest	-0.1249387
-4.995443	contests	-0.1249387
-4.694395	contingent	-0.1249387
-4.995443	continuation	-0.1249388
-3.652986	continue	-0.5131189
-3.995411	continued	-0.3467875
-3.954018	continues	-0.4673614
-3.916229	continuing	-0.2498775
-4.995443	continuity	-0.1249387
-4.995443	continuously	-0.1249387
-4.995443	contour	-0.1249388
-4.995443	contraception	-0.1249387
-3.652986	contract	-0.2120889
-4.995443	contracted	-0.1249387
-4.518298	contractor	-0.1249387
-4.694395	contractors	-0.1249387
-3.954018	contracts	-0.3212334
-4.995443	contractual	-0.1249387
-4.995443	contrary	-0.1249387
-4.694395	contrast	-0.1249387
-4.518298	contribute	-0.1249387
-4.393356	contributed	-0.4259687
-4.995443	contributing	-0.1249387
-4.694395	contribution	-0.1249387
-4.296444	contributions	-0.2218487
-4.995443	contributors	-0.1249387
-3.404343	control	-0.6368221
-3.954018	controlled	-0.6892101
-4.694395	controller	-0.4259687
-4.217262	controlling	-0.60206
-3.995411	controls	-0.2798407
-4.041169	controversial	-0.2340832
-4.393356	controversy	-0.4259687
-4.995443	conundrum	-0.1249387
-4.995443	convene	-0.1249387
-4.995443	convened	-0.1249387
-4.995443	convenience	-0.1249387
-4.694395	convenient	-0.1249387
-4.296444	conventional	-0.2218487
-4.296444	conversation	-0.3467875
-4.518298	conversations	-0.1249387
-4.995443	convert	-0.1249387
-4.995443	converted	-0.1249387
-4.694395	convertible	-0.1249387
-4.995443	convey	-0.1249387
-4.217262	convicted	-0.20412
-4.296444	conviction	-0.2218487
-4.995443	convictions	-0.1249387
-4.995443	convince	-0.1249387
-4.995443	convincing	-0.1249387
-4.995443	cookbooks	-0.1249387
-4.694395	cookie	-0.1249387
-4.995443	cookies	-0.1249387
-4.995443	cooking	-0.1249387
-4.995443	cool	-0.1249387
-4.694395	cooler	-0.1249387
-4.296444	cooperate	-0.5228788
-4.995443	cooperated	-0.1249387
-4.393356	cooperating	-0.4259687
-4.995443	cooperation	-0.1249387
-4.995443	cooperative	-0.1249387
-4.995443	coordinated	-0.1249387
-4.995443	coordinating	-0.1249387
-4.995443	copiers	-0.1249387
-4.694395	copies	-0.4259687
-4.995443	coping	-0.1249387
-4.995443	copper	-0.1249387
-4.694395	copy	-0.1249387
-4.995443	copying	-0.1249388
-4.518298	copyright	-0.1249387
-4.694395	copyrighted	-0.1249387
-4.995443	copywriter	-0.1249387
-4.217262	core	-0.1249387
-4.694395	corn	-0.1249387
-4.694395	corner	-0.1249387
-4.995443	cornerstone	-0.1249388
-3.271132	corporate	-0.2057619
-4.995443	corporate-owned	-0.1249387
-4.393356	corporation	-0.1249387
-4.041169	corporations	-0.3802112
-4.694395	correct	-0.1249387
-4.995443	correcting	-0.1249387
-4.995443	correction	-0.1249387
-4.995443	corrections	-0.1249387
-4.995443	correspondent	-0.1249387
-4.393356	corrupt	-0.4259687
-4.995443	corrupted	-0.1249387
-4.694395	corruption	-0.1249387
-4.694395	cosmetics	-0.1249387
-3.615197	cost	-0.30103
-4.995443	cost-benefit	-0.1249387
-4.995443	cost-savings	-0.1249387
-4.995443	costliest	-0.1249387
-4.393356	costly	-0.1249387
-3.393348	costs	-0.295635
-4.995443	costume	-0.1249387
-2.942329	could	-0.3926874
-4.995443	council	-0.1249387
-4.518298	counsel	-0.30103
-4.518298	count	-0.1249387
-4.694395	counter	-0.1249387
-4.995443	counteract	-0.1249387
-4.995443	countered	-0.1249387
-4.995443	counterfeit	-0.1249387
-4.995443	counterfeiting	-0.1249387
-4.694395	counterparts	-0.1249387
-4.995443	counting	-0.1249387
-3.615197	countries	-0.4259687
-3.305212	country	-0.5598624
-4.995443	country-rock	-0.1249387
-4.041169	counts	-0.2340832
-4.995443	coupes	-0.1249387
-4.393356	couple	-0.1249387
-4.995443	coupled	-0.1249387
-4.995443	courage	-0.1249388
-4.092321	course	-0.2498775
-3.210078	court	-0.4189069
-4.995443	courtesy	-0.1249388
-4.694395	courtroom	-0.1249387
-4.150314	courts	-0.1918855
-4.995443	courtships	-0.1249387
-4.995443	courtside	-0.1249387
-3.76496	cover	-0.2414443
-4.092321	coverage	-0.1249387
-4.217262	covered	-0.1249387
-4.296444	covering	-0.1249387
-4.296444	covers	-0.2218488
-4.694395	crack	-0.1249387
-4.995443	cracking	-0.1249387
-4.518298	crafts	-0.30103
-4.150314	crash	-0.3679768
-4.995443	crash-testing	-0.1249387
-4.995443	crashed	-0.1249387
-4.995443	crave	-0.1249387
-4.995443	craze	-0.1249387
-4.995443	creaky	-0.1249387
-4.995443	creamy	-0.1249387
-3.652986	create	-0.4259688
-3.819318	created	-0.30103
-4.995443	creates	-0.1249387
-3.995411	creating	-0.2798407
-4.150314	creation	-0.3679768
-3.76496	creative	-0.3139949
-4.995443	creatively	-0.1249387
-4.393356	creator	-0.2498775
-4.995443	creators	-0.1249388
-4.995443	creatures	-0.1249387
-4.518298	credibility	-0.1249387
-3.633681	credit	-0.4866666
-4.518298	credited	-0.30103
-4.150314	creditors	-0.1249387
-4.995443	credits	-0.1249387
-4.995443	creditworthiness	-0.1249387
-4.995443	crew	-0.1249387
-4.393356	crime	-0.2498775
-4.694395	crime-fighting	-0.1249387
-4.995443	crimes	-0.1249387
-3.633681	criminal	-0.3405385
-4.995443	cripple	-0.1249387
-4.694395	crisis	-0.1249387
-4.694395	criteria	-0.1249387
-4.995443	critic	-0.1249387
-4.150314	critical	-0.2710668
-4.150314	criticism	-0.2710668
-4.518298	criticized	-0.30103
-4.694395	criticizes	-0.4259687
-4.995443	criticizing	-0.1249387
-4.150314	critics	-0.3679768
-4.995443	cronyism	-0.1249387
-4.995443	crook	-0.1249387
-4.995443	crooners	-0.1249387
-4.995443	crop	-0.1249388
-4.393356	crops	-0.1249387
-4.518298	cross-border	-0.1249387
-4.694395	cross-country	-0.1249387
-4.518298	cross-examination	-0.1249387
-4.995443	cross-sell	-0.1249387
-4.995443	crosses	-0.1249387
-4.995443	crotch-biting	-0.1249387
-4.393356	crowded	-0.1249387
-4.995443	crowds	-0.1249387
-4.995443	crowing	-0.1249387
-4.694395	crown	-0.1249387
-4.041169	crucial	-0.1249387
-4.518298	crude	-0.60206
-4.995443	crunch	-0.1249387
-4.694395	crusade	-0.1249387
-4.694395	crusaders	-0.4259687
-4.694395	cul-de-sac	-0.1249387
-4.995443	culinary	-0.1249387
-4.995443	cull	-0.1249387
-4.995443	culled	-0.1249387
-4.995443	culmination	-0.1249388
-4.995443	cultivate	-0.1249387
-4.995443	cultlike	-0.1249387
-4.995443	cumbersome	-0.1249387
-4.995443	cup	-0.1249387
-4.518298	curb	-0.1249387
-4.995443	curbing	-0.1249387
-4.995443	cure	-0.1249387
-4.296444	currency	-0.1249387
-4.995443	current-account	-0.1249387
-4.694395	curriculum	-0.1249387
-4.995443	curry	-0.1249387
-4.694395	curtail	-0.1249387
-4.694395	curtailed	-0.1249387
-4.995443	curtailing	-0.1249387
-4.995443	curtains	-0.1249387
-4.995443	curve	-0.1249387
-4.694395	custom	-0.1249387
-4.150314	customer	-0.1249387
-3.382624	customers	-0.2606013
-4.995443	customize	-0.1249387
-4.995443	customized	-0.1249387
-3.716655	cut	-0.2276011
-4.995443	cutbacks	-0.1249387
-3.740136	cuts	-0.3388186
-4.995443	cutthroat	-0.1249387
-4.518298	cutting	-0.1249387
-4.694395	cycle	-0.1249387
-4.995443	cylinders	-0.1249387
-4.092321	damage	-0.2498775
-4.518298	damaged	-0.1249387
-3.916229	damages	-0.30103
-4.995443	damaging	-0.1249387
-4.518298	dance	-0.1249387
-4.995443	dancing	-0.1249387
-4.995443	danger	-0.1249387
-4.694395	dangerous	-0.1249387
-4.694395	dangerously	-0.1249387
-4.995443	dark	-0.1249387
-4.995443	darkened	-0.1249387
-4.995443	dashing	-0.1249387
-3.361939	data	-0.3270434
-4.150314	database	-0.1918855
-4.995443	database-software	-0.1249387
-4.694395	databases	-0.1249387
-4.296444	date	-0.1249387
-4.694395	dates	-0.1249387
-4.995443	dating	-0.1249387
-4.296444	daughter	-0.3467875
-4.995443	daunting	-0.1249387
-4.518298	day-to-day	-0.30103
-4.518298	de	-0.30103
-4.694395	dead	-0.1249387
-4.995443	deadlier	-0.1249387
-4.217262	deadline	-0.1249387
-4.995443	deadlocked	-0.1249387
-4.995443	deaf	-0.1249387
-2.799508	deal	-0.604835
-4.995443	deal-making	-0.1249387
-4.694395	dealer	-0.1249387
-4.694395	dealers	-0.1249387
-4.995443	dealership	-0.1249387
-4.518298	dealing	-0.60206
-4.393356	dealings	-0.4259688
-3.652986	deals	-0.4259687
-4.694395	dealt	-0.1249387
-4.995443	dean	-0.1249388
-3.819318	death	-0.30103
-4.995443	deaths	-0.1249387
-4.217262	debate	-0.1249387
-4.694395	debated	-0.1249387
-4.995443	debates	-0.1249387
-4.995443	debit	-0.1249387
-3.791289	debt	-0.287666
-4.995443	debt-assumption	-0.1249387
-4.995443	debtor	-0.1249387
-4.995443	debts	-0.1249387
-4.518298	debut	-0.30103
-4.995443	decade-long	-0.1249387
-4.995443	decadent	-0.1249387
-4.995443	deceive	-0.1249387
-4.694395	deceived	-0.1249387
-4.995443	decency	-0.1249387
-4.694395	decent	-0.1249387
-4.296444	deceptive	-0.2218488
-4.217262	decide	-0.1249387
-3.633681	decided	-0.7876965
-4.995443	decidedly	-0.1249387
-4.995443	decides	-0.1249387
-4.393356	deciding	-0.1249387
-4.995443	decimal	-0.1249387
-4.995443	decipher	-0.1249387
-3.32331	decision	-0.4748173
-4.217262	decisions	-0.20412
-4.995443	decisive	-0.1249387
-4.694395	declare	-0.1249387
-4.296444	declared	-0.2218488
-4.694395	declaring	-0.1249387
-4.041169	decline	-0.3802112
-3.995411	declined	-0.5228788
-4.694395	declines	-0.1249387
-4.296444	declining	-0.2218488
-4.995443	decoded	-0.1249387
-4.995443	decrease	-0.1249388
-4.995443	decreased	-0.1249387
-4.694395	dedicated	-0.1249387
-4.995443	dedication	-0.1249387
-4.694395	deemed	-0.1249387
-4.296444	deep	-0.1249387
-4.995443	deep-rooted	-0.1249387
-4.995443	deepened	-0.1249387
-4.995443	deepening	-0.1249387
-4.393356	deeper	-0.2498775
-4.995443	deepest	-0.1249387
-4.217262	deeply	-0.20412
-4.995443	deepwater	-0.1249387
-4.393356	default	-0.4259687
-4.995443	defaulted	-0.1249387
-4.995443	defeat	-0.1249387
-4.995443	defect	-0.1249387
-4.995443	defections	-0.1249387
-4.995443	defend	-0.1249387
-4.995443	defendant	-0.1249387
-4.296444	defendants	-0.2218487
-4.995443	defended	-0.1249387
-4.995443	defending	-0.1249387
-3.791289	defense	-0.3290587
-4.995443	defenses	-0.1249387
-4.995443	defensive	-0.1249387
-4.694395	deferred	-0.1249387
-4.995443	defiant	-0.1249387
-4.694395	defibrillator	-0.1249387
-4.393356	defibrillators	-0.1249387
-4.393356	deficit	-0.2498775
-4.518298	deficits	-0.1249387
-4.995443	defied	-0.1249387
-4.995443	defies	-0.1249387
-4.995443	defined	-0.1249387
-4.995443	definitely	-0.1249387
-4.995443	definition	-0.1249388
-4.995443	deflation	-0.1249387
-4.296444	defraud	-0.2218488
-4.995443	defrauded	-0.1249387
-4.995443	defunct	-0.1249387
-4.995443	defuse	-0.1249387
-4.995443	degenerative	-0.1249387
-4.995443	degrade	-0.1249387
-3.954018	delay	-0.1663314
-4.393356	delayed	-0.1249387
-4.518298	delays	-0.30103
-4.995443	delegates	-0.1249387
-4.995443	delegation	-0.1249387
-4.694395	deliberated	-0.4259687
-4.995443	deliberately	-0.1249387
-4.694395	deliberations	-0.1249387
-4.995443	delicate	-0.1249387
-4.150314	deliver	-0.1249387
-4.393356	delivered	-0.4259687
-4.995443	deliveries	-0.1249387
-4.694395	delivering	-0.1249387
-3.995411	delivery	-0.2798407
-4.995443	delving	-0.1249387
-3.652986	demand	-0.3212334
-4.518298	demanded	-0.1249387
-4.694395	demanding	-0.4259687
-4.995443	demise	-0.1249387
-4.995443	demolished	-0.1249387
-4.995443	demonstrated	-0.1249387
-4.995443	demonstration	-0.1249387
-4.995443	demonstrations	-0.1249388
-4.995443	demoted	-0.1249387
-4.217262	denied	-0.30103
-4.995443	denies	-0.1249387
-4.995443	denigrate	-0.1249387
-4.694395	denounced	-0.1249387
-4.995443	denser	-0.1249387
-4.995443	deny	-0.1249387
-4.694395	denying	-0.1249387
-4.995443	departed	-0.1249387
-4.393356	departing	-0.2498775
-3.881466	department	-0.2388821
-4.518298	departments	-0.1249387
-3.916229	departure	-0.3590219
-4.296444	departures	-0.1249387
-4.995443	depend	-0.1249387
-4.995443	dependent	-0.1249387
-4.995443	dependents	-0.1249387
-4.518298	depending	-0.60206
-4.995443	depends	-0.1249387
-4.393356	deposits	-0.2498775
-4.995443	depressed	-0.1249387
-4.995443	depressing	-0.1249387
-4.694395	depression	-0.1249387
-4.995443	deprive	-0.1249387
-4.694395	deputies	-0.1249387
-4.092321	deputy	-0.1829307
-4.518298	deregulation	-0.30103
-4.393356	derivatives	-0.1249387
-4.694395	derived	-0.1249387
-4.995443	derives	-0.1249387
-4.995443	describe	-0.1249387
-3.954018	described	-0.2632414
-4.518298	describes	-0.1249387
-4.694395	describing	-0.1249387
-4.694395	deserve	-0.1249387
-4.995443	deserves	-0.1249387
-3.916229	design	-0.1627273
-4.694395	designate	-0.1249387
-4.518298	designated	-0.1249387
-4.041169	designed	-0.30103
-3.954018	designer	-0.1663314
-4.995443	designers	-0.1249387
-4.694395	designing	-0.1249387
-4.296444	designs	-0.1249387
-4.995443	desirable	-0.1249387
-4.995443	desires	-0.1249388
-4.296444	desktop	-0.1249387
-4.995443	desktops	-0.1249387
-4.995443	desperate	-0.1249387
-4.092321	despite	-0.1829307
-4.995443	destination	-0.1249387
-4.995443	destinations	-0.1249387
-4.995443	destiny	-0.1249387
-4.694395	destroy	-0.1249387
-4.995443	destroying	-0.1249387
-4.995443	destruction	-0.1249387
-4.518298	detail	-0.1249387
-4.694395	detailed	-0.1249387
-3.881466	details	-0.4607309
-4.995443	detained	-0.1249387
-4.995443	detaining	-0.1249387
-4.995443	detecting	-0.1249387
-4.518298	detective	-0.1249387
-4.995443	deteriorated	-0.1249387
-4.995443	deteriorating	-0.1249387
-4.995443	deterioration	-0.1249387
-4.041169	determine	-0.3802113
-4.393356	determined	-0.2498775
-4.995443	determining	-0.1249387
-4.995443	deterred	-0.1249387
-4.393356	devastated	-0.1249387
-4.995443	devastation	-0.1249387
-3.76496	develop	-0.1792964
-3.740136	developed	-0.4259687
-4.518298	developer	-0.1249387
-4.393356	developers	-0.1249387
-3.849282	developing	-0.1918855
-3.76496	development	-0.3553877
-3.615197	device	-0.20412
-3.615197	devices	-0.2498775
-4.694395	devise	-0.1249387
-4.694395	devised	-0.4259687
-4.694395	devising	-0.1249387
-4.995443	devoid	-0.1249388
-4.518298	devoted	-0.30103
-4.995443	devotees	-0.1249388
-4.518298	diabetes	-0.1249387
-4.995443	diabetics	-0.1249387
-4.518298	dialogue	-0.1249387
-4.995443	diameter	-0.1249387
-4.694395	diamond	-0.1249387
-4.995443	diaries	-0.1249387
-4.694395	dictator	-0.1249387
-3.463929	did	-0.6564176
-3.490258	died	-0.7269987
-4.995443	diem	-0.1249387
-4.393356	diesel	-0.2498775
-4.518298	diet	-0.1249387
-4.995443	differ	-0.1249387
-4.393356	difference	-0.4259687
-4.694395	differences	-0.1249387
-4.092321	different	-0.1249387
-4.694395	difficult	-0.1249387
-4.694395	difficulty	-0.1249387
-4.995443	digest	-0.1249387
-4.995443	digested	-0.1249387
-4.995443	digicam	-0.1249387
-3.476894	digital	-0.2284793
-4.995443	digitally	-0.1249387
-4.995443	digits	-0.1249387
-4.995443	diligence	-0.1249387
-4.995443	diminish	-0.1249387
-4.694395	diminishing	-0.1249387
-4.694395	dinner	-0.1249387
-4.995443	diodes	-0.1249387
-4.995443	diplomats	-0.1249387
-4.694395	dipped	-0.1249387
-4.995443	dipping	-0.1249387
-4.995443	dire	-0.1249387
-3.916229	direct	-0.1627273
-4.995443	direct-sales	-0.1249387
-4.518298	directed	-0.1249387
-4.518298	directing	-0.1249387
-4.694395	direction	-0.1249387
-4.694395	directive	-0.1249387
-4.092321	directly	-0.3290587
-3.504046	director	-0.5371193
-3.476894	directors	-0.3424227
-4.995443	directory	-0.1249387
-4.995443	disability	-0.1249387
-4.694395	disabled	-0.1249387
-4.995443	disadvantage	-0.1249387
-4.694395	disagreement	-0.1249387
-4.995443	disappearance	-0.1249388
-4.518298	disappeared	-0.1249387
-4.995443	disappointed	-0.1249387
-4.150314	disappointing	-0.1249387
-4.518298	disappointment	-0.1249387
-4.995443	disarming	-0.1249387
-4.995443	disarray	-0.1249387
-4.995443	disaster	-0.1249387
-4.694395	disc	-0.1249387
-4.995443	discarded	-0.1249387
-4.995443	discharged	-0.1249387
-4.995443	disciplinary	-0.1249387
-4.995443	disciplined	-0.1249387
-4.995443	disciplines	-0.1249387
-4.150314	disclose	-0.1918855
-3.694379	disclosed	-0.3845761
-4.393356	disclosing	-0.2498775
-4.518298	disclosure	-0.1249387
-4.995443	disclosures	-0.1249387
-4.694395	discontinued	-0.1249387
-4.995443	discontinuing	-0.1249387
-4.694395	discount	-0.1249387
-4.518298	discounted	-0.1249387
-4.393356	discounts	-0.1249387
-4.995443	discover	-0.1249387
-4.393356	discovered	-0.1249387
-4.995443	discovering	-0.1249387
-4.995443	discriminate	-0.1249387
-4.694395	discriminated	-0.4259687
-4.296444	discrimination	-0.1249387
-4.694395	discs	-0.1249387
-4.217262	discuss	-0.30103
-4.217262	discussed	-0.1249387
-4.518298	discussing	-0.30103
-4.296444	discussion	-0.2218487
-3.819318	discussions	-0.5228788
-4.296444	disease	-0.1249387
-4.694395	diseases	-0.1249387
-4.518298	disgruntled	-0.30103
-4.694395	disguise	-0.1249387
-4.995443	dish	-0.1249387
-4.995443	dishy	-0.1249387
-4.995443	disk	-0.1249387
-4.995443	dislodging	-0.1249387
-4.393356	dismal	-0.1249387
-4.995443	dismantle	-0.1249387
-4.518298	dismissal	-0.60206
-3.76496	dismissed	-0.3553877
-4.694395	disorder	-0.1249387
-4.995443	disparity	-0.1249387
-4.995443	dispel	-0.1249387
-4.995443	dispensing	-0.1249387
-4.694395	displaced	-0.1249387
-4.092321	display	-0.1829307
-4.393356	displayed	-0.1249387
-4.995443	displays	-0.1249387
-4.995443	dispose	-0.1249388
-4.995443	disposing	-0.1249388
-4.995443	disproportionate	-0.1249387
-3.881466	dispute	-0.5399121
-4.995443	disputed	-0.1249387
-4.694395	disquieting	-0.1249387
-4.995443	disregard	-0.1249387
-4.995443	disrupt	-0.1249387
-4.995443	disrupted	-0.1249387
-4.694395	dissident	-0.1249387
-4.995443	dissidents	-0.1249387
-4.995443	distances	-0.1249387
-4.995443	distinct	-0.1249387
-4.995443	distinction	-0.1249387
-4.995443	distinguish	-0.1249387
-4.995443	distort	-0.1249387
-4.995443	distract	-0.1249387
-4.694395	distraction	-0.1249387
-4.995443	distressed	-0.1249387
-3.995411	distribute	-0.1706962
-4.694395	distributed	-0.1249387
-4.995443	distributes	-0.1249387
-4.995443	distributing	-0.1249387
-4.217262	distribution	-0.1249387
-4.296444	distributor	-0.2218487
-4.694395	distributors	-0.1249387
-4.995443	district	-0.1249387
-4.995443	districts	-0.1249387
-4.995443	disturbing	-0.1249387
-4.995443	divergent	-0.1249387
-4.995443	diverse	-0.1249387
-4.995443	diversification	-0.1249387
-4.296444	diversified	-0.1249387
-4.694395	diversify	-0.1249387
-4.995443	diversifying	-0.1249387
-4.995443	diversity	-0.1249387
-4.995443	diverts	-0.1249387
-4.995443	divest	-0.1249387
-4.694395	divide	-0.1249387
-4.518298	divided	-0.1249387
-4.092321	dividend	-0.1829307
-4.995443	dividends	-0.1249387
-4.995443	dividing	-0.1249387
-3.287838	division	-0.4900863
-4.296444	divisions	-0.2218488
-4.995443	divorce	-0.1249387
-4.995443	divorced	-0.1249387
-3.23198	do	-0.4904268
-4.995443	doable	-0.1249387
-4.518298	doctor	-0.1249387
-3.694379	doctors	-0.2798407
-4.694395	document	-0.1249387
-4.296444	documentary	-0.2218488
-4.995443	documented	-0.1249387
-3.597468	documents	-0.2924298
-4.995443	dodge	-0.1249387
-4.995443	dodged	-0.1249387
-4.995443	dodo	-0.1249387
-3.476894	does	-0.60206
-4.694395	dog	-0.1249387
-4.995443	dogged	-0.1249387
-4.995443	dogs	-0.1249387
-3.819318	doing	-0.1870867
-4.995443	dole	-0.1249387
-4.995443	doled	-0.1249387
-4.518298	dollar	-0.1249387
-3.995411	dollars	-0.3467875
-4.694395	domain	-0.4259687
-3.716655	domestic	-0.2575643
-4.694395	domestically	-0.1249387
-4.296444	dominance	-0.2218487
-4.518298	dominant	-0.1249387
-4.995443	dominate	-0.1249387
-4.694395	dominated	-0.1249387
-4.694395	donated	-0.1249387
-4.995443	donation	-0.1249387
-4.296444	done	-0.2218487
-4.296444	door	-0.2218488
-4.995443	dose	-0.1249387
-4.694395	doses	-0.1249387
-4.518298	dot-com	-0.30103
-4.995443	dote	-0.1249387
-4.518298	double	-0.30103
