
\data\
ngram 1=11010
ngram 2=50358
ngram 3=4139

\1-grams:
-3.11833	'	-0.2202068
-1.855807	''	-0.7212843
-4.937903	'D	-0.1249387
-4.937903	'M	-0.1249387
-4.937903	'RE	-0.1249387
-3.896484	'S	-0.1249387
-4.937903	'VE	-0.1249387
-3.858695	'd	-0.1627273
-4.937903	'em	-0.1249387
-3.937877	'll	-0.2218487
-3.539935	'm	-0.2006595
-4.937903	'n'	-0.1249387
-3.460753	're	-0.2596373
-2.05706	's	-0.3281454
-3.393807	've	-0.3265841
-4.937903	1,500-square-foot	-0.1249387
-4.937903	1,800-square-foot	-0.1249387
-4.937903	100-foot	-0.1249387
-4.937903	1000G	-0.1249387
-4.937903	10th-most-popular	-0.1249387
-4.937903	11-inches	-0.1249387
-4.937903	12-inch	-0.1249387
-4.937903	13-passenger	-0.1249387
-4.937903	13.8-acre	-0.1249387
-4.937903	132-mile	-0.1249387
-4.937903	15th-century	-0.1249387
-4.937903	16-unit	-0.1249387
-4.937903	2,200-square-foot	-0.1249387
-4.937903	2-megapixel	-0.1249387
-4.937903	20-city	-0.1249387
-4.937903	20-something	-0.1249387
-4.937903	200,000-square-foot	-0.1249387
-4.937903	200-foot	-0.1249387
-4.937903	200-shot	-0.1249387
-4.937903	21-room	-0.1249387
-4.937903	21st-century	-0.1249387
-4.937903	23C	-0.1249387
-4.937903	25-foot	-0.1249387
-4.937903	27-inch	-0.1249387
-4.937903	27B	-0.1249387
-4.937903	3,200-square-foot	-0.1249387
-4.937903	3,600-pound	-0.1249387
-4.636858	3-D	-0.1249387
-4.937903	300-thread-count	-0.1249387
-4.937903	4Runner	-0.1249387
-4.636858	5-foot-10	-0.1249387
-4.636858	50-inch	-0.4259687
-4.636858	500-foot	-0.1249387
-4.937903	500-page	-0.1249387
-4.335821	500-stock	-0.7269987
-4.937903	6-foot	-0.1249387
-4.937903	60-page	-0.1249387
-4.937903	600th	-0.1249387
-4.937903	65-foot	-0.1249387
-4.937903	65-inch	-0.1249387
-4.636858	7-Eleven	-0.1249387
-4.937903	7.62-millimeter	-0.1249387
-4.937903	75-acre	-0.1249387
-4.937903	777-200LR	-0.1249387
-4.636858	9-7X	-0.1249387
-4.636858	9-millimeter	-0.1249387
-4.937903	9-to-5	-0.1249387
-4.937903	90-foot	-0.1249387
-1.322029	</s>
-99	<s>	-0.8987988
-5.061885	<unk>
-3.02406	A	-0.1814201
-4.937903	A-WASTIN	-0.1249387
-4.937903	A-line	-0.1249387
-4.636858	A.	-0.1249387
-4.937903	A.D.I.D.A.S.	-0.1249387
-4.937903	A.I.G.	-0.1249387
-4.636858	A380	-0.1249387
-4.937903	ACCORDING	-0.1249387
-4.09278	AFTER	-0.1918855
-4.937903	AIDS	-0.1249387
-4.937903	AIR	-0.1249387
-4.937903	ALL	-0.1249387
-4.636858	ALWAYS	-0.1249387
-4.937903	AMERICANS	-0.1249387
-4.937903	AMID	-0.1249387
-4.460763	AMONG	-0.30103
-4.937903	ANYONE	-0.1249387
-4.937903	AOL.com	-0.1249387
-4.937903	APPARENTLY	-0.1249388
-4.937903	ART	-0.1249387
-4.937903	ARTISTS	-0.1249387
-4.159728	AS	-0.30103
-4.937903	ASK	-0.1249387
-4.23891	AT	-0.3467875
-3.983635	About	-0.1760913
-4.937903	Abrams	-0.1249387
-4.460763	Academy	-0.30103
-4.937903	Accord	-0.1249387
-4.335821	According	-0.7269987
-4.937903	Accounts	-0.1249387
-4.937903	Across	-0.1249387
-4.937903	Act	-0.1249387
-4.460763	Actually	-0.1249387
-4.937903	Add	-0.1249387
-4.937903	Address	-0.1249387
-4.937903	Adhering	-0.1249387
-4.937903	Adidas.com	-0.1249387
-4.937903	Ads	-0.1249387
-4.937903	Adult	-0.1249387
-4.937903	Advertising	-0.1249387
-4.937903	Advocates	-0.1249387
-3.432725	After	-0.3748162
-4.636858	Again	-0.1249387
-4.937903	Age	-0.1249387
-4.937903	Agencies	-0.1249387
-4.937903	Ah	-0.1249387
-4.636858	Air	-0.1249387
-4.937903	Aircraft	-0.1249387
-4.937903	Airline	-0.1249387
-4.460763	Alas	-0.1249387
-4.937903	Ali	-0.1249387
-4.937903	Alien	-0.1249387
-4.034788	All	-0.2498775
-4.636858	Along	-0.1249387
-4.460763	Already	-0.1249387
-4.937903	Altering	-0.1249387
-4.335821	Although	-0.1249387
-4.937903	Altogether	-0.1249387
-4.937903	America	-0.1249387
-4.937903	American	-0.1249387
-4.937903	Amid	-0.1249387
-4.636858	Among	-0.4259687
-3.983635	An	-0.1249387
-4.937903	Analysis	-0.1249387
-4.460763	Analysts	-0.1249387
-2.978833	And	-0.37641
-4.636858	Andersen	-0.4259687
-4.937903	Angeles	-0.1249387
-4.937903	Angelina	-0.1249387
-4.937903	Announcements	-0.1249387
-4.23891	Another	-0.1249387
-4.636858	Answer	-0.1249387
-4.937903	Anticipating	-0.1249387
-4.636858	Any	-0.1249387
-4.937903	Ape	-0.1249387
-4.937903	Apologize	-0.1249387
-4.937903	Apostolate	-0.1249387
-4.937903	Apparently	-0.1249387
-4.636858	Apple	-0.1249387
-4.937903	Approval	-0.1249387
-4.937903	Arch	-0.1249387
-4.23891	Are	-0.5228787
-4.937903	Arguing	-0.1249387
-4.636858	Armed	-0.4259687
-4.636858	Around	-0.1249387
-4.937903	Arpanet	-0.1249387
-4.937903	Arragon	-0.1249387
-4.937903	Arrested	-0.1249387
-4.937903	Art	-0.1249387
-3.393807	As	-0.307279
-4.937903	Ascender	-0.1249387
-4.937903	Aside	-0.1249387
-3.256633	At	-0.50515
-4.937903	Attorney	-0.1249387
-4.937903	Auditors	-0.1249387
-4.937903	Auntie	-0.1249387
-4.937903	Automakers	-0.1249387
-3.896484	Avenue	-0.1663314
-4.937903	Award	-0.1249387
-4.636858	Awards	-0.1249387
-4.636858	B	-0.1249387
-4.937903	B-24	-0.1249387
-4.937903	B.O.	-0.1249387
-4.937903	BABIES	-0.1249387
-4.937903	BACK	-0.1249387
-4.937903	BECAUSE	-0.1249387
-4.937903	BEFORE	-0.1249387
-4.937903	BENJAMIN	-0.1249387
-4.636858	BIG	-0.1249387
-4.937903	BIGGER	-0.1249387
-4.937903	BMW	-0.1249387
-4.937903	BRANDS	-0.1249387
-4.937903	BRENT	-0.1249387
-4.937903	BURNING	-0.1249387
-4.937903	Babies	-0.1249387
-4.937903	Baby	-0.1249387
-4.937903	Backing	-0.1249387
-4.937903	Bad	-0.1249387
-4.937903	Badlands	-0.1249387
-4.937903	Ball	-0.1249387
-4.937903	Band	-0.1249387
-4.937903	Bank	-0.1249387
-4.937903	Banking	-0.1249387
-4.937903	Barbie	-0.1249387
-4.636858	Bark	-0.1249387
-4.937903	Basically	-0.1249387
-4.937903	Batman	-0.1249387
-4.937903	Baywatch	-0.1249387
-4.937903	Bazaar	-0.1249387
-4.937903	Be	-0.1249387
-4.937903	Beauty	-0.1249387
-4.460763	Because	-0.1249387
-4.937903	Bees	-0.1249387
-4.23891	Before	-0.1249387
-4.636858	Behind	-0.4259687
-4.937903	Behold	-0.1249387
-4.460763	Being	-0.1249387
-4.937903	Bentleys	-0.1249387
-4.636858	Besides	-0.1249387
-4.636858	Best	-0.4259687
-4.937903	Better	-0.1249387
-4.937903	Bextra	-0.1249387
-4.636858	Beyond	-0.1249387
-4.460763	Big	-0.1249387
-4.937903	Bigger	-0.1249387
-4.937903	Biggest	-0.1249387
-4.937903	Bike	-0.1249387
-4.937903	Billions	-0.1249387
-4.937903	Bits	-0.1249387
-4.937903	BlackBerries	-0.1249387
-4.636858	BlackBerry	-0.1249387
-4.636858	BlackBerrys	-0.1249387
-4.937903	Blair	-0.1249387
-4.636858	Blazer	-0.1249387
-4.937903	Boardwalk	-0.1249387
-4.937903	Bonds	-0.1249387
-4.937903	Bonnie-and-Clyde	-0.1249387
-4.636858	Borders	-0.1249387
-4.937903	Born	-0.1249387
-4.034788	Both	-0.1249387
-4.937903	Bottles	-0.1249387
-4.937903	Bourbon	-0.1249387
-4.460763	Bowl	-0.1249387
-4.937903	Box	-0.1249387
-4.937903	Boy	-0.1249387
-4.937903	Branded	-0.1249387
-4.937903	Bridal	-0.1249387
-4.937903	Brilliant	-0.1249387
-4.937903	Bristol-Myers	-0.1249387
-4.937903	Britannica	-0.1249387
-4.937903	British	-0.1249387
-4.937903	Broad	-0.1249387
-4.937903	Broadband	-0.1249387
-4.937903	Broadway	-0.1249387
-4.937903	Bronze	-0.1249387
-4.937903	Bubble	-0.1249387
-4.636858	Bud	-0.4259687
-4.937903	Budweiser	-0.1249387
-4.937903	Builders	-0.1249387
-4.636858	Building	-0.1249387
-4.937903	Bunny	-0.1249387
-4.937903	Burger	-0.1249387
-4.937903	Business	-0.1249387
-2.599417	But	-0.5495813
-4.460763	Buy	-0.1249387
-4.460763	Buying	-0.30103
-4.937903	Buzz	-0.1249387
-3.707427	By	-0.4011451
-4.937903	Bypassing	-0.1249387
-4.335821	C	-0.1249387
-4.335821	C.E.O.	-0.2498775
-4.937903	C1	-0.1249387
-4.937903	CAN	-0.1249387
-4.937903	CBS	-0.1249387
-4.937903	CD	-0.1249387
-4.937903	CEO	-0.1249387
-4.937903	CHESS	-0.1249387
-4.937903	CHICKEN	-0.1249387
-4.937903	CHIEF	-0.1249387
-4.937903	CHITCHAT	-0.1249387
-4.937903	CLASS	-0.1249387
-4.937903	CLOCKWISE	-0.1249387
-4.937903	COME	-0.1249387
-4.937903	COMMUNICATIONS	-0.1249387
-4.937903	COMPARE	-0.1249387
-4.937903	CONGRATULATIONS	-0.1249387
-4.937903	CONSCIOUS	-0.1249387
-4.937903	CONSIDER	-0.1249387
-4.937903	CONSUMERS	-0.1249387
-4.937903	CORPORATE	-0.1249387
-4.937903	CUSTOMER	-0.1249387
-4.937903	Ca	-0.1249387
-4.937903	Cabana	-0.1249387
-4.636858	Cadillac	-0.1249387
-4.937903	Cafta	-0.1249387
-4.636858	Call	-0.1249387
-4.937903	Calling	-0.1249387
-4.937903	Camelback	-0.1249387
-4.937903	Camera	-0.1249387
-4.460763	Can	-0.1249387
-4.937903	Capitol	-0.1249387
-4.937903	Car	-0.1249387
-4.937903	Care	-0.1249387
-4.937903	Carriers	-0.1249387
-4.937903	Cars	-0.1249387
-4.937903	Cartoons	-0.1249387
-4.636858	Casino	-0.1249387
-4.937903	CatDog	-0.1249387
-4.937903	Celebrities	-0.1249387
-4.636858	Cellphone	-0.1249387
-4.937903	Cellphones	-0.1249387
-4.460763	Center	-0.1249387
-4.636858	Central	-0.1249387
-4.937903	Challenging	-0.1249387
-4.636858	Champagne	-0.1249387
-4.937903	Chances	-0.1249387
-4.937903	Charity	-0.1249387
-4.636858	Charter	-0.1249387
-4.937903	Chess	-0.1249387
-4.937903	Chevrolet	-0.1249387
-4.937903	Chicken	-0.1249387
-4.937903	Chief	-0.1249387
-4.937903	Child	-0.1249387
-4.937903	Children	-0.1249387
-4.937903	Chipotle	-0.1249387
-4.937903	Chitchat	-0.1249387
-4.937903	Choices	-0.1249387
-4.937903	Christianity	-0.1249387
-4.937903	Christmas	-0.1249387
-4.937903	Cigarette	-0.1249387
-4.937903	Cincinnati\/Northern	-0.1249387
-4.460763	Civic	-0.1249387
-4.937903	Clang	-0.1249387
-4.937903	Class	-0.1249387
-4.937903	Classified	-0.1249387
-4.937903	Cleopatra	-0.1249387
-4.937903	Clock	-0.1249387
-4.937903	Clunky	-0.1249387
-4.937903	Code	-0.1249387
-4.937903	Col.	-0.1249387
-4.937903	College	-0.1249387
-4.937903	Colonel	-0.1249387
-4.937903	Coming	-0.1249387
-4.937903	Communicate	-0.1249387
-4.937903	Communications	-0.1249387
-4.636858	Companies	-0.1249387
-4.937903	Company	-0.1249387
-4.937903	Compare	-0.1249387
-4.937903	Compounded	-0.1249387
-4.937903	Computer	-0.1249387
-4.937903	Computers	-0.1249387
-4.937903	Computing	-0.1249387
-4.937903	Concerns	-0.1249387
-4.937903	Confessions	-0.1249387
-4.937903	Confusion	-0.1249387
-4.937903	Congressional	-0.1249387
-4.937903	Congressman-elect	-0.1249387
-4.636858	Consider	-0.1249387
-4.937903	Consignment	-0.1249387
-4.937903	Conspiracy	-0.1249387
-4.937903	Constellations	-0.1249387
-4.636858	Consulting	-0.1249387
-4.23891	Consumer	-0.2218487
-4.636858	Consumers	-0.1249387
-4.937903	Continent	-0.1249387
-4.636858	Conventional	-0.1249387
-4.937903	Converting	-0.1249387
-4.937903	Cooking	-0.1249387
-4.937903	Cooperative	-0.1249387
-4.335821	Corporate	-0.2498775
-4.937903	Corvette	-0.1249387
-4.937903	Cost	-0.1249387
-4.937903	Coudert	-0.1249387
-4.460763	Could	-0.1249387
-4.937903	Countries	-0.1249387
-4.937903	Courvoisier	-0.1249387
-4.937903	Cover	-0.1249387
-4.937903	Crabcakes	-0.1249387
-4.937903	Creative	-0.1249387
-4.937903	Critics	-0.1249387
-4.937903	Crowding	-0.1249387
-4.937903	Crown	-0.1249387
-4.636858	Crude	-0.4259687
-4.937903	Cubs	-0.1249387
-4.937903	Curious	-0.1249387
-4.636858	Customers	-0.1249387
-4.937903	Cute	-0.1249387
-4.937903	D	-0.1249387
-4.937903	D.	-0.1249387
-1.833387	DATE	-0.724276
-4.937903	DEFENSE	-0.1249387
-4.937903	DICEY	-0.1249387
-4.937903	DISRUPTIONS	-0.1249387
-4.636858	DNA	-0.1249387
-4.460763	DO	-0.30103
-2.156837	DURATION	-0.6071227
-4.636858	DURING	-0.1249387
-4.23891	DVD	-0.2218487
-4.937903	Da	-0.1249387
-4.460763	Dad	-0.1249387
-4.937903	Dance	-0.1249387
-4.937903	Dangerously	-0.1249387
-4.937903	Darker	-0.1249387
-4.937903	Darning	-0.1249387
-4.636858	Deal	-0.4259687
-4.937903	DealBook	-0.1249387
-4.937903	Deals	-0.1249387
-4.937903	Dear	-0.1249387
-4.937903	Deep	-0.1249387
-4.937903	Demonstrate	-0.1249387
-4.937903	Denial	-0.1249387
-4.636858	Depression	-0.4259687
-4.937903	Design	-0.1249387
-4.937903	Designer	-0.1249387
-4.460763	Desperate	-0.60206
-4.034788	Despite	-0.2498775
-4.937903	Deux	-0.1249387
-4.937903	Developing	-0.1249387
-4.937903	Development	-0.1249387
-4.335821	Did	-0.4259687
-4.937903	Dilbert	-0.1249387
-4.937903	Dilemma	-0.1249387
-4.937903	Dire	-0.1249387
-4.937903	Directors	-0.1249387
-4.937903	Directory	-0.1249387
-4.937903	Disappointed	-0.1249387
-4.937903	Diseases	-0.1249387
-4.937903	Disney	-0.1249387
-3.937877	Do	-0.5228787
-4.460763	Does	-0.30103
-4.937903	Dog	-0.1249387
-4.937903	Dollar	-0.1249387
-4.937903	Donated	-0.1249387
-4.636858	Dot	-0.4259687
-4.636858	Down	-0.1249387
-4.937903	Downstream	-0.1249387
-4.636858	Dozens	-0.1249387
-4.937903	Dr	-0.1249387
-4.937903	Drawing	-0.1249387
-4.937903	Dressed	-0.1249387
-4.937903	Drive	-0.1249387
-4.937903	Drivers	-0.1249387
-4.937903	Driving	-0.1249387
-4.23891	During	-0.2218487
-4.636858	E-170	-0.4259687
-4.937903	E-190	-0.1249387
-4.636858	E-Class	-0.1249387
-4.937903	E-mail	-0.1249387
-4.937903	EARLY	-0.1249387
-4.937903	ECONOMICS	-0.1249387
-4.335821	ECONOMISTS	-0.1249387
-4.636858	ENTREPRENEURS	-0.1249387
-4.937903	ENVIRONMENTAL	-0.1249387
-4.335821	EVEN	-0.1249387
-4.937903	EVER	-0.1249387
-4.937903	EVERY	-0.1249387
-4.937903	EVERYONE	-0.1249387
-4.636858	Each	-0.1249387
-4.937903	East	-0.1249387
-4.937903	Easter	-0.1249387
-4.636858	Economic	-0.1249387
-4.636858	Economists	-0.1249387
-4.937903	Editor	-0.1249387
-4.937903	Egotastic.com	-0.1249387
-4.937903	Ehrenpreis	-0.1249387
-4.937903	Elbows	-0.1249387
-4.937903	Eldorado	-0.1249387
-4.636858	Electronics	-0.4259687
-4.937903	Elvis	-0.1249387
-4.937903	Empire	-0.1249387
-4.636858	Employees	-0.4259687
-4.937903	Energy	-0.1249387
-4.937903	Enough	-0.1249387
-4.937903	Entertainment	-0.1249387
-4.937903	Entourage	-0.1249387
-4.937903	Entrees	-0.1249387
-4.636858	Envoy	-0.1249387
-4.937903	Erupting	-0.1249387
-4.937903	Especially	-0.1249387
-4.937903	Established	-0.1249387
-4.937903	Eternal	-0.1249387
-3.636845	Even	-0.2798407
-4.937903	Eventually	-0.1249387
-4.937903	Ever	-0.1249387
-4.937903	Every	-0.1249387
-4.937903	Everybody	-0.1249387
-4.460763	Everyone	-0.1249388
-4.636858	Everything	-0.4259688
-4.937903	Everywhere	-0.1249387
-4.937903	Evidence	-0.1249387
-4.937903	Evidently	-0.1249387
-4.937903	Except	-0.1249388
-4.937903	Excuse	-0.1249387
-4.937903	Executives	-0.1249387
-4.937903	Exit	-0.1249387
-4.937903	Experience	-0.1249387
-4.937903	Exploration	-0.1249387
-4.937903	Exporting	-0.1249387
-4.937903	Expose	-0.1249387
-4.937903	Expresses	-0.1249387
-4.937903	Exxon	-0.1249387
-4.937903	F-150	-0.1249387
-4.937903	FARES	-0.1249387
-4.937903	FEEL	-0.1249387
-4.937903	FELT	-0.1249387
-4.937903	FIXING	-0.1249387
-3.823933	FOR	-0.393784
-4.937903	FRANKLIN	-0.1249387
-4.460763	FROM	-0.30103
-4.937903	FURNITURE	-0.1249387
-4.937903	Facing	-0.1249387
-4.636858	Fair	-0.1249387
-4.937903	Falling	-0.1249387
-4.937903	Family	-0.1249387
-4.937903	Farm	-0.1249387
-4.937903	Farmers	-0.1249387
-4.937903	Fast	-0.1249387
-4.937903	Father	-0.1249387
-4.636858	Fear	-0.1249387
-4.937903	Features	-0.1249387
-4.636858	FedEx	-0.1249387
-4.937903	Federal	-0.1249387
-4.937903	Feels	-0.1249387
-4.23891	Few	-0.1249387
-4.937903	Fiascoes	-0.1249387
-4.937903	Fido	-0.1249387
-4.937903	Fifi	-0.1249387
-4.937903	Fighter	-0.1249387
-4.937903	Film	-0.1249387
-4.636858	Finally	-0.4259687
-4.937903	Finance	-0.1249387
-4.937903	FingerSkilz	-0.1249387
-4.937903	Fishing	-0.1249387
-4.937903	Fists	-0.1249387
-4.636858	Fitness	-0.1249387
-4.937903	Fixing	-0.1249387
-4.937903	Flip	-0.1249387
-4.636858	Flying	-0.1249387
-4.937903	Focus	-0.1249387
-4.937903	Focusing	-0.1249387
-3.099025	For	-0.5835766
-4.636858	Forbes	-0.1249387
-4.937903	Forced	-0.1249387
-4.937903	Ford	-0.1249387
-4.937903	Foreign	-0.1249387
-4.937903	Forged	-0.1249387
-4.937903	Fork	-0.1249387
-4.937903	Form	-0.1249387
-4.636858	Formula	-0.4259687
-4.937903	Forrest	-0.1249387
-4.636858	Fortune	-0.4259687
-4.937903	Framed	-0.1249387
-4.636858	Frankly	-0.1249387
-4.937903	Fred	-0.1249387
-4.937903	Freeze	-0.1249387
-4.937903	Freezes	-0.1249387
-4.937903	French	-0.1249387
-4.937903	Fresh	-0.1249387
-3.896484	From	-0.3212334
-4.937903	Front	-0.1249387
-4.937903	Frustration	-0.1249387
-4.937903	Fuels	-0.1249387
-4.937903	Fund	-0.1249387
-4.937903	G	-0.1249387
-4.937903	G.D.P.	-0.1249387
-4.23891	G.M.	-0.2218488
-4.937903	GAS	-0.1249387
-4.937903	GENE	-0.1249387
-4.937903	GIVE	-0.1249387
-4.937903	GMC	-0.1249387
-4.460763	GOOD	-0.1249387
-4.937903	GOT	-0.1249387
-4.09278	GREW	-0.9700368
-4.937903	GRIM	-0.1249387
-4.937903	GROWING	-0.1249387
-4.335821	GUILTY	-0.2498775
-4.937903	Gadget	-0.1249387
-4.937903	Gala	-0.1249387
-4.937903	Gallery	-0.1249387
-4.636858	Gap	-0.4259688
-4.636858	Garden	-0.1249387
-4.937903	Garments	-0.1249387
-4.636858	Gasoline	-0.1249387
-4.937903	Gateway	-0.1249387
-4.937903	Gel	-0.1249387
-4.460763	Get	-0.1249387
-4.937903	Getting	-0.1249387
-4.937903	Girl	-0.1249387
-4.460763	Given	-0.30103
-4.937903	Gizmodo	-0.1249387
-4.937903	Global	-0.1249387
-4.937903	Go	-0.1249387
-4.636858	God	-0.1249387
-4.636858	Godfather	-0.1249387
-4.937903	Godzilla	-0.1249387
-4.937903	Goes	-0.1249387
-4.636858	Going	-0.1249387
-4.460763	Gold	-0.1249387
-4.937903	Goldilocks	-0.1249387
-4.937903	Goliath	-0.1249387
-4.937903	Gone	-0.1249387
-4.460763	Good	-0.1249387
-4.937903	Googled	-0.1249387
-4.937903	Googles	-0.1249387
-4.937903	Googling	-0.1249387
-4.937903	Government	-0.1249387
-4.636858	Graceland	-0.1249387
-4.937903	Grammy	-0.1249387
-4.460763	Great	-0.30103
-4.937903	Greatest	-0.1249387
-4.937903	Grill	-0.1249387
-4.937903	Ground	-0.1249387
-4.460763	Group	-0.1249387
-4.937903	Growing	-0.1249387
-4.937903	Guess	-0.1249387
-4.937903	Guiding	-0.1249387
-4.636858	Guilty	-0.4259687
-4.937903	Gump	-0.1249387
-4.937903	Guy	-0.1249387
-4.937903	H.P.	-0.1249387
-4.937903	H.P.L.	-0.1249387
-4.636858	H2	-0.4259687
-4.937903	HANDSHAKES	-0.1249387
-4.937903	HAPPY	-0.1249387
-4.937903	HAS	-0.1249387
-4.937903	HAVE	-0.1249387
-4.460763	HDTV	-0.60206
-4.636858	HERE	-0.1249387
-4.937903	HIGHER	-0.1249387
-4.937903	HIS	-0.1249387
-4.460763	HOW	-0.1249387
-4.937903	HOWARD	-0.1249387
-4.937903	HUNDREDS	-0.1249387
-4.937903	HURTLED	-0.1249387
-4.937903	Had	-0.1249387
-4.937903	Halo	-0.1249387
-4.937903	Hanes	-0.1249387
-4.937903	Happy	-0.1249387
-4.937903	Hardly	-0.1249387
-4.937903	Harvester	-0.1249387
-4.937903	Has	-0.1249387
-4.636858	Have	-0.1249387
-4.636858	Having	-0.1249387
-3.051383	He	-0.3301882
-4.937903	Headline	-0.1249387
-4.937903	Health	-0.1249387
-4.937903	Heart	-0.1249387
-4.937903	Hedge	-0.1249387
-4.937903	Hell	-0.1249387
-4.937903	Hello	-0.1249387
-4.937903	Hence	-0.1249387
-3.937877	Her	-0.1706962
-3.858695	Here	-0.4259687
-4.937903	Hers	-0.1249387
-4.937903	Hey	-0.1249387
-4.937903	Hi	-0.1249387
-4.937903	Hill	-0.1249387
-4.937903	Hilton	-0.1249387
-4.937903	Hips	-0.1249387
-3.615656	His	-0.146128
-4.937903	History	-0.1249387
-4.636858	Hollywood	-0.1249387
-4.460763	Home	-0.1249387
-4.937903	Homeless	-0.1249387
-4.937903	Homeowners	-0.1249387
-4.937903	Hood	-0.1249387
-4.937903	Hooking	-0.1249387
-4.937903	Hostile	-0.1249387
-3.983635	Hotel	-0.2340832
-4.636858	House	-0.1249387
-4.460763	Housewives	-0.60206
-4.937903	Hovering	-0.1249387
-3.823933	How	-0.1597008
-4.460763	However	-0.30103
-4.937903	Hummer	-0.1249387
-4.937903	Humvees	-0.1249387
-4.09278	Hurricane	-0.4929155
-4.460763	Hyatt	-0.30103
-2.318781	I	-0.5481324
-4.937903	I.	-0.1249387
-4.937903	I.P.O.	-0.1249387
-4.937903	IAC\/InterActiveCorp	-0.1249387
-4.159728	IF	-0.20412
-4.460763	IMAGINE	-0.1249387
-3.557664	IN	-0.50515
-4.937903	INNOVATION	-0.1249387
-4.937903	INVESTORS	-0.1249387
-4.937903	IS	-0.1249388
-3.761785	IT	-0.455932
-3.557664	If	-0.4259687
-4.937903	Illustrated	-0.1249387
-4.937903	Imagine	-0.1249387
-4.937903	Imaging	-0.1249387
-4.937903	Immediately	-0.1249387
-4.937903	Imperial	-0.1249387
-2.804335	In	-0.6786941
-4.937903	Inaugural	-0.1249387
-4.937903	Incredibly	-0.1249387
-4.937903	Incubus	-0.1249387
-4.159728	Indeed	-0.30103
-4.937903	Independence	-0.1249387
-4.937903	Infants	-0.1249387
-4.937903	Inflation	-0.1249387
-4.937903	Inn	-0.1249387
-4.937903	Inquirer	-0.1249387
-4.937903	Insects	-0.1249387
-4.23891	Inside	-0.3467875
-4.937903	Insider	-0.1249387
-3.858695	Instead	-0.50515
-4.937903	Intercontinental	-0.1249387
-4.937903	Interest	-0.1249387
-4.937903	Interested	-0.1249387
-4.636858	International	-0.1249387
-4.937903	Internet	-0.1249387
-4.460763	Interstate	-0.60206
-4.636858	Invariably	-0.1249387
-4.937903	Investigators	-0.1249387
-4.937903	Investment	-0.1249387
-4.159728	Investors	-0.1249387
-4.937903	Ira	-0.1249387
-4.937903	Iressa	-0.1249387
-4.937903	Irritated	-0.1249387
-3.983635	Is	-0.30103
-2.641209	It	-0.7140337
-4.09278	Its	-0.1249387
-4.937903	J.F.K.	-0.1249387
-4.937903	JETS	-0.1249387
-4.937903	JITTERY	-0.1249387
-4.937903	JUDGMENT	-0.1249387
-4.937903	Jeeps	-0.1249387
-4.937903	Jeeves	-0.1249387
-4.937903	Jetsons	-0.1249387
-4.937903	Jewelers	-0.1249387
-4.937903	Jewels	-0.1249387
-4.636858	Joint	-0.1249387
-4.937903	Jolie	-0.1249387
-4.937903	Joneses	-0.1249387
-4.335821	Journal	-0.1249387
-4.937903	Jungle	-0.1249387
-4.937903	Jurassic	-0.1249387
-3.659122	Just	-0.2276011
-4.937903	KEEP	-0.1249387
-4.937903	KHTS	-0.1249387
-4.937903	KNOCKED	-0.1249387
-4.159728	Katrina	-0.1249387
-4.937903	Kennedy	-0.1249387
-4.937903	Kevlar	-0.1249387
-4.937903	KidSmart	-0.1249387
-4.937903	Killer	-0.1249387
-4.937903	King	-0.1249387
-4.937903	Kit	-0.1249387
-4.937903	Knicks	-0.1249387
-4.937903	Knife-wielding	-0.1249387
-4.937903	Kobe	-0.1249387
-4.937903	Kyoto	-0.1249387
-4.937903	LEADERSHIP	-0.1249387
-4.636858	LET	-0.1249387
-4.636858	LIKE	-0.1249387
-4.937903	LITTLE	-0.1249387
-1.87831	LOCATION	-0.6024388
-4.937903	LONG	-0.1249387
-4.937903	LOST	-0.1249387
-4.937903	LUZ	-0.1249387
-4.937903	Lane	-0.1249387
-4.937903	Large	-0.1249387
-4.937903	Lasco	-0.1249387
-4.937903	Late	-0.1249387
-4.937903	Late-night	-0.1249387
-4.937903	Lately	-0.1249387
-4.937903	Later	-0.1249387
-4.937903	Law	-0.1249387
-4.937903	Lawmakers	-0.1249387
-4.937903	Lawyers	-0.1249387
-4.937903	Lazy	-0.1249387
-4.937903	Leaning	-0.1249387
-4.937903	Led	-0.1249387
-4.636858	Left	-0.1249387
-4.937903	Legal	-0.1249387
-4.937903	Legend	-0.1249387
-4.159728	Let	-0.60206
-4.937903	Lettuce	-0.1249387
-4.937903	Liar	-0.1249387
-4.937903	Lie	-0.1249387
-4.460763	Life	-0.30103
-4.937903	Lifetime	-0.1249387
-4.460763	Light	-0.1249387
-3.682603	Like	-0.30103
-4.937903	Line	-0.1249387
-4.937903	Lingering	-0.1249387
-4.460763	Little	-0.1249387
-4.636858	Live	-0.1249387
-4.460763	Long	-0.1249387
-4.937903	Longevity	-0.1249387
-4.937903	Look	-0.1249388
-4.937903	Looked	-0.1249387
-4.937903	Looking	-0.1249387
-4.937903	Looming	-0.1249387
-4.636858	Lord	-0.4259687
-4.937903	Los	-0.1249387
-4.460763	Lost	-0.60206
-4.937903	Lots	-0.1249387
-4.937903	Love	-0.1249387
-4.937903	Lovespring	-0.1249387
-4.636858	Lower	-0.1249387
-4.937903	Lowering	-0.1249387
-4.937903	Luxury	-0.1249387
-4.937903	M.B.A.	-0.1249387
-4.937903	M.C.	-0.1249387
-4.937903	M.R.I.	-0.1249387
-4.937903	MAGAZINES	-0.1249387
-4.937903	MAJOR	-0.1249387
-4.937903	MANY	-0.1249387
-4.937903	MARKETERS	-0.1249387
-4.937903	MARKETING	-0.1249387
-4.636858	MAYBE	-0.1249387
-2.336901	MISC	-0.3076104
-2.462203	MONEY	-0.5399121
-4.335821	MOST	-0.1249387
-4.636858	MP3	-0.4259687
-4.937903	MTV	-0.1249387
-4.937903	MULTIBILLION-DOLLAR	-0.1249387
-4.159728	MY	-0.1249387
-4.937903	Mac	-0.1249387
-4.636858	Macintosh	-0.1249387
-4.636858	Made	-0.4259687
-4.034788	Madison	-0.7269987
-4.937903	Magazine	-0.1249387
-4.937903	Main	-0.1249387
-4.937903	Mainly	-0.1249387
-4.937903	Majesty	-0.1249387
-4.937903	Make	-0.1249387
-4.636858	Makers	-0.4259687
-4.636858	Mall	-0.1249387
-4.937903	Man	-0.1249387
-4.636858	Mandarin	-0.1249387
-4.937903	Manitoga\/The	-0.1249387
-4.937903	Manufacturing	-0.1249387
-3.823933	Many	-0.1249387
-4.937903	MarketWatch.com	-0.1249387
-4.937903	MasterCards	-0.1249387
-4.937903	Mastering	-0.1249387
-4.937903	Masters	-0.1249387
-4.636858	Matrix	-0.4259687
-4.937903	Matter	-0.1249387
-4.937903	Maxim	-0.1249387
-4.335821	Maybe	-0.1249387
-4.636858	McDonald	-0.4259687
-4.937903	McMansion	-0.1249387
-4.636858	Me	-0.1249387
-4.937903	Meal	-0.1249387
-4.937903	Meals	-0.1249387
-4.937903	Meaning	-0.1249387
-4.937903	Media	-0.1249387
-4.937903	Meditation	-0.1249387
-4.937903	Men	-0.1249387
-4.937903	Merced	-0.1249387
-4.636858	Mercedes	-0.1249387
-4.937903	Merchant	-0.1249387
-4.937903	Merchants	-0.1249387
-4.937903	Mermaid	-0.1249387
-4.937903	Mess	-0.1249387
-4.937903	Messenger	-0.1249387
-4.937903	Mexican	-0.1249387
-4.937903	Microserf	-0.1249387
-4.937903	Midtown	-0.1249387
-4.937903	Midway	-0.1249387
-4.937903	Miele	-0.1249387
-4.937903	Millions	-0.1249387
-4.937903	Mind	-0.1249387
-4.937903	Mine	-0.1249387
-4.937903	Minimize	-0.1249387
-4.636858	Minis	-0.1249387
-4.937903	Minister	-0.1249387
-4.937903	Mint	-0.1249387
-4.937903	Miracle	-0.1249387
-4.937903	Miraculously	-0.1249387
-4.636858	Mirage	-0.4259687
-4.636858	Miss	-0.4259687
-4.937903	Model	-0.1249387
-4.636858	Mom	-0.4259687
-4.937903	Moments	-0.1249387
-4.460763	Money	-0.30103
-4.937903	Monies	-0.1249387
-4.937903	Monsoon	-0.1249387
-4.159728	More	-0.20412
-4.937903	Moreover	-0.1249387
-3.791748	Most	-0.3679768
-4.937903	Movie	-0.1249387
-4.937903	Mulch	-0.1249387
-4.937903	Muse	-0.1249387
-4.937903	Music	-0.1249387
-4.335821	Mustang	-0.1249387
-4.937903	Mutual	-0.1249387
-3.539935	My	-0.4814861
-4.636858	MySpace	-0.1249387
-4.937903	MySpace\/iPod	-0.1249387
-4.636858	Myth	-0.4259687
-4.636858	N'T	-0.1249387
-4.937903	N.A.A.C.P.	-0.1249387
-4.937903	N.B.A.	-0.1249387
-4.937903	NATURAL	-0.1249387
-4.937903	NEVER	-0.1249387
-4.636858	NEW	-0.1249387
-1.943557	NUMBER	-0.5033059
-4.937903	NY1	-0.1249387
-4.937903	Nah	-0.1249387
-4.937903	Name	-0.1249387
-4.937903	Nation	-0.1249387
-4.937903	National	-0.1249387
-4.937903	Nations-backed	-0.1249387
-4.937903	Natural	-0.1249387
-4.937903	Nature	-0.1249387
-4.636858	Nearly	-0.1249387
-4.636858	Neither	-0.1249387
-4.636858	Net	-0.1249387
-4.937903	Network	-0.1249387
-4.636858	Never	-0.1249387
-4.159728	New	-0.1249387
-4.937903	Newly	-0.1249387
-4.636858	News	-0.1249387
-4.937903	Newspapers	-0.1249387
-4.460763	Next	-0.60206
-4.937903	Nile	-0.1249387
-4.937903	Nintendogs	-0.1249387
-3.522902	No	-0.2176928
-3.983635	No.	-0.7781513
-4.23891	Nor	-0.1249387
-4.937903	Normally	-0.1249387
-4.937903	North	-0.1249387
-4.937903	Northern	-0.1249387
-3.539935	Not	-0.2676063
-4.937903	Notes	-0.1249387
-4.460763	Nothing	-0.1249387
-4.937903	Nowadays	-0.1249387
-4.937903	Nuclear	-0.1249387
-4.937903	Numbers	-0.1249387
-4.937903	O	-0.1249387
-4.460763	O.K.	-0.1249387
-4.937903	OIL	-0.1249387
-4.937903	OK	-0.1249387
-4.636858	ON	-0.1249387
-2.715158	ORDINAL	-0.3699316
-1.816971	ORGANIZATION	-0.6246653
-4.937903	OTC	-0.1249387
-4.937903	OUTSOURCING	-0.1249387
-4.636858	OVER	-0.1249387
-4.937903	Oatmeal	-0.1249387
-4.335821	Of	-0.4259687
-4.636858	Office	-0.1249387
-4.937903	Officially	-0.1249387
-4.636858	Often	-0.1249387
-4.636858	Oh	-0.1249387
-4.335821	Oil	-0.2498775
-4.937903	Old	-0.1249387
-4.937903	Olds	-0.1249387
-4.937903	Omnivore	-0.1249387
-3.419361	On	-0.5295093
-4.460763	Online	-0.1249387
-4.335821	Only	-0.1249387
-4.937903	Oops	-0.1249387
-4.937903	Open	-0.1249387
-4.937903	Opening	-0.1249387
-4.636858	Optimism	-0.1249387
-3.858695	Or	-0.2498775
-4.937903	Ord	-0.1249387
-4.937903	Organization	-0.1249387
-4.937903	Oriental	-0.1249387
-4.937903	Oscar	-0.1249387
-4.937903	Oscar-winning	-0.1249387
-4.335821	Other	-0.1249387
-4.335821	Others	-0.1249387
-4.937903	Otherwise	-0.1249387
-4.937903	Our	-0.1249387
-4.937903	Out	-0.1249387
-4.937903	Outside	-0.1249387
-4.159728	Over	-0.20412
-4.937903	Owned	-0.1249387
-4.636858	Oxygen	-0.1249387
-4.937903	P.R.-specialist-cum-commentator	-0.1249387
-4.09278	PC	-0.1918855
-4.636858	PCs	-0.1249387
-4.937903	PEOPLE	-0.1249387
-3.013595	PERCENT	-0.4810163
-1.829986	PERSON	-0.7331398
-4.636858	PIPE	-0.1249387
-4.636858	PITY	-0.1249387
-4.937903	PRICE	-0.1249387
-4.937903	PRICES	-0.1249387
-4.937903	PROPER	-0.1249387
-4.937903	Page	-0.1249387
-4.937903	Palm	-0.1249387
-4.937903	Pan	-0.1249387
-4.937903	Paper	-0.1249387
-4.937903	Paradoxically	-0.1249387
-4.937903	Parents	-0.1249387
-4.23891	Park	-0.1249387
-4.937903	Part	-0.1249387
-4.937903	Pay	-0.1249387
-4.937903	Pegasys	-0.1249387
-4.937903	Peninsula	-0.1249387
-4.636858	Pentagon	-0.1249387
-4.09278	People	-0.2710668
-4.937903	Pepper	-0.1249387
-4.937903	Pepperidge	-0.1249387
-4.335821	Perhaps	-0.2498775
-4.937903	Persistence	-0.1249387
-4.460763	Personal	-0.1249387
-4.937903	Petroleum	-0.1249387
-4.937903	Philosophers	-0.1249387
-4.937903	Photo-based	-0.1249387
-4.937903	Photographer	-0.1249387
-4.937903	PicoCricket	-0.1249387
-4.937903	Pierre	-0.1249387
-4.937903	Pioneer	-0.1249387
-4.937903	Piped	-0.1249387
-4.937903	Places	-0.1249387
-4.937903	Placid	-0.1249387
-4.937903	Platinum	-0.1249387
-4.937903	PlayStation	-0.1249387
-4.937903	Plaza	-0.1249387
-4.937903	Pledge	-0.1249387
-4.937903	Plenty	-0.1249387
-4.937903	Point	-0.1249387
-4.937903	Poker	-0.1249387
-4.937903	Polaroids	-0.1249387
-4.636858	Politics	-0.1249387
-4.937903	Pollocks	-0.1249387
-4.937903	Pontiacs	-0.1249387
-4.636858	Poor	-0.1249387
-4.937903	Porsches	-0.1249387
-4.937903	Port	-0.1249387
-4.937903	Post	-0.1249387
-4.937903	Pow	-0.1249387
-4.937903	Preit	-0.1249387
-4.937903	Preserved	-0.1249387
-3.576147	President	-1.486667
-4.937903	Price	-0.1249387
-4.937903	PriceGrabber	-0.1249387
-4.335821	Prices	-0.2498775
-4.636858	Prilosec	-0.1249387
-4.937903	Prime	-0.1249387
-4.636858	Prius	-0.1249387
-4.636858	ProFlowers	-0.1249387
-4.937903	Probably	-0.1249387
-4.937903	ProductScan	-0.1249387
-4.937903	Productivity	-0.1249387
-4.636858	Profits	-0.1249387
-4.937903	Project	-0.1249387
-4.937903	Promises	-0.1249387
-4.937903	Proof	-0.1249387
-4.335821	Propulsid	-0.2498775
-4.937903	Prospect	-0.1249387
-4.937903	Protocol	-0.1249387
-4.937903	Proving	-0.1249387
-4.636858	Put	-0.1249387
-4.636858	Q.	-0.1249387
-4.937903	QUESTION	-0.1249387
-4.937903	QX4	-0.1249387
-4.937903	Quake	-0.1249387
-4.937903	Queen	-0.1249387
-4.937903	Quite	-0.1249387
-4.636858	R	-0.4259687
-4.937903	R.	-0.1249387
-4.937903	REACHING	-0.1249387
-4.937903	REGIONAL	-0.1249387
-4.636858	REMEMBER	-0.1249387
-4.937903	RIGHT	-0.1249387
-4.937903	ROBUST	-0.1249387
-4.937903	ROMANCE	-0.1249387
-4.937903	ROOT	-0.1249387
-4.937903	Raise	-0.1249387
-4.937903	Rancho	-0.1249387
-4.636858	Rather	-0.1249387
-4.937903	ReaMetrix	-0.1249387
-4.636858	Real	-0.1249387
-4.937903	Recall	-0.1249387
-4.937903	Recent	-0.1249387
-4.937903	Recipient	-0.1249387
-4.937903	Record	-0.1249387
-4.937903	Recovery	-0.1249387
-4.937903	Red	-0.1249387
-4.937903	Reflecting	-0.1249387
-4.636858	Regency	-0.1249387
-4.937903	Relieved	-0.1249387
-4.937903	Rense.com	-0.1249387
-4.937903	Rent	-0.1249387
-4.937903	Report	-0.1249387
-4.937903	Reporter	-0.1249387
-4.937903	Reporters	-0.1249387
-4.937903	Reports	-0.1249387
-4.636858	Representative	-0.4259687
-4.937903	Respect	-0.1249387
-4.937903	Resting	-0.1249387
-4.937903	Retailing	-0.1249387
-4.937903	Retired	-0.1249387
-4.937903	Rhaeto-Romansh	-0.1249387
-4.937903	Rich	-0.1249387
-4.937903	Richer	-0.1249387
-4.937903	Right	-0.1249387
-4.937903	Rightly	-0.1249387
-4.636858	Rings	-0.4259687
-4.937903	Rising	-0.1249387
-4.937903	River	-0.1249387
-4.937903	Road	-0.1249387
-4.937903	Robin	-0.1249387
-4.937903	Robust	-0.1249387
-4.636858	Rockefeller	-0.4259687
-4.937903	Rocketboom	-0.1249387
-4.335821	Rolling	-0.4259687
-4.937903	Rolls	-0.1249387
-4.636858	Room	-0.1249387
-4.937903	Roosevelt	-0.1249387
-4.937903	Roses	-0.1249387
-4.937903	Rover	-0.1249387
-4.937903	Rush	-0.1249387
-4.937903	Ryan	-0.1249387
-4.460763	S	-0.1249387
-4.460763	S.U.V.	-0.1249387
-4.937903	SARS	-0.1249387
-4.937903	SECURITY	-0.1249387
-2.933553	SET	-0.3031853
-4.937903	SHAREHOLDERS	-0.1249387
-4.636858	SHORTLY	-0.4259687
-4.937903	SILVER	-0.1249387
-4.937903	SIMPLICITY	-0.1249387
-4.937903	SIZE	-0.1249387
-4.636858	SO	-0.1249387
-4.937903	SOCIAL	-0.1249387
-4.937903	SOME	-0.1249387
-4.460763	SOMETIMES	-0.1249387
-4.937903	SOON	-0.1249387
-4.937903	STEPPED	-0.1249387
-4.937903	STEPPING	-0.1249387
-4.636858	STOCKS	-0.1249387
-4.937903	SURPRISE	-0.1249387
-4.09278	Sales	-0.1249387
-4.636858	Salon	-0.1249387
-4.937903	Satisfaction	-0.1249387
-4.937903	Savings	-0.1249387
-4.636858	Say	-0.1249387
-4.937903	Scandal	-0.1249387
-4.937903	Scanning	-0.1249387
-4.937903	School	-0.1249387
-4.937903	Schools	-0.1249387
-4.937903	Scotch	-0.1249387
-4.636858	Scoty	-0.1249387
-4.937903	Scouts	-0.1249387
-4.937903	Scrubbing	-0.1249387
-4.937903	Scrubs	-0.1249387
-4.937903	Seated	-0.1249387
-4.636858	Secretary	-0.4259687
-3.896484	Security	-0.2632414
-4.937903	Seeking	-0.1249387
-4.636858	Senator	-0.4259687
-4.937903	Senators	-0.1249387
-4.937903	Series	-0.1249387
-4.937903	Services	-0.1249387
-4.937903	Settle	-0.1249387
-4.460763	Several	-0.1249387
-4.937903	Shares	-0.1249387
-4.937903	Sharp	-0.1249387
-4.937903	Shave	-0.1249387
-3.576147	She	-0.2313941
-4.937903	Sheraton	-0.1249387
-4.937903	Shook	-0.1249387
-4.937903	Shop	-0.1249387
-4.937903	Shopping	-0.1249387
-4.937903	Short	-0.1249387
-4.460763	Shortly	-0.30103
-4.335821	Show	-0.2498775
-4.937903	Shrewd	-0.1249387
-4.937903	Shun	-0.1249387
-4.937903	Side	-0.1249387
-4.937903	Sideways	-0.1249387
-4.937903	Silver	-0.1249387
-4.937903	Similarly	-0.1249387
-3.707427	Since	-0.4011451
-4.636858	Sir	-0.4259687
-4.636858	Sister	-0.4259687
-4.636858	Sisyphus	-0.4259687
-4.937903	Sitting	-0.1249387
-4.937903	Skinny	-0.1249387
-4.937903	Skintimate	-0.1249387
-4.937903	Skittles	-0.1249387
-4.937903	Sky	-0.1249387
-4.937903	Slate	-0.1249387
-4.937903	Slope	-0.1249387
-4.937903	Small	-0.1249387
-4.937903	Small-cap	-0.1249387
-4.937903	Smart	-0.1249387
-3.325091	So	-0.3063588
-4.937903	SoBe	-0.1249387
-4.937903	Soaring	-0.1249387
-3.937877	Social	-1.124939
-4.937903	Soft	-0.1249387
-3.858695	Some	-0.2498775
-4.937903	Something	-0.1249387
-4.937903	Sometime	-0.1249387
-4.034788	Sometimes	-0.1829307
-4.937903	Songs	-0.1249387
-4.636858	Soon	-0.1249387
-4.937903	Sophocles	-0.1249387
-4.937903	Sopranos	-0.1249387
-4.937903	Sound	-0.1249387
-4.937903	Sounds	-0.1249387
-4.636858	South	-0.1249387
-4.636858	Southeast	-0.1249387
-4.937903	Spaniards	-0.1249387
-4.937903	Spanish	-0.1249387
-4.937903	Spartan	-0.1249387
-4.937903	Special	-0.1249387
-4.937903	Spectator	-0.1249387
-4.636858	SpongeBob	-0.1249387
-4.937903	Sports	-0.1249387
-4.937903	Spotless	-0.1249387
-4.937903	Sprite	-0.1249387
-4.636858	Square	-0.1249387
-4.937903	SquarePants	-0.1249387
-4.937903	Squibb	-0.1249387
-4.636858	Standing	-0.1249387
-4.636858	Star	-0.4259687
-4.937903	Start	-0.1249387
-4.937903	Starting	-0.1249387
-4.23891	State	-0.2218487
-4.937903	Steel	-0.1249387
-4.937903	Sticky	-0.1249387
-3.896484	Still	-0.2120889
-4.937903	StockPot	-0.1249387
-4.23891	Stocks	-0.1249387
-4.636858	Stone	-0.1249387
-4.636858	Stones	-0.1249387
-4.937903	Stop	-0.1249387
-4.937903	Story	-0.1249387
-4.937903	Strand	-0.1249387
-3.314625	Street	-0.30103
-4.937903	Streets	-0.1249387
-4.937903	Strike	-0.1249387
-4.636858	Strip	-0.1249387
-4.937903	Studios	-0.1249387
-4.937903	Stunned	-0.1249387
-4.937903	Styrofoam	-0.1249387
-4.937903	Subaru	-0.1249387
-4.937903	Subject	-0.1249387
-4.636858	Sun	-0.4259687
-4.937903	Sun-Star	-0.1249387
-4.937903	Sunshine	-0.1249387
-4.23891	Super	-0.3467875
-4.937903	Supply	-0.1249387
-4.636858	Sure	-0.1249387
-4.937903	Surprisingly	-0.1249387
-4.937903	Surrounding	-0.1249387
-4.636858	Sweet	-0.1249387
-4.937903	Sweetheart	-0.1249387
-4.937903	Swim	-0.1249387
-4.937903	Switching	-0.1249387
-4.937903	Symbos	-0.1249387
-4.937903	Synergy	-0.1249387
-4.937903	T	-0.1249387
-4.636858	T-shirt	-0.1249387
-4.937903	T-shirts	-0.1249387
-4.937903	TALK	-0.1249387
-4.636858	TAX	-0.1249387
-4.937903	TF-51	-0.1249387
-3.358091	THE	-0.1365206
-4.335821	THERE	-0.4259687
-4.636858	THOSE	-0.1249387
-3.040247	TIME	-0.359808
-4.937903	TO	-0.1249387
-4.937903	TRUE	-0.1249387
-3.761785	TV	-0.1870866
-4.460763	Take	-0.1249387
-4.937903	Taking	-0.1249387
-4.636858	Target	-0.1249387
-4.937903	Tastes	-0.1249387
-4.937903	Tax	-0.1249387
-4.937903	Taxes	-0.1249387
-4.937903	Teachers	-0.1249387
-4.937903	Techdirt.com	-0.1249387
-4.937903	Technicians	-0.1249387
-4.937903	Ted	-0.1249387
-4.23891	Tell	-0.1249387
-4.937903	Terminals	-0.1249387
-4.937903	Terrace	-0.1249387
-4.937903	Thank	-0.1249387
-4.23891	Thanks	-0.5228788
-4.937903	Thanksgiving	-0.1249387
-3.181999	That	-0.4336556
-2.314625	The	-0.2948697
-4.937903	Theater	-0.1249387
-4.034788	Their	-0.1829307
-3.539935	Then	-0.2924298
-3.304406	There	-0.6444638
-4.937903	Therefore	-0.1249387
-3.761785	These	-0.39794
-3.086616	They	-0.3851325
-4.937903	Things	-0.1249387
-4.937903	Think	-0.1249387
-4.636858	ThinkPad	-0.4259687
-3.539935	This	-0.4814861
-4.937903	Thornberries	-0.1249387
-4.335821	Those	-0.1249387
-4.937903	Though	-0.1249387
-4.937903	Thus	-0.1249387
-4.636858	Times	-0.1249387
-4.937903	Tiny	-0.1249387
-4.937903	Titled	-0.1249387
-3.636845	To	-0.2218487
-4.937903	Tobacco	-0.1249387
-4.937903	Tom	-0.1249387
-4.937903	Total	-0.1249387
-4.937903	Tough	-0.1249387
-4.636858	Tower	-0.1249387
-4.937903	Toys	-0.1249387
-4.937903	Trade	-0.1249387
-4.937903	Traders	-0.1249387
-4.460763	TrailBlazer	-0.1249387
-4.937903	Transitions	-0.1249387
-4.937903	Treat	-0.1249387
-4.937903	Trouble	-0.1249387
-4.636858	True	-0.1249387
-4.937903	Trust	-0.1249387
-4.937903	Tuel	-0.1249387
-4.937903	Turn	-0.1249387
-4.937903	Turnpike	-0.1249387
-4.937903	Twinkie	-0.1249387
-4.937903	Tyler	-0.1249387
-4.636858	U2	-0.1249387
-4.937903	UNTIL	-0.1249387
-4.937903	Unable	-0.1249387
-4.937903	Uncollected	-0.1249387
-4.460763	Under	-0.1249387
-4.937903	Understandably	-0.1249387
-4.937903	Unemployment	-0.1249387
-4.937903	Unexpectedly	-0.1249387
-4.937903	Unfortunately	-0.1249387
-4.937903	Union	-0.1249387
-4.937903	Unison	-0.1249387
-4.937903	United	-0.1249387
-4.937903	Unless	-0.1249387
-4.159728	Until	-0.90309
-4.937903	Up	-0.1249387
-4.636858	Us	-0.1249387
-4.460763	Using	-0.1249387
-4.937903	Usually	-0.1249387
-4.636858	V.I.P.	-0.1249387
-4.937903	V60	-0.1249387
-4.937903	VETERAN	-0.1249387
-4.460763	Valentine	-0.60206
-4.937903	Valium	-0.1249387
-4.937903	Van	-0.1249387
-4.937903	Vanity	-0.1249387
-4.937903	Variety	-0.1249387
-4.937903	Vascular	-0.1249387
-4.636858	Venture	-0.1249387
-4.460763	Very	-0.1249387
-4.937903	Vice	-0.1249387
-4.937903	Video	-0.1249387
-4.937903	Vie	-0.1249387
-4.937903	View	-0.1249387
-4.937903	Vinci	-0.1249387
-4.636858	Vineyard	-0.1249387
-4.937903	Vioxx	-0.1249387
-4.937903	Virtually	-0.1249387
-4.937903	Visa	-0.1249387
-4.937903	Vision	-0.1249387
-4.937903	Visiting	-0.1249387
-4.937903	Vista	-0.1249387
-4.937903	Vultures	-0.1249387
-4.937903	WANT	-0.1249387
-4.460763	WAS	-0.1249387
-4.636858	WE	-0.1249387
-4.636858	WENT	-0.1249387
-4.034788	WHAT	-0.1249387
-3.539935	WHEN	-0.5228787
-4.937903	WHENEVER	-0.1249387
-4.937903	WHERE	-0.1249387
-4.460763	WHILE	-0.1249387
-4.937903	WHO	-0.1249387
-4.937903	WILLIAM	-0.1249387
-4.937903	WIN-WIN-WOW	-0.1249387
-4.937903	WISE	-0.1249387
-4.636858	WITH	-0.1249387
-4.937903	WOULD	-0.1249387
-4.937903	WWW	-0.1249387
-3.381572	Wall	-1.380211
-4.23891	Want	-0.2218487
-4.937903	Warmer	-0.1249387
-4.937903	Warning	-0.1249387
-4.937903	Washington	-0.1249387
-4.937903	Watch	-0.1249387
-4.937903	Watergate	-0.1249387
-3.393807	We	-0.2218488
-3.490717	Web	-0.6690068
-4.937903	Web-head	-0.1249387
-4.937903	Web-only	-0.1249387
-4.937903	Webcam	-0.1249387
-4.937903	Webzine	-0.1249387
-4.937903	Wedding	-0.1249387
-4.636858	Welcome	-0.1249387
-4.23891	Well	-0.1249387
-4.937903	Were	-0.1249387
-4.636858	West	-0.1249387
-3.475477	What	-0.4112455
-4.937903	Whatever	-0.1249387
-2.998355	When	-0.763428
-4.937903	Whenever	-0.1249387
-4.636858	Where	-0.1249387
-4.335821	Whether	-0.1249387
-4.937903	Whew	-0.1249387
-4.636858	Which	-0.1249387
-3.896484	While	-0.1663314
-4.937903	White	-0.1249387
-3.858695	Who	-0.4259687
-4.937903	Whoops	-0.1249387
-4.937903	Whopper	-0.1249387
-4.09278	Why	-0.2710668
-4.937903	WiFi	-0.1249387
-4.937903	Wiki-shopping	-0.1249387
-4.937903	Wikipedia	-0.1249387
-4.937903	Wild	-0.1249387
-4.23891	Will	-0.2218488
-4.937903	Willets	-0.1249387
-4.937903	William	-0.1249387
-4.937903	Win	-0.1249387
-4.937903	Wind	-0.1249387
-4.937903	Witch	-0.1249387
-3.522902	With	-0.2176928
-4.09278	Within	-0.3679768
-4.460763	Without	-0.1249387
-4.937903	Witness	-0.1249387
-4.937903	Women	-0.1249387
-4.937903	Wonderful	-0.1249387
-4.937903	Word	-0.1249387
-4.937903	Workers	-0.1249387
-4.335821	Working	-0.2498775
-4.636858	World	-0.1249387
-4.937903	Worried	-0.1249387
-4.937903	Worries	-0.1249387
-4.937903	Worse	-0.1249387
-4.937903	Worth	-0.1249387
-4.23891	Would	-0.2218487
-4.636858	Writing	-0.1249387
-4.937903	X-ray	-0.1249387
-4.937903	Xbox	-0.1249387
-4.937903	Y-MP	-0.1249387
-4.937903	YES	-0.1249388
-4.937903	YESTERYEAR	-0.1249387
-4.937903	YORKER	-0.1249387
-4.23891	YOU	-0.1249387
-4.937903	YOUR	-0.1249387
-4.937903	Yards	-0.1249387
-4.937903	Yeah	-0.1249387
-4.937903	Yeeesssss	-0.1249387
-4.937903	Yellow	-0.1249387
-4.23891	Yes	-0.3467875
-3.983635	Yet	-0.30103
-3.335814	You	-0.2798407
-4.636858	YouTube	-0.1249387
-4.937903	Your	-0.1249387
-4.937903	Z	-0.1249387
-4.937903	ZIP	-0.1249387
-4.937903	Zagat	-0.1249387
-4.937903	Zants	-0.1249387
-4.636858	Zo0mer	-0.1249387
-1.541674	a	-0.4078634
-4.937903	ab	-0.1249387
-4.937903	aback	-0.1249387
-4.159728	abandoned	-0.1249387
-4.937903	abandoning	-0.1249387
-4.937903	abdomen	-0.1249387
-4.937903	aberration	-0.1249387
-4.937903	abilities	-0.1249387
-3.983635	ability	-1.079181
-4.034788	able	-1.028029
-4.937903	ablutions	-0.1249387
-4.937903	abnormal	-0.1249387
-4.636858	aboard	-0.1249387
-4.937903	abounded	-0.1249387
-2.583766	about	-0.5814201
-3.682603	above	-0.3388186
-4.937903	abrasive	-0.1249387
-4.460763	abroad	-0.1249387
-4.460763	abruptly	-0.1249387
-4.937903	abs	-0.1249387
-4.937903	absent	-0.1249387
-4.636858	absolute	-0.1249387
-4.937903	absolutely	-0.1249387
-4.937903	absorb	-0.1249387
-4.636858	absorbing	-0.1249387
-4.937903	absurdist	-0.1249387
-4.937903	abuse	-0.1249387
-4.937903	abuzz	-0.1249387
-4.937903	abysmally	-0.1249387
-4.460763	academic	-0.1249387
-4.937903	academics	-0.1249387
-4.937903	accelerated	-0.1249387
-4.937903	accent	-0.1249387
-4.937903	accentuated	-0.1249387
-4.636858	accept	-0.1249387
-4.937903	acceptance	-0.1249387
-4.460763	accepted	-0.1249387
-3.937877	access	-0.3467875
-4.937903	accessible	-0.1249387
-4.937903	accessories	-0.1249387
-4.636858	accident	-0.1249387
-4.636858	accidentally	-0.1249387
-4.937903	accolades	-0.1249387
-4.937903	accommodate	-0.1249387
-4.636858	accommodations	-0.1249387
-4.636858	accompanied	-0.4259687
-4.937903	accompany	-0.1249387
-4.937903	accompanying	-0.1249387
-3.557664	according	-1.50515
-4.937903	accordion	-0.1249387
-3.858695	account	-0.1627273
-4.937903	accountability	-0.1249387
-4.636858	accountant	-0.1249387
-3.896484	accounting	-0.3212334
-3.937877	accounts	-0.2798407
-4.460763	accumulated	-0.30103
-4.460763	accuracy	-0.1249387
-4.937903	accurately	-0.1249387
-4.937903	accusation	-0.1249387
-4.937903	accusations	-0.1249387
-4.636858	accuse	-0.1249387
-3.858695	accused	-1.20412
-4.636858	accusing	-0.1249387
-4.937903	achieve	-0.1249387
-4.937903	achieved	-0.1249387
-4.937903	achieving	-0.1249387
-4.636858	acid	-0.1249387
-4.335821	acknowledged	-0.2498775
-4.937903	acknowledges	-0.1249387
-4.937903	acknowledgment	-0.1249387
-4.937903	acquiescence	-0.1249387
-4.460763	acquire	-0.30103
-4.335821	acquired	-0.1249387
-4.636858	acquisition	-0.4259687
-4.636858	acquisitions	-0.1249387
-4.937903	acquittal	-0.1249387
-4.937903	acre-size	-0.1249387
-4.636858	acres	-0.4259687
-3.432725	across	-0.588696
-4.159728	act	-0.30103
-4.937903	acted	-0.1249387
-4.636858	acting	-0.1249387
-4.335821	action	-0.1249387
-4.937903	active	-0.1249387
-4.636858	activist	-0.1249387
-4.335821	activities	-0.1249387
-4.335821	activity	-0.2498775
-4.636858	actor	-0.1249387
-4.335821	actors	-0.1249387
-4.23891	actress	-0.2218487
-4.460763	acts	-0.1249387
-4.636858	actual	-0.1249387
-4.23891	actually	-0.1249387
-4.159728	ad	-0.20412
-4.937903	ad-making	-0.1249387
-4.23891	add	-0.1249387
-3.937877	added	-0.2798407
-4.460763	adding	-0.1249387
-4.335821	addition	-0.1249387
-4.460763	additional	-0.1249387
-4.460763	additive	-0.1249387
-4.23891	address	-0.2218487
-4.937903	addressed	-0.1249387
-4.460763	addresses	-0.30103
-4.937903	adept	-0.1249387
-4.937903	adherents	-0.1249387
-4.937903	adhesive	-0.1249387
-4.937903	adjacent	-0.1249387
-4.937903	administering	-0.1249387
-3.823933	administration	-0.1974894
-4.636858	administrative	-0.1249387
-4.636858	administrator	-0.4259687
-4.937903	admirably	-0.1249387
-4.937903	admissions	-0.1249387
-4.937903	admit	-0.1249387
-4.937903	admittedly	-0.1249387
-4.937903	admitting	-0.1249387
-4.937903	adolescent	-0.1249387
-4.937903	adopt	-0.1249387
-4.937903	adopted	-0.1249387
-4.937903	adorned	-0.1249387
-4.937903	adorns	-0.1249387
-4.937903	adrenaline	-0.1249387
-4.937903	adrift	-0.1249387
-3.983635	ads	-0.1760913
-4.460763	adult	-0.1249387
-4.636858	adults	-0.1249387
-4.460763	advance	-0.1249387
-4.159728	advanced	-0.1249387
-4.937903	advances	-0.1249387
-4.937903	advancing	-0.1249387
-4.335821	advantage	-0.2498775
-4.937903	advantages	-0.1249387
-4.937903	advent	-0.1249387
-4.460763	advertise	-0.1249387
-4.937903	advertised	-0.1249387
-4.460763	advertisement	-0.1249387
-4.937903	advertisements	-0.1249387
-4.636858	advertisers	-0.1249387
-3.506511	advertising	-0.1945747
-3.937877	advice	-0.1249387
-4.636858	advise	-0.1249387
-4.23891	advised	-0.1249387
-4.636858	adviser	-0.1249387
-4.937903	advisers	-0.1249387
-4.335821	advising	-0.2498775
-4.636858	advisory	-0.1249387
-4.335821	advocacy	-0.4259687
-4.937903	advocates	-0.1249387
-4.636858	advocating	-0.1249387
-4.937903	aerial	-0.1249387
-4.636858	aerospace	-0.1249387
-4.937903	aesthetics	-0.1249387
-4.636858	affair	-0.4259687
-4.636858	affairs	-0.1249387
-4.937903	affected	-0.1249387
-4.937903	affecting	-0.1249387
-4.937903	affects	-0.1249387
-4.937903	affiliates	-0.1249387
-4.937903	affixed	-0.1249387
-4.937903	affixing	-0.1249387
-4.937903	afflicted	-0.1249387
-4.937903	affliction	-0.1249387
-4.034788	afford	-0.3290587
-4.937903	affordable	-0.1249387
-4.460763	aficionados	-0.1249387
-4.636858	afraid	-0.1249387
-2.827284	after	-0.4873405
-4.335821	aftermath	-0.7269987
-4.636858	afternoons	-0.1249387
-4.460763	afterward	-0.1249387
-3.506511	again	-0.4101745
-3.490717	against	-0.3679768
-4.937903	agape	-0.1249387
-3.576147	age	-0.4866666
-4.23891	agencies	-0.1249387
-3.791748	agency	-0.1918855
-4.460763	agenda	-0.1249387
-4.636858	agent	-0.1249387
-4.937903	agents	-0.1249387
-4.937903	ages	-0.1249387
-4.09278	aggressive	-0.1249387
-4.159728	aggressively	-0.1249387
-4.636858	aging	-0.1249387
-4.937903	agitate	-0.1249387
-3.983635	ago	-0.1760912
-4.937903	agony	-0.1249387
-4.937903	agoraphobia	-0.1249387
-4.460763	agree	-0.1249387
-3.858695	agreed	-0.60206
-4.636858	agreeing	-0.4259687
-4.23891	agreement	-0.1249387
-4.937903	agreements	-0.1249387
-4.937903	aground	-0.1249387
-3.823933	ahead	-0.2846395
-4.937903	aid	-0.1249387
-4.937903	aide	-0.1249387
-4.937903	aids	-0.1249387
-4.937903	aim	-0.1249387
-4.460763	aimed	-0.60206
-3.937877	air	-0.2218488
-4.937903	air-conditioners	-0.1249387
-4.636858	air-conditioning	-0.1249387
-4.937903	air-rights	-0.1249387
-4.937903	air-travel	-0.1249387
-4.159728	aircraft	-0.1249387
-4.937903	airfare	-0.1249387
-4.636858	airfares	-0.1249387
-4.937903	airfield	-0.1249387
-3.733756	airline	-0.1829307
-4.937903	airliners	-0.1249387
-3.791748	airlines	-0.1571234
-4.636858	airplane	-0.1249387
-4.937903	airplane-shaped	-0.1249387
-4.937903	airplanes	-0.1249387
-3.983635	airport	-0.2340832
-4.937903	airports	-0.1249387
-4.937903	airs	-0.1249387
-4.937903	airspace	-0.1249387
-4.937903	airwaves	-0.1249387
-4.09278	aisle	-0.1249387
-4.937903	al.	-0.1249387
-4.937903	alarming	-0.1249387
-4.636858	albeit	-0.1249387
-4.636858	album	-0.1249387
-4.937903	albums	-0.1249387
-4.937903	albuterol	-0.1249387
-4.636858	alcohol	-0.1249387
-4.937903	alerts	-0.1249387
-4.937903	align	-0.1249387
-4.937903	alignment	-0.1249387
-4.937903	alive	-0.1249387
-2.773521	all	-0.3754777
-4.937903	allay	-0.1249387
-4.937903	allegations	-0.1249387
-4.937903	allocating	-0.1249387
-4.23891	allow	-0.1249387
-4.23891	allowed	-0.2218488
-4.937903	allowing	-0.1249387
-4.937903	allure	-0.1249387
-4.937903	alluring	-0.1249387
-4.937903	allusions	-0.1249387
-4.937903	ally	-0.1249387
-4.937903	alma	-0.1249387
-4.937903	almonds	-0.1249387
-3.460753	almost	-0.2596373
-3.858695	alone	-0.30103
-3.460753	along	-0.5228788
-4.636858	alongside	-0.1249387
-4.937903	aloud	-0.1249387
-3.557664	already	-0.1627273
-3.174446	also	-0.1893967
-4.937903	also-ran	-0.1249387
-4.636858	altered	-0.1249387
-4.636858	alternative	-0.1249387
-4.335821	although	-0.1249387
-4.636858	altimeter	-0.1249387
-4.937903	altitude	-0.1249387
-4.460763	altogether	-0.30103
-4.460763	aluminum	-0.1249387
-3.335814	always	-0.2498775
-4.034788	am	-0.1249387
-4.937903	amass	-0.1249387
-4.937903	amassed	-0.1249387
-4.636858	amateur	-0.1249387
-4.937903	amazed	-0.1249387
-4.937903	amazement	-0.1249387
-4.335821	amazing	-0.2498775
-4.937903	ambassador	-0.1249387
-4.937903	ambitions	-0.1249387
-4.23891	ambitious	-0.1249387
-4.937903	ambushed	-0.1249387
-4.937903	amends	-0.1249387
-4.636858	amenities	-0.1249387
-4.09278	amid	-0.1249387
-4.636858	amiss	-0.1249387
-4.937903	ammunition	-0.1249387
-4.937903	amok	-0.1249387
-3.506511	among	-0.3258536
-4.09278	amount	-0.4929155
-4.937903	amounting	-0.1249387
-4.636858	amounts	-0.1249387
-4.937903	ample	-0.1249387
-4.937903	amused	-0.1249387
-4.937903	amusing	-0.1249387
-2.344588	an	-0.3255279
-4.937903	analysis	-0.1249387
-4.23891	analyst	-0.2218487
-3.615656	analysts	-0.3332147
-4.937903	anatomy	-0.1249387
-4.937903	ancestry	-0.1249387
-4.636858	anchor	-0.1249387
-4.937903	anchors	-0.1249387
-4.636858	ancient	-0.1249387
-1.674711	and	-0.4290598
-4.937903	anesthetic	-0.1249387
-4.937903	anew	-0.1249387
-4.937903	angel	-0.1249387
-4.937903	angina	-0.1249387
-4.937903	angled	-0.1249387
-4.335821	angry	-0.1249387
-4.937903	animal	-0.1249387
-4.460763	animals	-0.1249387
-4.937903	animate	-0.1249387
-4.23891	animated	-0.1249387
-4.460763	annals	-0.60206
-4.937903	anniversary	-0.1249387
-4.636858	announce	-0.1249387
-3.539935	announced	-0.3467875
-4.23891	announcement	-0.1249387
-4.460763	announcements	-0.1249387
-4.937903	announces	-0.1249387
-4.460763	announcing	-0.1249387
-4.937903	annoyed	-0.1249387
-4.636858	annoying	-0.1249387
-4.937903	annualized	-0.1249387
-4.937903	anonymity	-0.1249387
-4.636858	anonymous	-0.1249387
-3.221871	another	-0.2176928
-3.761785	answer	-0.1870867
-4.460763	answered	-0.1249387
-4.636858	answering	-0.1249387
-4.937903	answers	-0.1249387
-4.937903	antagonist	-0.1249387
-4.937903	ante	-0.1249387
-4.937903	anthems	-0.1249387
-4.937903	anthropologist	-0.1249387
-4.937903	anthropologists	-0.1249387
-4.937903	anti-civil	-0.1249387
-4.937903	anti-establishment	-0.1249387
-4.937903	anti-immigrant	-0.1249387
-4.937903	anti-terrorist	-0.1249387
-4.937903	antianxiety	-0.1249387
-4.937903	antibiotic	-0.1249387
-4.460763	antibiotics	-0.1249387
-4.937903	anticipated	-0.1249387
-4.460763	anticipation	-0.30103
-4.937903	antiestablishment	-0.1249387
-4.937903	antipathy	-0.1249387
-4.636858	antique	-0.1249387
-4.937903	antiques	-0.1249387
-4.937903	antispam	-0.1249387
-4.937903	antitax	-0.1249387
-4.937903	antitrust	-0.1249387
-4.937903	anxiety	-0.1249387
-4.937903	anxious	-0.1249387
-4.937903	anxiously	-0.1249387
-3.265777	any	-0.3056749
-4.636858	anybody	-0.1249387
-4.460763	anymore	-0.30103
-3.896484	anyone	-0.1249387
-3.823933	anything	-0.1974894
-4.937903	anytime	-0.1249387
-4.636858	anyway	-0.4259687
-4.335821	anywhere	-0.4259687
-4.159728	apart	-0.30103
-3.896484	apartment	-0.3212334
-4.937903	apartment-building	-0.1249387
-4.636858	apartments	-0.1249387
-4.460763	apiece	-0.60206
-4.335821	apparent	-0.1249387
-4.09278	apparently	-0.1249387
-4.937903	appealing	-0.1249387
-4.460763	appeals	-0.30103
-4.335821	appear	-0.2498775
-4.636858	appearance	-0.1249387
-4.034788	appeared	-0.1249387
-3.937877	appears	-0.8239087
-4.937903	appetite	-0.1249387
-4.937903	apples	-0.1249387
-4.460763	appliance	-0.1249387
-4.937903	applicants	-0.1249387
-4.636858	application	-0.1249387
-4.460763	applied	-0.30103
-4.937903	applies	-0.1249387
-4.460763	apply	-0.60206
-4.937903	appointment	-0.1249387
-4.636858	appraisals	-0.1249387
-4.937903	appreciate	-0.1249387
-4.937903	appreciated	-0.1249387
-4.09278	approach	-0.2710668
-4.636858	approached	-0.4259687
-4.937903	approaching	-0.1249387
-4.460763	appropriate	-0.1249387
-4.937903	appropriately	-0.1249387
-4.937903	appropriation	-0.1249387
-4.937903	approval	-0.1249387
-4.636858	approved	-0.1249387
-4.636858	approving	-0.1249387
-4.937903	approvingly	-0.1249387
-4.937903	arbiter	-0.1249387
-4.937903	arcade	-0.1249387
-4.937903	archetype	-0.1249387
-4.636858	architect	-0.1249387
-4.937903	architects	-0.1249387
-4.937903	architecture	-0.1249387
-4.937903	archrival	-0.1249387
-2.398798	are	-0.307989
-3.733756	area	-0.287666
-4.335821	areas	-0.1249387
-4.636858	arguably	-0.4259687
-4.335821	argue	-0.1249387
-4.23891	argued	-0.2218488
-4.636858	argues	-0.1249387
-4.937903	arguing	-0.1249387
-4.460763	argument	-0.1249387
-4.937903	arguments	-0.1249387
-4.937903	arising	-0.1249387
-4.937903	arithmetic	-0.1249387
-4.636858	arm	-0.1249387
-4.937903	armada	-0.1249387
-4.937903	armchair	-0.1249387
-4.937903	armed	-0.1249387
-4.937903	armor	-0.1249387
-4.937903	armored	-0.1249387
-4.335821	arms	-0.1249387
-4.636858	army	-0.1249387
-3.230304	around	-0.4175356
-4.937903	aroused	-0.1249387
-4.335821	arranged	-0.1249387
-4.636858	arrangement	-0.4259687
-4.937903	arranging	-0.1249387
-4.636858	array	-0.4259687
-4.937903	arrest	-0.1249387
-4.937903	arresting	-0.1249387
-4.937903	arrests	-0.1249387
-4.23891	arrival	-0.2218488
-4.937903	arrivals	-0.1249387
-4.335821	arrive	-0.1249387
-4.09278	arrived	-0.1918855
-4.335821	arrives	-0.4259687
-4.636858	arriving	-0.4259687
-4.159728	art	-0.1249387
-4.23891	arteries	-0.1249387
-4.460763	artery	-0.1249387
-4.937903	artery-clogging	-0.1249387
-4.937903	artery-opening	-0.1249387
-4.937903	arthritis	-0.1249387
-4.159728	article	-0.20412
-4.23891	articles	-0.3467875
-4.335821	artificial	-0.2498775
-4.636858	artillery	-0.1249387
-4.460763	artist	-0.30103
-4.937903	artists	-0.1249387
-4.460763	arts	-0.30103
-4.937903	artwork	-0.1249387
-2.272293	as	-0.5678032
-4.937903	ascent	-0.1249387
-4.937903	ascorbate	-0.1249387
-4.937903	ashes	-0.1249387
-4.159728	aside	-0.20412
-4.034788	ask	-0.1249387
-3.490717	asked	-0.2710668
-3.858695	asking	-0.1249387
-4.034788	asks	-0.1829307
-4.937903	aspect	-0.1249387
-4.460763	aspiring	-0.1249387
-4.636858	assassination	-0.1249387
-4.937903	assassins	-0.1249387
-4.636858	assemble	-0.1249387
-4.23891	assembled	-0.1249387
-4.460763	assembling	-0.1249387
-4.09278	assembly	-0.3679768
-4.636858	assertion	-0.1249387
-4.937903	assess	-0.1249387
-4.937903	assessment	-0.1249387
-4.034788	asset	-0.4259687
-4.159728	assets	-0.1249387
-4.937903	assiduously	-0.1249387
-4.937903	assigned	-0.1249387
-4.636858	assignment	-0.1249387
-4.460763	assistance	-0.1249387
-4.460763	assistant	-0.1249387
-4.636858	assisted	-0.1249387
-4.937903	assisted-living	-0.1249387
-4.937903	associate	-0.1249387
-4.937903	associated	-0.1249387
-4.937903	association	-0.1249387
-4.636858	assortment	-0.4259687
-4.937903	assume	-0.1249387
-4.636858	assumed	-0.1249387
-4.937903	assumes	-0.1249387
-4.460763	assumption	-0.30103
-4.937903	assurance	-0.1249387
-4.937903	assure	-0.1249387
-4.460763	assured	-0.1249387
-4.937903	assures	-0.1249387
-4.636858	asthma	-0.1249387
-4.937903	astonishing	-0.1249387
-4.937903	astronomical	-0.1249387
-2.26118	at	-0.8931474
-4.636858	ate	-0.1249387
-4.937903	atherosclerosis	-0.1249387
-4.636858	athlete	-0.4259687
-4.937903	athletes	-0.1249387
-4.636858	athletic	-0.1249387
-4.937903	atom	-0.1249387
-4.335821	atop	-0.2498775
-4.937903	attach	-0.1249387
-4.636858	attached	-0.1249387
-4.937903	attachment	-0.1249387
-4.034788	attack	-0.2498775
-4.460763	attacks	-0.1249387
-4.937903	attained	-0.1249387
-4.636858	attempt	-0.4259687
-4.460763	attempts	-0.30103
-4.23891	attend	-0.2218488
-4.937903	attendance	-0.1249387
-4.460763	attendant	-0.1249387
-4.636858	attendants	-0.1249387
-4.460763	attended	-0.1249387
-4.937903	attendee	-0.1249387
-4.937903	attendees	-0.1249387
-4.636858	attending	-0.1249387
-4.937903	attends	-0.1249387
-3.707427	attention	-0.2762064
-4.937903	attention-focusing	-0.1249387
-4.937903	attest	-0.1249387
-4.937903	attic	-0.1249387
-4.937903	attired	-0.1249387
-4.636858	attitude	-0.1249387
-4.636858	attitudes	-0.1249387
-4.937903	attorney	-0.1249387
-4.23891	attract	-0.1249387
-4.460763	attracted	-0.1249387
-4.937903	attractive	-0.1249387
-4.937903	attributes	-0.1249387
-3.659122	auction	-0.2276011
-4.937903	auctions	-0.1249387
-4.937903	audacious	-0.1249387
-4.159728	audience	-0.1249387
-4.460763	audiences	-0.1249387
-4.937903	audio-entertainment	-0.1249387
-4.937903	audited	-0.1249387
-4.937903	auditing	-0.1249387
-4.460763	auditor	-0.1249387
-4.937903	auditorium	-0.1249387
-4.937903	auditors	-0.1249387
-4.636858	augmented	-0.1249387
-4.937903	aunt	-0.1249387
-4.937903	aura	-0.1249387
-4.937903	authentic	-0.1249387
-4.159728	author	-0.20412
-4.460763	authorities	-0.1249387
-4.937903	authority	-0.1249387
-4.937903	authors	-0.1249387
-3.937877	auto	-0.1706962
-4.937903	autobiography	-0.1249387
-4.937903	autographs	-0.1249387
-4.034788	automaker	-0.1829307
-4.460763	automakers	-0.1249387
-4.636858	automated	-0.1249387
-4.937903	automatically	-0.1249387
-4.937903	automobile	-0.1249387
-4.460763	automotive	-0.1249387
-4.937903	autopsies	-0.1249387
-4.937903	autoworkers	-0.1249387
-3.858695	available	-0.30103
-4.937903	avalanche	-0.1249387
-3.615656	average	-0.243038
-4.937903	aversion	-0.1249387
-4.937903	avert	-0.1249387
-4.460763	aviation	-0.1249387
-4.09278	avoid	-0.1249387
-4.636858	avoided	-0.4259687
-4.937903	avoiding	-0.1249387
-4.937903	awaited	-0.1249387
-4.937903	awakening	-0.1249387
-4.937903	award	-0.1249387
-4.937903	award-winning	-0.1249387
-4.937903	awarded	-0.1249387
-4.937903	awarding	-0.1249387
-4.636858	awards	-0.1249387
-4.937903	aware	-0.1249387
-4.636858	awareness	-0.4259687
-3.419361	away	-0.4673614
-4.937903	awe	-0.1249387
-4.937903	awful	-0.1249387
-4.937903	awfully	-0.1249387
-4.636858	awkward	-0.1249387
-4.636858	babies	-0.1249387
-4.23891	baby	-0.1249387
-4.937903	bachelor	-0.1249387
-3.105365	back	-0.4133796
-4.937903	back-and-forth	-0.1249387
-4.937903	back-office	-0.1249387
-4.937903	back-ordered	-0.1249387
-4.636858	back-to-school	-0.1249387
-4.460763	backed	-0.1249387
-4.335821	background	-0.2498775
-4.937903	backgrounds	-0.1249387
-4.937903	backing	-0.1249387
-4.636858	backlog	-0.4259687
-4.937903	backpacked	-0.1249387
-4.937903	backpacks	-0.1249387
-4.937903	backrooms	-0.1249387
-4.937903	backslaps	-0.1249387
-4.937903	backward	-0.1249387
-4.937903	backyard	-0.1249387
-4.636858	bacteria	-0.1249387
-4.937903	bacterial	-0.1249387
-3.576147	bad	-0.2825466
-4.636858	badly	-0.1249387
-4.937903	baffling	-0.1249387
-4.335821	bag	-0.1249387
-4.636858	baggage	-0.1249387
-4.034788	bags	-0.1249387
-4.636858	bail	-0.1249387
-4.937903	bake	-0.1249387
-4.636858	balance	-0.1249387
-4.937903	balance-of-payments	-0.1249387
-4.937903	balanced	-0.1249387
-4.937903	balances	-0.1249387
-4.636858	balcony	-0.1249387
-4.937903	bald-faced	-0.1249387
-4.937903	baldness	-0.1249387
-4.937903	balked	-0.1249387
-4.034788	ball	-0.1249387
-4.937903	ballgame	-0.1249387
-4.335821	balloon	-0.1249387
-4.937903	ballooning	-0.1249387
-4.937903	balloons	-0.1249387
-4.937903	ballroom	-0.1249387
-4.937903	balls	-0.1249387
-4.937903	baloney	-0.1249387
-4.937903	ban	-0.1249387
-4.937903	banal	-0.1249387
-4.460763	band	-0.1249387
-4.636858	bands	-0.1249387
-4.937903	bandwagon	-0.1249387
-4.937903	bandwidth	-0.1249387
-4.636858	bang	-0.1249387
-3.615656	bank	-0.1918855
-4.636858	banker	-0.1249387
-4.034788	bankers	-0.1829307
-3.983635	banking	-0.1760913
-4.636858	bankrupt	-0.1249387
-4.937903	bankruptcies	-0.1249387
-3.733756	bankruptcy	-0.287666
-3.858695	banks	-0.20412
-4.636858	banned	-0.1249387
-4.636858	banner	-0.1249387
-4.636858	banning	-0.1249387
-4.937903	bantering	-0.1249387
-4.23891	bar	-0.1249387
-4.937903	barbarian	-0.1249387
-4.937903	barbarous	-0.1249387
-4.937903	bare	-0.1249387
-4.937903	bare-wristed	-0.1249387
-4.636858	barely	-0.1249387
-4.460763	bargain	-0.1249387
-4.937903	bargaining	-0.1249387
-4.636858	bargains	-0.1249387
-4.460763	barge	-0.1249387
-4.937903	bariatric	-0.1249387
-4.937903	barked	-0.1249387
-4.937903	barks	-0.1249387
-4.937903	barnyard	-0.1249387
-4.636858	barometer	-0.4259687
-3.858695	barrel	-0.1627273
-4.636858	barrels	-0.1249387
-4.636858	barriers	-0.1249387
-4.23891	bars	-0.3467875
-4.460763	bartenders	-0.1249387
-3.858695	base	-0.1627273
-4.23891	baseball	-0.2218488
-3.615656	based	-0.748188
-4.937903	baseman	-0.1249387
-4.460763	basement	-0.30103
-4.636858	basic	-0.1249387
-4.937903	basically	-0.1249387
-4.937903	bask	-0.1249387
-4.937903	basked	-0.1249387
-4.937903	basket	-0.1249387
-4.460763	basketball	-0.1249387
-4.937903	baskets	-0.1249387
-4.937903	batch	-0.1249387
-4.937903	bath	-0.1249387
-4.937903	bathe	-0.1249387
-4.937903	bathed	-0.1249387
-4.937903	bathes	-0.1249387
-4.23891	bathroom	-0.3467875
-4.937903	baths	-0.1249387
-4.937903	battered	-0.1249387
-4.636858	batteries	-0.1249387
-4.937903	battery-powered	-0.1249387
-3.858695	battle	-0.3590219
-4.937903	battleground	-0.1249387
-4.937903	battleship	-0.1249387
-2.490716	be	-0.2933432
-4.636858	beach	-0.1249387
-4.937903	beached	-0.1249387
-4.937903	beaches	-0.1249387
-4.937903	beam	-0.1249387
-4.937903	beamed	-0.1249387
-4.937903	beans	-0.1249387
-4.636858	bear	-0.1249387
-4.937903	beard	-0.1249387
-4.937903	bearer	-0.1249387
-4.937903	bearing	-0.1249387
-4.937903	bearings	-0.1249387
-4.937903	bears	-0.1249387
-4.460763	beat	-0.1249387
-4.636858	beaten	-0.1249387
-4.460763	beating	-0.1249387
-4.937903	beats	-0.1249387
-4.937903	beaucoup	-0.1249387
-4.159728	beautiful	-0.1249387
-3.659122	became	-0.2276011
-3.247678	because	-0.4727121
-4.937903	beckoned	-0.1249387
-3.230304	become	-0.3853509
-4.23891	becomes	-0.2218488
-4.636858	becoming	-0.1249387
-4.460763	bed	-0.1249387
-4.636858	bedroom	-0.1249387
-4.636858	bedrooms	-0.1249387
-4.937903	beds	-0.1249387
-4.937903	bedspreads	-0.1249387
-4.937903	beef	-0.1249387
-4.937903	beef-processing	-0.1249387
-4.937903	beefing	-0.1249387
-4.937903	beekeeping	-0.1249387
-2.702346	been	-0.2333624
-3.983635	beer	-0.1249387
-4.636858	beers	-0.1249387
-4.937903	bees	-0.1249387
-3.167022	before	-0.3772768
-3.238904	began	-0.3467875
-4.937903	begging	-0.1249387
-3.937877	begin	-0.1706962
-3.858695	beginning	-0.60206
-4.23891	begins	-0.1249387
-3.937877	begun	-0.2798407
-4.460763	behalf	-0.60206
-4.937903	behaving	-0.1249387
-4.636858	behavior	-0.1249387
-4.937903	behaviors	-0.1249387
-4.937903	behemoth	-0.1249387
-3.636845	behind	-0.384576
-4.937903	beholds	-0.1249387
-3.238904	being	-0.1518109
-4.636858	beleaguered	-0.1249387
-4.937903	belief	-0.1249387
-4.937903	beliefs	-0.1249387
-4.09278	believe	-0.1918855
-4.335821	believed	-0.2498775
-4.937903	believers	-0.1249387
-4.636858	believes	-0.1249387
-4.937903	believing	-0.1249387
-4.937903	bellhop	-0.1249387
-4.937903	belligerent	-0.1249387
-4.937903	bells	-0.1249387
-4.937903	belong	-0.1249387
-4.460763	belonging	-0.60206
-4.937903	belongs	-0.1249387
-4.335821	below	-0.2498775
-4.937903	belt	-0.1249387
-4.937903	bemoan	-0.1249387
-4.636858	bench	-0.1249387
-4.335821	benchmark	-0.2498775
-4.937903	bended	-0.1249387
-4.937903	beneath	-0.1249387
-4.460763	benefit	-0.1249387
-4.937903	benefited	-0.1249387
-4.09278	benefits	-0.1249388
-4.636858	beside	-0.4259687
-4.636858	besides	-0.1249387
-3.576147	best	-0.1442439
-4.460763	best-known	-0.1249387
-4.937903	best-paying	-0.1249387
-4.937903	best-selling	-0.1249387
-4.937903	bestowed	-0.1249387
-4.335821	bet	-0.2498775
-4.937903	beta	-0.1249387
-4.937903	betrays	-0.1249387
-4.335821	bets	-0.1249387
-3.432725	better	-0.2498775
-4.636858	better-than-expected	-0.1249387
-4.460763	betting	-0.1249387
-3.369673	between	-0.3709212
-4.636858	beverage	-0.1249387
-3.983635	beyond	-0.30103
-4.937903	bible	-0.1249387
-4.937903	bibs	-0.1249387
-4.937903	biceps	-0.1249387
-4.937903	bicycling	-0.1249387
-3.937877	bid	-0.2798407
-4.460763	bidder	-0.1249387
-4.937903	bidders	-0.1249387
-4.636858	bidding	-0.1249387
-4.937903	biding	-0.1249387
-4.636858	bids	-0.1249387
-3.152544	big	-0.1778748
-4.937903	big-budget	-0.1249387
-4.937903	big-screen	-0.1249387
-3.858695	bigger	-0.2498775
-3.393807	biggest	-0.1638568
-4.937903	bigwig	-0.1249387
-4.335821	bike	-0.2498775
-4.937903	bikes	-0.1249387
-4.937903	bilingual	-0.1249387
-3.791748	bill	-0.2710668
-4.937903	billboard	-0.1249387
-4.937903	billers	-0.1249387
-4.937903	billing	-0.1249387
-4.636858	billionaire	-0.1249387
-4.636858	billionaires	-0.1249387
-4.460763	billions	-0.1249387
-3.858695	bills	-0.30103
-4.937903	binders	-0.1249387
-4.937903	bingo	-0.1249387
-4.937903	biofeedback	-0.1249387
-4.937903	biotech	-0.1249387
-4.460763	biotechnology	-0.1249387
-4.636858	bird	-0.1249387
-4.937903	birdlike	-0.1249387
-4.335821	birth	-0.1249387
-4.636858	birthday	-0.1249387
-4.937903	bistro	-0.1249387
-3.761785	bit	-0.30103
-4.636858	bite	-0.1249387
-4.636858	bits	-0.4259687
-4.937903	bitterly	-0.1249387
-4.937903	bizarre	-0.1249387
-3.983635	black	-0.1760913
-4.937903	black-and-white	-0.1249387
-4.937903	black-tie	-0.1249387
-4.937903	blackjack	-0.1249387
-4.937903	blackout	-0.1249387
-4.937903	blade	-0.1249387
-4.335821	blades	-0.1249387
-4.937903	blame	-0.1249387
-4.636858	blamed	-0.1249387
-4.636858	bland	-0.1249387
-4.937903	blared	-0.1249387
-4.937903	bleached-out	-0.1249387
-4.937903	bleak	-0.1249387
-4.636858	blend	-0.1249387
-4.937903	blended	-0.1249387
-4.937903	blender	-0.1249387
-4.937903	blenders	-0.1249387
-4.937903	blessed	-0.1249387
-4.937903	blessings	-0.1249387
-4.937903	blink	-0.1249387
-4.937903	blinker	-0.1249387
-4.636858	blinking	-0.1249387
-4.937903	blistering	-0.1249387
-4.937903	blitz	-0.1249387
-4.937903	blizzard	-0.1249387
-4.636858	bloated	-0.1249387
-4.159728	block	-0.1249387
-4.937903	blockages	-0.1249387
-4.460763	blockbuster	-0.1249387
-4.460763	blocked	-0.30103
-4.335821	blocks	-0.4259687
-4.159728	blog	-0.1249387
-4.636858	bloggers	-0.1249387
-4.460763	blogging	-0.1249387
-4.636858	blogosphere	-0.4259687
-3.983635	blogs	-0.2340832
-4.937903	blokes	-0.1249387
-4.034788	blood	-0.1249387
-4.937903	bloodstream	-0.1249387
-4.937903	blooming	-0.1249387
-4.937903	blotted	-0.1249387
-4.09278	blow	-0.1918855
-4.636858	blowing	-0.1249387
-4.636858	blown	-0.1249387
-4.034788	blue	-0.1249387
-4.636858	blue-chip	-0.1249387
-4.937903	blue-collar	-0.1249387
-4.937903	blueprint	-0.1249387
-4.636858	blunt	-0.1249387
-4.937903	bluntest	-0.1249387
-4.937903	blurry	-0.1249387
-4.937903	blush	-0.1249387
-4.937903	blustery	-0.1249387
-4.335821	boar	-0.1249387
-3.761785	board	-0.1870866
-4.937903	boarded-up	-0.1249387
-4.23891	boarding	-0.2218487
-4.937903	boardroom	-0.1249387
-4.636858	boardrooms	-0.1249387
-4.636858	boards	-0.1249387
-4.460763	boast	-0.1249387
-4.636858	boasted	-0.4259687
-4.636858	boasts	-0.1249387
-4.23891	boat	-0.1249387
-4.937903	boating	-0.1249387
-4.937903	boats	-0.1249387
-4.937903	bobble-head-doll	-0.1249387
-4.937903	bodies	-0.1249387
-4.034788	body	-0.1829307
-4.937903	bogeyman	-0.1249387
-4.937903	bogus	-0.1249387
-4.937903	boiled	-0.1249387
-4.937903	boiling	-0.1249387
-4.937903	bold	-0.1249387
-4.937903	bolder	-0.1249387
-4.937903	bolster	-0.1249387
-4.937903	bolstered	-0.1249387
-4.937903	bolstering	-0.1249387
-4.937903	bombarded	-0.1249387
-4.937903	bomber	-0.1249387
-4.937903	bombers	-0.1249387
-4.937903	bombshell	-0.1249387
-4.034788	bond	-0.2498775
-4.937903	bondholders	-0.1249387
-3.896484	bonds	-0.1663314
-4.937903	bone	-0.1249387
-4.937903	bonsai	-0.1249387
-4.335821	bonus	-0.1249387
-4.636858	bonuses	-0.1249387
-4.937903	boogied	-0.1249387
-3.707427	book	-0.2092596
-4.636858	booked	-0.1249387
-4.937903	bookends	-0.1249387
-4.636858	booking	-0.1249387
-3.761785	books	-0.30103
-4.937903	bookseller	-0.1249387
-4.636858	bookstore	-0.1249387
-4.636858	bookstores	-0.1249387
-3.823933	boom	-0.1974894
-4.937903	boomers	-0.1249387
-4.335821	booming	-0.1249387
-4.937903	boomlet	-0.1249387
-4.937903	booms	-0.1249387
-4.937903	boomtowns	-0.1249387
-4.937903	boondoggle	-0.1249387
-4.636858	boot	-0.1249388
-4.636858	booted	-0.1249387
-4.636858	booth	-0.1249387
-4.636858	boots	-0.1249387
-4.460763	border	-0.1249387
-4.937903	border-patrol	-0.1249387
-4.937903	boring	-0.1249387
-4.159728	born	-0.30103
-4.937903	borough	-0.1249387
-4.937903	boroughs	-0.1249387
-4.636858	borrow	-0.1249387
-4.636858	borrowed	-0.1249387
-4.636858	borrowing	-0.1249387
-3.858695	boss	-0.1627273
-4.636858	bosses	-0.1249387
-3.381572	both	-0.2188433
-4.937903	bother	-0.1249387
-4.937903	bothered	-0.1249387
-4.937903	bothers	-0.1249387
-4.335821	bottle	-0.1249387
-4.460763	bottles	-0.30103
-4.636858	bottom	-0.1249387
-4.937903	bottom-up	-0.1249387
-4.937903	bottoms	-0.1249387
-3.406396	bought	-0.2946898
-4.937903	bound	-0.1249387
-4.937903	bounding	-0.1249387
-4.937903	bountiful	-0.1249387
-4.636858	bourgeois	-0.1249387
-4.937903	bow	-0.1249387
-4.937903	bowing	-0.1249387
-3.983635	box	-0.1760913
-4.937903	boxboard	-0.1249387
-4.636858	boxer	-0.1249387
-4.23891	boxes	-0.2218487
-4.335821	boy	-0.1249387
-4.937903	boycott	-0.1249387
-4.636858	boyfriend	-0.4259687
-4.937903	boyfriends	-0.1249387
-4.937903	boyhood	-0.1249387
-4.335821	boys	-0.1249387
-4.937903	brace	-0.1249387
-4.937903	bragged	-0.1249387
-4.159728	brain	-0.1249387
-4.937903	braked	-0.1249387
-4.335821	branch	-0.2498775
-4.335821	branches	-0.2498775
-3.823933	brand	-0.1597008
-4.937903	brand-name	-0.1249387
-4.937903	brand-new	-0.1249387
-4.937903	branded	-0.1249387
-4.937903	brandishing	-0.1249387
-4.335821	brands	-0.1249387
-4.636858	bras	-0.1249387
-4.937903	brash	-0.1249387
-4.636858	brave	-0.1249387
-4.937903	breach	-0.1249387
-4.937903	breached	-0.1249387
-4.937903	breaches	-0.1249387
-4.460763	bread	-0.1249387
-4.937903	breadth	-0.1249387
-3.937877	break	-0.2218488
-4.937903	break-in	-0.1249387
-4.460763	breakfast	-0.1249387
-4.937903	breaking	-0.1249387
-4.460763	breaks	-0.1249387
-4.937903	breakthrough	-0.1249387
-4.937903	breath	-0.1249387
-4.937903	breather	-0.1249387
-4.937903	breed	-0.1249387
-4.937903	breezily	-0.1249387
-4.937903	breezy	-0.1249387
-4.937903	brewer	-0.1249387
-4.937903	bribery	-0.1249387
-4.937903	bribes	-0.1249387
-4.460763	brick	-0.1249387
-4.937903	bridge	-0.1249387
-4.937903	bridges	-0.1249387
-4.335821	brief	-0.1249387
-4.937903	briefcase	-0.1249387
-4.636858	briefed	-0.4259687
-4.937903	briefing	-0.1249387
-4.159728	briefly	-0.1249387
-4.09278	bright	-0.1918855
-4.937903	brighter	-0.1249387
-4.460763	brilliant	-0.1249387
-4.937903	brimming	-0.1249387
-3.983635	bring	-0.1249387
-4.460763	bringing	-0.1249387
-4.23891	brings	-0.1249387
-4.937903	brink	-0.1249387
-4.460763	brisk	-0.1249387
-4.937903	brittle	-0.1249387
-4.937903	broached	-0.1249387
-4.335821	broad	-0.1249387
-4.636858	broadband	-0.4259687
-4.159728	broadcast	-0.20412
-4.937903	broadcaster	-0.1249387
-4.937903	broadcasters	-0.1249387
-4.937903	broadcasting	-0.1249387
-4.937903	broadcasts	-0.1249387
-4.636858	broaden	-0.1249387
-4.460763	broader	-0.30103
-4.636858	brochure	-0.1249387
-4.23891	broke	-0.1249387
-4.460763	broken	-0.1249387
-4.159728	broker	-0.20412
-4.23891	brokerage	-0.2218488
-4.23891	brokers	-0.1249387
-4.034788	brother	-0.1829307
-4.636858	brothers	-0.1249387
-4.034788	brought	-0.1249387
-4.460763	brown	-0.1249387
-4.937903	brows	-0.1249387
-4.636858	browser	-0.1249387
-4.937903	browsers	-0.1249387
-4.937903	brunette	-0.1249387
-4.937903	brusque	-0.1249387
-4.636858	brutal	-0.1249387
-3.858695	bubble	-0.2498775
-4.636858	bubbles	-0.1249387
-4.937903	bucolic	-0.1249387
-4.937903	buddies	-0.1249387
-4.937903	budding	-0.1249387
-4.937903	budged	-0.1249387
-4.636858	budget	-0.1249387
-4.937903	buff	-0.1249387
-4.937903	buffeted	-0.1249387
-4.937903	buffeting	-0.1249387
-4.937903	buffing	-0.1249387
-4.937903	buffs	-0.1249387
-4.937903	buggy	-0.1249387
-3.823933	build	-0.2388821
-4.636858	builders	-0.1249387
-3.419361	building	-0.2455127
-4.034788	buildings	-0.4259687
-4.937903	builds	-0.1249387
-3.707427	built	-0.2762064
-4.937903	built-in	-0.1249387
-4.937903	bulb	-0.1249387
-4.636858	bulk	-0.1249387
-4.636858	bull	-0.1249387
-4.937903	bulldozed	-0.1249387
-4.937903	bulldozers	-0.1249387
-4.23891	bullet	-0.3467875
-4.937903	bulletproof	-0.1249387
-4.937903	bullets	-0.1249387
-4.937903	bullhorn	-0.1249387
-4.937903	bullies	-0.1249387
-4.937903	bulwark	-0.1249387
-4.937903	bumbling	-0.1249387
-4.937903	bumming	-0.1249387
-4.460763	bumper	-0.1249387
-4.636858	bumping	-0.1249387
-4.937903	bunch	-0.1249387
-4.937903	bundle	-0.1249387
-4.636858	buoyed	-0.4259687
-4.460763	burden	-0.1249387
-4.335821	bureau	-0.1249387
-4.937903	buried	-0.1249387
-4.636858	burn	-0.1249387
-4.636858	burning	-0.1249387
-4.937903	burnished	-0.1249387
-4.937903	burritos	-0.1249387
-4.937903	burrowed	-0.1249387
-4.335821	burst	-0.1249387
-4.937903	bursting	-0.1249387
-4.937903	bursts	-0.1249387
-4.460763	bus	-0.1249387
-4.335821	buses	-0.1249387
-4.937903	bushes	-0.1249387
-4.937903	busiest	-0.1249387
-2.862327	business	-0.3431532
-4.636858	business-class	-0.1249387
-3.475477	businesses	-0.4412087
-4.636858	businessman	-0.1249387
-4.937903	businesspeople	-0.1249387
-4.937903	businesswoman	-0.1249387
-4.636858	bust	-0.1249388
-4.636858	busted	-0.1249387
-4.636858	bustle	-0.1249387
-4.937903	bustling	-0.1249387
-4.23891	busy	-0.1249387
-4.937903	busybody	-0.1249387
-2.650072	but	-0.4442575
-4.937903	butchering	-0.1249387
-4.636858	butler	-0.1249387
-4.937903	butter	-0.1249387
-4.460763	button	-0.1249387
-4.937903	buttoned-up	-0.1249387
-4.937903	buttons	-0.1249387
-4.937903	butyl	-0.1249387
-4.937903	butyric	-0.1249387
-3.358091	buy	-0.2575643
-4.335821	buyer	-0.1249387
-4.09278	buyers	-0.1918855
-3.733756	buying	-0.1249387
-4.09278	buyout	-0.1918855
-4.460763	buys	-0.1249387
-4.460763	buzz	-0.1249387
-4.937903	buzzing	-0.1249387
-2.449323	by	-0.4373982
-4.937903	bygone	-0.1249387
-3.858695	ca	-1.20412
-4.937903	cab	-0.1249387
-4.937903	cabin	-0.1249387
-4.937903	cabinet	-0.1249387
-4.937903	cabins	-0.1249387
-3.659122	cable	-0.3622997
-4.335821	cables	-0.2498775
-4.937903	cactuses	-0.1249387
-4.937903	cadences	-0.1249387
-4.937903	cadre	-0.1249387
-4.937903	cafes	-0.1249387
-4.937903	caffeinated	-0.1249387
-4.937903	caffeine	-0.1249387
-4.937903	calcium	-0.1249387
-4.460763	calculated	-0.1249387
-4.937903	calculations	-0.1249387
-4.937903	calculus	-0.1249387
-4.636858	calendar	-0.1249387
-4.937903	calendars	-0.1249387
-4.937903	calf-deep	-0.1249387
-4.937903	caliber	-0.1249387
-3.460753	call	-0.30103
-3.335814	called	-0.4717262
-4.335821	caller	-0.1249387
-4.937903	callers	-0.1249387
-4.460763	calling	-0.1249387
-3.761785	calls	-0.1549019
-4.937903	calm	-0.1249387
-4.937903	calories	-0.1249387
-4.636858	camcorders	-0.1249387
-3.490717	came	-0.3168243
-3.896484	camera	-0.2632414
-4.937903	cameraman	-0.1249387
-3.983635	cameras	-0.1760913
-4.937903	camouflage	-0.1249387
-4.335821	camp	-0.1249387
-3.937877	campaign	-0.2218488
-4.460763	campaigns	-0.1249387
-4.937903	camped	-0.1249387
-4.937903	camping	-0.1249387
-4.335821	camps	-0.1249387
-4.09278	campus	-0.2710668
-4.937903	campy	-0.1249387
-2.873416	can	-0.3832167
-4.636858	cancel	-0.1249387
-4.460763	canceled	-0.1249387
-4.034788	cancer	-0.1249387
-4.636858	candidate	-0.1249387
-4.636858	candy	-0.1249387
-4.937903	canine	-0.1249387
-4.937903	canned	-0.1249387
-4.937903	canopy	-0.1249387
-4.460763	cans	-0.1249387
-4.636858	canvas	-0.1249387
-4.937903	canvases	-0.1249387
-4.636858	canyons	-0.1249387
-4.460763	capable	-0.30103
-4.636858	capacity	-0.1249387
-4.937903	caper	-0.1249387
-3.896484	capital	-0.1663314
-4.937903	capitalism	-0.1249387
-4.23891	capitalist	-0.1249387
-4.23891	capitalists	-0.1249387
-4.937903	capitalization	-0.1249387
-4.937903	capitals	-0.1249387
-4.937903	capitulated	-0.1249387
-4.937903	capping	-0.1249387
-4.937903	caps	-0.1249387
-4.937903	caption	-0.1249387
-4.937903	capture	-0.1249387
-4.937903	captures	-0.1249387
-3.369673	car	-0.2952005
-4.636858	carat	-0.1249387
-4.937903	carb	-0.1249387
-4.937903	carbine-action	-0.1249387
-4.937903	carbohydrates	-0.1249387
-4.460763	carbon	-0.30103
-4.937903	carbonite	-0.1249387
-4.937903	carcass	-0.1249387
-4.937903	carcasses	-0.1249387
-3.823933	card	-0.1249387
-4.937903	cardboard	-0.1249387
-4.937903	cardiologists	-0.1249387
-4.937903	cardiology	-0.1249387
-3.636845	cards	-0.2218488
-3.791748	care	-0.2296741
-4.636858	cared	-0.1249387
-3.707427	career	-0.3139949
-4.636858	careful	-0.4259687
-4.034788	carefully	-0.1249387
-4.636858	cargo	-0.1249387
-4.937903	caring	-0.1249387
-4.937903	carmaker	-0.1249387
-4.460763	carmakers	-0.1249387
-4.937903	carnage	-0.1249387
-4.937903	carotid	-0.1249387
-4.937903	carpeting	-0.1249387
-4.937903	carpets	-0.1249387
-4.937903	carriage	-0.1249387
-4.460763	carried	-0.1249387
-4.460763	carrier	-0.1249387
-4.335821	carriers	-0.1249387
-4.937903	carrot	-0.1249387
-4.636858	carrots	-0.1249387
-4.034788	carry	-0.1829307
-4.636858	carry-on	-0.1249387
-4.159728	carrying	-0.1249387
-3.432725	cars	-0.2683609
-4.937903	cart	-0.1249387
-4.636858	cartels	-0.4259687
-4.937903	cartilage	-0.1249387
-4.460763	cartoon	-0.1249387
-4.937903	cartridges	-0.1249387
-4.636858	carving	-0.1249387
-3.522902	case	-0.3357921
-4.23891	cases	-0.1249387
-3.636845	cash	-0.2798407
-4.636858	casino	-0.1249387
-4.937903	casket	-0.1249387
-4.636858	cast	-0.1249387
-4.636858	casual	-0.1249387
-4.937903	casualty	-0.1249387
-4.937903	cat	-0.1249387
-4.937903	cat-and-mouse	-0.1249387
-4.937903	cataclysm	-0.1249387
-4.937903	catalog	-0.1249387
-4.937903	catalogue	-0.1249387
-4.937903	catapulted	-0.1249387
-4.937903	catastrophe	-0.1249387
-4.335821	catch	-0.1249388
-4.937903	catch-all	-0.1249387
-4.937903	categories	-0.1249387
-4.460763	category	-0.1249387
-4.937903	catered	-0.1249387
-4.937903	caterers	-0.1249387
-4.335821	cattle	-0.1249387
-4.937903	cattlemen	-0.1249387
-4.23891	caught	-0.2218487
-4.159728	cause	-0.20412
-4.636858	caused	-0.4259687
-4.937903	causes	-0.1249387
-4.937903	causing	-0.1249387
-4.937903	caution	-0.1249387
-4.335821	cautious	-0.1249387
-4.937903	cave	-0.1249387
-4.460763	cavernous	-0.1249387
-4.937903	caverns	-0.1249387
-4.937903	ceased	-0.1249387
-4.937903	ceases	-0.1249387
-4.636858	cedar	-0.1249387
-4.937903	ceilings	-0.1249387
-4.09278	celebrate	-0.1918855
-4.335821	celebrated	-0.1249387
-4.636858	celebrating	-0.1249387
-4.937903	celebration	-0.1249387
-4.636858	celebrations	-0.1249387
-4.937903	celebrities	-0.1249387
-4.034788	celebrity	-0.1829307
-4.937903	celebrity-packed	-0.1249387
-4.937903	cellars	-0.1249387
-3.707427	cellphone	-0.1792964
-4.159728	cellphones	-0.1249387
-4.460763	cells	-0.30103
-4.636858	cellular	-0.1249387
-4.937903	cement	-0.1249387
-4.937903	cemented	-0.1249387
-4.636858	cent	-0.1249387
-3.791748	center	-0.2296741
-4.937903	centered	-0.1249387
-4.937903	centerpiece	-0.1249387
-4.460763	centers	-0.1249387
-3.896484	central	-0.2120889
-4.937903	centrally	-0.1249387
-4.937903	cents	-0.1249387
-4.636858	century-old	-0.1249387
-4.937903	ceramic	-0.1249387
-4.937903	ceremonies	-0.1249387
-4.937903	ceremony	-0.1249387
-3.858695	certain	-0.1249387
-4.460763	certainly	-0.1249387
-4.937903	certainties	-0.1249387
-4.937903	certified	-0.1249387
-4.937903	certify	-0.1249387
-4.937903	cesspools	-0.1249387
-4.937903	chaff	-0.1249387
-4.937903	chafing	-0.1249387
-4.937903	chagrin	-0.1249387
-3.896484	chain	-0.1663314
-4.937903	chain-link	-0.1249387
-4.937903	chain-store	-0.1249387
-4.159728	chains	-0.1249387
-4.460763	chair	-0.1249387
-3.381572	chairman	-0.6812413
-4.937903	chairmen	-0.1249387
-4.937903	chairs	-0.1249387
-4.937903	chairwoman	-0.1249387
-4.937903	chalked	-0.1249387
-4.335821	challenge	-0.1249387
-4.460763	challenged	-0.1249387
-4.460763	challenges	-0.1249387
-4.937903	challenging	-0.1249387
-4.636858	champion	-0.1249387
-4.034788	chance	-0.4259688
-4.937903	chances	-0.1249387
-3.707427	change	-0.1792964
-3.823933	changed	-0.1597008
-4.937903	changer	-0.1249387
-3.823933	changes	-0.2388821
-4.335821	changing	-0.2498775
-4.159728	channel	-0.1249387
-4.636858	channeled	-0.1249387
-4.937903	channels	-0.1249387
-4.937903	chaos	-0.1249387
-4.460763	chapter	-0.30103
-4.636858	character	-0.1249387
-4.937903	characterized	-0.1249387
-4.23891	characters	-0.1249387
-4.937903	charcoal	-0.1249387
-4.636858	charge	-0.1249387
-4.636858	charged	-0.1249387
-4.09278	charges	-0.2710668
-4.636858	charging	-0.1249387
-4.937903	charismatic	-0.1249387
-4.937903	charities	-0.1249387
-4.23891	charity	-0.1249387
-4.937903	charm	-0.1249387
-4.937903	charms	-0.1249387
-4.937903	charred	-0.1249387
-4.937903	charter	-0.1249387
-4.937903	chartists	-0.1249387
-4.937903	charts	-0.1249387
-4.460763	chase	-0.1249387
-4.937903	chasing	-0.1249387
-4.937903	chasm	-0.1249387
-4.937903	chasms	-0.1249387
-4.335821	chat	-0.1249387
-4.937903	chats	-0.1249387
-4.23891	cheap	-0.1249387
-4.460763	cheaper	-0.30103
-4.937903	cheapest	-0.1249387
-4.937903	cheaply	-0.1249387
-3.983635	check	-0.1249387
-4.937903	checkbook	-0.1249387
-4.460763	checked	-0.30103
-4.636858	checking	-0.1249387
-4.636858	checklist	-0.1249387
-4.636858	checkpoint	-0.1249387
-4.636858	checks	-0.1249387
-4.937903	cheek	-0.1249387
-4.937903	cheeks	-0.1249387
-4.937903	cheer	-0.1249387
-4.937903	cheered	-0.1249387
-4.937903	cheering	-0.1249387
-4.636858	cheerleaders	-0.1249387
-4.335821	cheese	-0.1249387
-4.159728	chef	-0.20412
-4.636858	chefs	-0.1249387
-4.23891	chemical	-0.1249387
-4.636858	chemicals	-0.1249387
-4.937903	chemotherapy	-0.1249387
-4.937903	cherubic-faced	-0.1249387
-4.937903	chess	-0.1249387
-4.937903	chesslike	-0.1249387
-4.937903	chest	-0.1249387
-4.937903	chewing	-0.1249387
-4.636858	chicken	-0.1249387
-4.636858	chickens	-0.1249387
-4.937903	chiding	-0.1249387
-2.951102	chief	-0.9655825
-4.937903	chiefs	-0.1249387
-3.983635	child	-0.1760913
-3.506511	children	-0.2775489
-4.937903	chill	-0.1249387
-4.937903	chimes	-0.1249387
-4.636858	chimneys	-0.1249387
-4.937903	chin	-0.1249387
-4.937903	chintzy	-0.1249387
-4.937903	chip-embedded	-0.1249387
-4.937903	chip-making	-0.1249387
-4.937903	chipmunk	-0.1249387
-4.335821	chips	-0.2498775
-4.937903	chit-chat	-0.1249387
-4.636858	chocolate	-0.1249387
-4.937903	chocolate-covered	-0.1249387
-4.636858	choice	-0.1249387
-4.636858	choices	-0.1249387
-4.937903	choir	-0.1249387
-4.937903	cholesterol	-0.1249387
-4.937903	cholesterol-inducing	-0.1249387
-4.937903	choose	-0.1249387
-4.636858	chooses	-0.1249387
-4.636858	choosing	-0.1249387
-4.937903	chop	-0.1249387
-4.937903	chortles	-0.1249387
-4.460763	chorus	-0.1249387
-4.460763	chose	-0.1249387
-4.335821	chosen	-0.1249387
-4.937903	chronic	-0.1249387
-4.636858	chubby	-0.1249387
-4.937903	chuck	-0.1249387
-4.937903	chucked	-0.1249387
-4.937903	chuckles	-0.1249387
-4.937903	chug	-0.1249387
-4.636858	church	-0.1249387
-4.937903	churn	-0.1249387
-4.937903	churned	-0.1249387
-4.460763	cigarette	-0.30103
-4.937903	cigarettes	-0.1249387
-4.937903	circa	-0.1249387
-4.460763	circles	-0.1249387
-4.937903	circling	-0.1249387
-4.937903	circuit	-0.1249387
-4.937903	circulars	-0.1249387
-4.460763	circulated	-0.1249387
-4.937903	circulating	-0.1249387
-4.636858	circulation	-0.1249387
-4.937903	circumstance	-0.1249387
-4.636858	circumstances	-0.1249387
-4.937903	cited	-0.1249387
-3.983635	cities	-0.30103
-4.460763	citing	-0.30103
-4.937903	citizenry	-0.1249387
-3.358091	city	-0.3245111
-4.636858	civil	-0.1249387
-4.937903	civilized	-0.1249387
-4.937903	clacking	-0.1249387
-4.937903	clad	-0.1249387
-4.335821	claim	-0.2498775
-4.335821	claimed	-0.1249387
-4.937903	claiming	-0.1249387
-4.23891	claims	-0.1249387
-4.937903	clambering	-0.1249387
-4.937903	clamshell	-0.1249387
-4.937903	clash	-0.1249387
-3.823933	class	-0.2388821
-4.335821	classes	-0.2498775
-4.335821	classic	-0.1249387
-4.937903	classified	-0.1249387
-4.937903	classify	-0.1249387
-4.636858	classmate	-0.1249387
-4.937903	classy	-0.1249387
-4.937903	clattered	-0.1249387
-4.937903	clawed	-0.1249387
-4.937903	clawing	-0.1249387
-4.23891	clean	-0.1249387
-4.636858	cleaned	-0.1249387
-4.937903	cleaner	-0.1249387
-4.937903	cleaners	-0.1249387
-4.937903	cleanest	-0.1249387
-4.460763	cleaning	-0.30103
-4.937903	cleanliness	-0.1249387
-4.937903	cleansing	-0.1249387
-3.858695	clear	-0.1627273
-4.937903	clear-cut	-0.1249387
-4.937903	clearance	-0.1249387
-4.636858	cleared	-0.1249387
-4.937903	clearest	-0.1249387
-4.159728	clearly	-0.1249387
-4.937903	cleaver	-0.1249387
-4.636858	clerk	-0.1249387
-4.636858	clichs	-0.1249387
-4.636858	click	-0.1249387
-4.937903	clicked	-0.1249387
-4.23891	client	-0.1249387
-3.636845	clients	-0.1706962
-4.937903	cliff	-0.1249387
-4.937903	cliffs	-0.1249387
-4.937903	climate-changing	-0.1249387
-4.937903	climb	-0.1249387
-4.159728	climbed	-0.1249387
-4.636858	climbing	-0.1249387
-4.937903	clinched	-0.1249387
-4.937903	clinging	-0.1249387
-4.460763	clinical	-0.1249387
-4.937903	clinics	-0.1249387
-4.335821	clip	-0.1249387
-4.335821	clips	-0.1249387
-4.937903	cliques	-0.1249387
-4.636858	clock	-0.1249387
-4.636858	clogged	-0.1249387
-4.937903	clogs	-0.1249387
-3.615656	close	-0.30103
-4.937903	close-up	-0.1249387
-4.937903	close-ups	-0.1249387
-3.733756	closed	-0.287666
-4.335821	closely	-0.2498775
-4.460763	closer	-0.30103
-4.937903	closes	-0.1249387
-4.636858	closest	-0.1249387
-4.937903	closet	-0.1249387
-4.937903	closets	-0.1249387
-4.460763	closing	-0.1249387
-4.937903	closings	-0.1249387
-4.937903	clot	-0.1249387
-3.983635	clothes	-0.2340832
-3.858695	clothing	-0.20412
-4.937903	clots	-0.1249387
-4.937903	cloud	-0.1249387
-4.937903	clouded	-0.1249387
-4.937903	clouding	-0.1249387
-4.937903	clown	-0.1249387
-4.159728	club	-0.1249387
-4.937903	clubs	-0.1249387
-4.937903	clue	-0.1249387
-4.937903	clueless	-0.1249387
-4.937903	clues	-0.1249387
-4.937903	clung	-0.1249387
-4.937903	clunky	-0.1249387
-4.636858	clutching	-0.1249387
-4.636858	cluttered	-0.1249387
-4.937903	co-chairman	-0.1249387
-4.937903	co-director	-0.1249387
-4.034788	co-founder	-0.5509074
-4.937903	co-owner	-0.1249387
-4.937903	co-payment	-0.1249387
-4.937903	co-star	-0.1249387
-4.937903	co-worker	-0.1249387
-4.636858	coach	-0.1249387
-4.937903	coaches	-0.1249387
-4.460763	coal	-0.1249387
-4.937903	coalition	-0.1249387
-4.159728	coast	-0.20412
-4.937903	coastal	-0.1249387
-4.460763	coat	-0.1249387
-4.937903	coat-check	-0.1249387
-4.937903	coated	-0.1249387
-4.937903	coatimundis	-0.1249387
-4.937903	coating	-0.1249387
-4.937903	coats	-0.1249387
-4.937903	cobble	-0.1249387
-4.937903	cobblestone	-0.1249387
-4.937903	cockier	-0.1249387
-4.937903	cockpit	-0.1249387
-4.937903	cockroaches	-0.1249387
-4.23891	cocktail	-0.1249387
-4.937903	cocktail-sipping	-0.1249387
-4.937903	cocktails	-0.1249387
-4.09278	code	-0.1249387
-4.937903	codes	-0.1249387
-3.733756	coffee	-0.2498775
-4.636858	coffin	-0.1249387
-4.937903	coffins	-0.1249387
-4.937903	coherent	-0.1249387
-4.937903	coin	-0.1249387
-4.460763	coins	-0.1249387
-4.09278	cold	-0.3679768
-4.937903	collaboration	-0.1249387
-4.937903	collage	-0.1249387
-4.460763	collapse	-0.1249387
-3.896484	collapsed	-0.6892102
-4.937903	collar	-0.1249387
-4.937903	colleague	-0.1249387
-4.335821	colleagues	-0.1249387
-4.159728	collect	-0.1249387
-4.460763	collected	-0.1249387
-4.636858	collecting	-0.1249387
-4.23891	collection	-0.5228787
-4.937903	collections	-0.1249387
-4.460763	collective	-0.1249387
-4.636858	collectively	-0.1249387
-4.937903	collector	-0.1249387
-3.636845	college	-0.1706962
-4.937903	collegeconfidential.com	-0.1249387
-4.460763	collided	-0.30103
-4.937903	colonel	-0.1249387
-4.937903	colonial	-0.1249387
-4.937903	colonists	-0.1249387
-4.937903	colonnaded	-0.1249387
-4.937903	colony	-0.1249387
-4.636858	color	-0.1249387
-4.636858	colored	-0.1249387
-4.636858	colorful	-0.1249387
-4.937903	colorfully	-0.1249387
-4.460763	colors	-0.1249387
-4.937903	colossal-size	-0.1249387
-4.937903	colossus	-0.1249387
-4.636858	column	-0.1249387
-4.335821	columnist	-0.2498775
-4.937903	columnists	-0.1249387
-4.937903	combating	-0.1249387
-4.460763	combination	-0.30103
-4.937903	combinations	-0.1249387
-4.636858	combine	-0.1249387
-4.159728	combined	-0.1249387
-4.636858	combines	-0.1249387
-3.490717	come	-0.3679768
-4.937903	comeback	-0.1249387
-4.937903	comebacks	-0.1249387
-4.636858	comedian	-0.4259687
-4.937903	comedians	-0.1249387
-4.636858	comedy	-0.1249387
-3.615656	comes	-0.30103
-4.335821	comfort	-0.1249387
-4.23891	comfortable	-0.1249387
-4.937903	comforts	-0.1249387
-4.636858	comic	-0.1249387
-4.636858	comics	-0.1249387
-3.707427	coming	-0.313995
-3.983635	command	-1.079181
-4.937903	commanding	-0.1249387
-4.636858	commands	-0.1249387
-4.937903	commencement	-0.1249387
-4.636858	comment	-0.4259687
-4.937903	commentator	-0.1249387
-4.937903	commentators	-0.1249387
-4.937903	comments	-0.1249387
-4.636858	commerce	-0.1249387
-3.707427	commercial	-0.1512677
-3.896484	commercials	-0.3881802
-4.636858	commission	-0.1249387
-4.636858	commissioned	-0.1249387
-4.636858	commissioner	-0.1249387
-4.636858	commissions	-0.1249387
-4.23891	commitment	-0.2218487
-4.636858	committee	-0.1249387
-4.937903	committing	-0.1249387
-4.335821	commodities	-0.1249387
-3.937877	common	-0.1249387
-4.636858	commonly	-0.1249387
-4.937903	commotion	-0.1249387
-4.937903	communal	-0.1249387
-4.937903	communicate	-0.1249387
-4.937903	communicating	-0.1249387
-4.937903	communication	-0.1249387
-4.460763	communications	-0.1249387
-4.937903	communicator	-0.1249387
-4.937903	communist	-0.1249387
-4.460763	communities	-0.1249387
-4.159728	community	-0.20412
-4.937903	commute	-0.1249387
-4.636858	commuter	-0.1249387
-2.880969	companies	-0.4259687
-4.937903	companion	-0.1249387
-2.552268	company	-0.5062236
-4.636858	compare	-0.1249387
-4.335821	compared	-0.4259687
-4.937903	compares	-0.1249387
-4.636858	comparison	-0.4259687
-4.335821	compelling	-0.1249387
-4.460763	compensation	-0.1249387
-4.09278	compete	-0.2710668
-4.937903	competed	-0.1249387
-4.937903	competent	-0.1249387
-4.335821	competing	-0.1249387
-4.159728	competition	-0.1249387
-4.335821	competitive	-0.1249387
-4.937903	competitively	-0.1249387
-4.937903	competitor	-0.1249387
-4.034788	competitors	-0.2498775
-4.937903	compilation	-0.1249387
-4.937903	compile	-0.1249387
-4.937903	compiled	-0.1249387
-4.937903	complacent	-0.1249387
-4.937903	complained	-0.1249387
-4.937903	complaining	-0.1249387
-4.937903	complains	-0.1249387
-4.460763	complaints	-0.1249387
-4.23891	complete	-0.3467875
-4.636858	completed	-0.1249387
-4.23891	completely	-0.1249387
-4.335821	complex	-0.1249387
-4.636858	complexes	-0.1249387
-4.636858	complexity	-0.1249387
-4.636858	compliance	-0.1249387
-4.937903	complicate	-0.1249387
-4.460763	complicated	-0.1249387
-4.937903	comply	-0.1249387
-4.937903	composed	-0.1249387
-4.937903	composition	-0.1249387
-4.335821	compound	-0.4259688
-4.937903	comprising	-0.1249387
-4.937903	compromise	-0.1249387
-4.937903	compromises	-0.1249387
-4.937903	comptroller	-0.1249387
-4.937903	compulsion	-0.1249387
-3.238904	computer	-0.3053948
-4.636858	computerized	-0.1249387
-4.937903	computerizing	-0.1249387
-3.460753	computers	-0.2403322
-4.23891	computing	-0.2218488
-4.937903	conceal	-0.1249387
-4.937903	concealed	-0.1249387
-4.937903	concede	-0.1249387
-4.636858	conceded	-0.4259687
-4.23891	concept	-0.2218488
-4.937903	concepts	-0.1249387
-4.09278	concern	-0.2710668
-4.335821	concerned	-0.2498775
-4.23891	concerns	-0.3467875
-4.460763	concert	-0.1249387
-4.636858	concessions	-0.1249387
-4.335821	concierge	-0.2498775
-4.460763	concluded	-0.30103
-4.636858	conclusion	-0.1249387
-4.937903	concoction	-0.1249387
-4.937903	concoctions	-0.1249387
-4.937903	concurred	-0.1249387
-4.937903	condemn	-0.1249387
-4.937903	condemned	-0.1249387
-4.636858	condition	-0.1249387
-4.937903	conditional	-0.1249387
-4.335821	conditions	-0.1249387
-4.937903	condominium	-0.1249387
-4.937903	condominiums	-0.1249387
-4.937903	condos	-0.1249387
-4.460763	conducted	-0.1249387
-4.937903	conducts	-0.1249387
-4.937903	cone	-0.1249387
-4.937903	confectioners	-0.1249387
-3.682603	conference	-0.3388185
-4.937903	conferences	-0.1249387
-4.937903	confession	-0.1249387
-4.937903	confided	-0.1249387
-4.034788	confidence	-0.2498775
-4.460763	confident	-0.1249387
-4.937903	confidentiality	-0.1249387
-4.937903	configured	-0.1249387
-4.636858	confirmed	-0.1249387
-4.937903	conflict	-0.1249387
-4.937903	confounded	-0.1249387
-4.460763	confront	-0.30103
-4.937903	confrontation	-0.1249387
-4.937903	confrontational	-0.1249387
-4.636858	confronting	-0.4259687
-4.937903	confuse	-0.1249387
-4.937903	confusion	-0.1249387
-4.636858	conglomerate	-0.1249387
-4.937903	congratulating	-0.1249387
-4.937903	congregation	-0.1249387
-4.335821	connect	-0.1249387
-4.23891	connected	-0.2218488
-4.636858	connecting	-0.1249387
-4.09278	connection	-0.1918855
-4.23891	connections	-0.2218488
-4.937903	conscience	-0.1249387
-4.937903	conscious	-0.1249387
-4.937903	consciousness	-0.1249387
-4.23891	consecutive	-0.5228788
-4.937903	consensus	-0.1249387
-4.937903	consequence	-0.1249387
-4.937903	conservation	-0.1249387
-4.937903	conservatism	-0.1249387
-4.636858	conservative	-0.1249387
-4.09278	consider	-0.1918855
-3.896484	considered	-0.1249387
-4.636858	considering	-0.1249387
-4.460763	considers	-0.1249387
-4.937903	consigned	-0.1249387
-4.636858	consignment	-0.1249387
-4.937903	consist	-0.1249387
-4.636858	consists	-0.1249387
-4.636858	console	-0.1249387
-4.937903	consoles	-0.1249387
-4.636858	consolidated	-0.1249387
-4.937903	consolidating	-0.1249387
-4.937903	consolidation	-0.1249387
-4.937903	conspicuously	-0.1249387
-3.636845	conspiracy	-1.124939
-4.937903	conspiratorial	-0.1249387
-4.937903	conspiring	-0.1249387
-4.636858	constant	-0.1249388
-4.937903	constantly	-0.1249387
-4.636858	constitution	-0.1249387
-4.937903	constructed	-0.1249387
-4.23891	construction	-0.1249387
-4.636858	consult	-0.1249387
-3.983635	consultant	-0.1760913
-4.636858	consultants	-0.1249387
-4.636858	consulting	-0.1249387
-4.937903	consumed	-0.1249387
-3.682603	consumer	-0.3388186
-3.557664	consumers	-0.2498775
-4.937903	consumes	-0.1249387
-4.937903	consummated	-0.1249387
-4.937903	consumption	-0.1249387
-4.335821	contact	-0.1249387
-4.937903	contacted	-0.1249387
-4.937903	contain	-0.1249387
-4.460763	contained	-0.1249387
-4.460763	container	-0.1249387
-4.23891	containers	-0.1249387
-4.460763	containing	-0.1249387
-4.937903	contamination	-0.1249387
-4.460763	contemporary	-0.1249387
-4.937903	contempt	-0.1249387
-4.636858	contend	-0.1249387
-4.636858	contends	-0.1249387
-4.335821	content	-0.1249387
-4.937903	contentions	-0.1249387
-4.460763	contents	-0.30103
-4.460763	contest	-0.1249387
-4.460763	contested	-0.1249387
-4.937903	continent	-0.1249387
-4.937903	continents	-0.1249387
-4.09278	continue	-0.3679768
-4.034788	continued	-0.5509075
-4.23891	continues	-0.5228788
-4.636858	continuing	-0.1249387
-4.09278	contract	-0.1918855
-4.937903	contracted	-0.1249387
-4.335821	contractor	-0.1249387
-4.460763	contractors	-0.30103
-4.636858	contracts	-0.1249387
-4.937903	contrary	-0.1249387
-4.937903	contribute	-0.1249387
-4.937903	contributed	-0.1249387
-4.937903	contributing	-0.1249387
-4.937903	contribution	-0.1249387
-4.636858	contributor	-0.1249387
-3.823933	control	-0.393784
-4.636858	controlled	-0.1249387
-4.335821	controls	-0.1249387
-4.937903	controversial	-0.1249387
-4.937903	controversially	-0.1249387
-4.937903	conundrum	-0.1249387
-4.937903	conure	-0.1249387
-4.460763	convenience	-0.1249387
-4.460763	convention	-0.1249387
-3.937877	conventional	-0.2798407
-4.937903	conventions	-0.1249387
-4.937903	converge	-0.1249387
-4.937903	convergence	-0.1249387
-4.335821	conversation	-0.1249387
-4.937903	conversational	-0.1249387
-4.636858	conversations	-0.1249387
-4.937903	conversed	-0.1249387
-4.636858	convert	-0.1249387
-4.460763	converted	-0.30103
-4.23891	convertible	-0.1249387
-4.937903	conveying	-0.1249387
-4.937903	conveyors	-0.1249387
-4.937903	conveys	-0.1249387
-4.937903	convict	-0.1249387
-4.937903	convicted	-0.1249387
-4.335821	conviction	-0.2498775
-4.937903	convince	-0.1249387
-4.460763	convinced	-0.60206
-4.937903	cook	-0.1249387
-4.937903	cooked	-0.1249388
-4.937903	cookie-cutter	-0.1249387
-4.937903	cookies	-0.1249387
-4.460763	cooking	-0.1249387
-4.034788	cool	-0.2498775
-4.937903	cooled	-0.1249387
-4.937903	cooler	-0.1249387
-4.937903	coolest	-0.1249387
-4.937903	cooling	-0.1249387
-4.937903	cooperatives	-0.1249387
-4.937903	coordinated	-0.1249387
-4.636858	coordinator	-0.1249387
-4.937903	cop	-0.1249387
-4.636858	cope	-0.4259687
-4.335821	copies	-0.4259687
-4.636858	copper	-0.1249387
-4.636858	copy	-0.4259687
-4.937903	copywriter	-0.1249387
-4.460763	core	-0.1249387
-4.159728	corn	-0.20412
-4.034788	corner	-0.2498775
-4.937903	corners	-0.1249387
-4.937903	cornfields	-0.1249387
-4.937903	corniche	-0.1249387
-4.937903	corollary	-0.1249387
-4.460763	coronary	-0.30103
-3.256633	corporate	-0.2263964
-4.937903	corporate-executive	-0.1249387
-4.23891	corporation	-0.1249387
-4.034788	corporations	-0.1249387
-4.937903	corps	-0.1249387
-4.636858	correct	-0.4259687
-4.937903	corrected	-0.1249387
-4.937903	correctly	-0.1249387
-4.937903	correspondent	-0.1249387
-4.636858	corridor	-0.1249387
-4.937903	corrupt	-0.1249387
-4.937903	corrupted	-0.1249387
-4.460763	corruption	-0.1249387
-4.937903	corruptive	-0.1249387
-4.460763	cosmetics	-0.1249387
-3.539935	cost	-0.4089354
-4.937903	cost-conscious	-0.1249387
-4.937903	cost-cutting	-0.1249387
-4.23891	costly	-0.1249387
-3.557664	costs	-0.30103
-4.636858	costume	-0.1249387
-4.937903	costumed	-0.1249387
-4.937903	cottage	-0.1249387
-4.937903	cotton	-0.1249387
-4.937903	cotton-candy	-0.1249387
-4.460763	couch	-0.1249387
-4.937903	couches	-0.1249387
-2.888656	could	-0.3480819
-4.937903	counseled	-0.1249387
-4.937903	counseling	-0.1249387
-4.937903	counsels	-0.1249387
-4.335821	count	-0.2498775
-4.937903	countdown	-0.1249387
-4.460763	counted	-0.1249387
-3.983635	counter	-0.1760913
-4.937903	counterfeiting	-0.1249387
-4.937903	counterpart	-0.1249387
-4.937903	counters	-0.1249387
-4.937903	countertop	-0.1249387
-4.937903	countertops	-0.1249387
-4.460763	counting	-0.1249387
-4.335821	countless	-0.1249387
-3.761785	countries	-0.2596373
-3.335814	country	-0.4717262
-4.937903	countrymen	-0.1249387
-3.615656	counts	-0.748188
-4.460763	county	-0.30103
-4.937903	coupe	-0.1249387
-4.034788	couple	-0.2498775
-4.937903	coupons	-0.1249387
-4.937903	courage	-0.1249387
-3.557664	course	-0.30103
-4.636858	courses	-0.1249387
-4.034788	court	-0.1249387
-4.937903	courted	-0.1249387
-4.937903	courtesy	-0.1249387
-4.636858	courthouse	-0.1249387
-4.159728	courtroom	-0.20412
-4.937903	courts	-0.1249387
-4.937903	cousin	-0.1249387
-4.937903	cousins	-0.1249387
-3.823933	cover	-0.2388821
-4.460763	coverage	-0.1249387
-4.23891	covered	-0.1249387
-4.636858	covering	-0.1249387
-4.937903	coveted	-0.1249387
-4.937903	covets	-0.1249387
-4.937903	cow	-0.1249387
-4.937903	cowboys	-0.1249387
-4.937903	cowered	-0.1249387
-4.937903	cows	-0.1249387
-4.937903	coyotes	-0.1249387
-4.937903	crabs	-0.1249387
-4.937903	crack	-0.1249387
-4.937903	cracked	-0.1249387
-4.937903	cracking	-0.1249387
-4.937903	crackling	-0.1249387
-4.636858	craft	-0.1249387
-4.937903	crafts	-0.1249387
-4.937903	crags	-0.1249387
-4.636858	crammed	-0.4259687
-4.937903	cramped	-0.1249387
-4.937903	crash	-0.1249387
-4.937903	craters	-0.1249387
-4.937903	crates	-0.1249387
-4.937903	crave	-0.1249387
-4.937903	crawled	-0.1249387
-4.937903	crawls	-0.1249387
-4.937903	creaking	-0.1249387
-4.937903	cream	-0.1249387
-3.937877	create	-0.2218488
-3.761785	created	-0.2596373
-4.636858	creates	-0.1249387
-3.983635	creating	-0.2340832
-4.159728	creation	-0.30103
-4.335821	creative	-0.2498775
-4.937903	creativity	-0.1249387
-4.460763	creators	-0.1249387
-4.636858	creature	-0.1249387
